FANN_FLO_2.1
num_layers=3
learning_rate=0.700000
connection_rate=1.000000
network_type=0
learning_momentum=0.000000
training_algorithm=2
train_error_function=1
train_stop_function=0
cascade_output_change_fraction=0.010000
quickprop_decay=-0.000100
quickprop_mu=1.750000
rprop_increase_factor=1.200000
rprop_decrease_factor=0.500000
rprop_delta_min=0.000000
rprop_delta_max=50.000000
rprop_delta_zero=0.100000
cascade_output_stagnation_epochs=12
cascade_candidate_change_fraction=0.010000
cascade_candidate_stagnation_epochs=12
cascade_max_out_epochs=150
cascade_min_out_epochs=50
cascade_max_cand_epochs=150
cascade_min_cand_epochs=50
cascade_num_candidate_groups=2
bit_fail_limit=3.49999994039535522461e-01
cascade_candidate_limit=1.00000000000000000000e+03
cascade_weight_multiplier=4.00000005960464477539e-01
cascade_activation_functions_count=10
cascade_activation_functions=3 5 7 8 10 11 14 15 16 17 
cascade_activation_steepnesses_count=4
cascade_activation_steepnesses=2.50000000000000000000e-01 5.00000000000000000000e-01 7.50000000000000000000e-01 1.00000000000000000000e+00 
layer_sizes=13 10 6 
scale_included=0
neurons (num_inputs, activation_function, activation_steepness)=(0, 0, 0.00000000000000000000e+00) (0, 0, 0.00000000000000000000e+00) (0, 0, 0.00000000000000000000e+00) (0, 0, 0.00000000000000000000e+00) (0, 0, 0.00000000000000000000e+00) (0, 0, 0.00000000000000000000e+00) (0, 0, 0.00000000000000000000e+00) (0, 0, 0.00000000000000000000e+00) (0, 0, 0.00000000000000000000e+00) (0, 0, 0.00000000000000000000e+00) (0, 0, 0.00000000000000000000e+00) (0, 0, 0.00000000000000000000e+00) (0, 0, 0.00000000000000000000e+00) (13, 5, 5.00000000000000000000e-01) (13, 5, 5.00000000000000000000e-01) (13, 5, 5.00000000000000000000e-01) (13, 5, 5.00000000000000000000e-01) (13, 5, 5.00000000000000000000e-01) (13, 5, 5.00000000000000000000e-01) (13, 5, 5.00000000000000000000e-01) (13, 5, 5.00000000000000000000e-01) (13, 5, 5.00000000000000000000e-01) (0, 5, 0.00000000000000000000e+00) (10, 5, 5.00000000000000000000e-01) (10, 5, 5.00000000000000000000e-01) (10, 5, 5.00000000000000000000e-01) (10, 5, 5.00000000000000000000e-01) (10, 5, 5.00000000000000000000e-01) (0, 5, 0.00000000000000000000e+00) 
connections (connected_to_neuron, weight)=(0, 3.48770408630371093750e+01) (1, -3.74783264160156250000e+02) (2, 7.05844163894653320312e+00) (3, -3.89175176620483398438e-01) (4, -3.52548027038574218750e+01) (5, -3.51484405517578125000e+02) (6, 7.06289470195770263672e-01) (7, -2.56773996353149414062e+00) (8, -1.89017829895019531250e+01) (9, 6.43894791603088378906e-01) (10, 2.05363960266113281250e+01) (11, -2.43636465072631835938e+00) (12, -2.52775758504867553711e-01) (0, 2.01472137451171875000e+02) (1, -2.00245437622070312500e+02) (2, 5.35513639450073242188e-01) (3, -1.08406391143798828125e+01) (4, -2.57816123962402343750e+01) (5, 1.20353408813476562500e+02) (6, 1.09789466857910156250e+01) (7, -2.40371251106262207031e+00) (8, -9.98464813232421875000e+01) (9, 1.08854885101318359375e+01) (10, 2.04938163757324218750e+01) (11, -2.28792810440063476562e+00) (12, -2.40061461925506591797e-01) (0, -1.49200720214843750000e+03) (1, -1.90646255493164062500e+02) (2, -4.74060446023941040039e-01) (3, 1.42001617431640625000e+02) (4, 9.35818576812744140625e+00) (5, -1.78004135131835937500e+02) (6, -2.15248382568359375000e+02) (7, -1.38082730770111083984e+00) (8, 3.55639877319335937500e+01) (9, -2.15285156250000000000e+02) (10, -4.86611175537109375000e+00) (11, 5.75547099113464355469e-01) (12, 1.68803438544273376465e-01) (0, -1.97912549972534179688e+00) (1, -1.94043212890625000000e+02) (2, 1.75088500976562500000e+02) (3, 8.51108670234680175781e-01) (4, -1.20769744873046875000e+02) (5, -1.01913879394531250000e+02) (6, -4.52766609191894531250e+00) (7, 5.90898847579956054688e+00) (8, -1.15537905693054199219e+00) (9, -4.49045085906982421875e+00) (10, 5.25182151794433593750e+00) (11, -3.01899509429931640625e+01) (12, -3.82725894451141357422e-01) (0, 9.93020202636718750000e+02) (1, -1.70285243988037109375e+01) (2, 7.32212295532226562500e+01) (3, -1.42236022949218750000e+01) (4, -6.53952713012695312500e+01) (5, 1.74124774932861328125e+01) (6, 1.90722961425781250000e+01) (7, 1.13383842468261718750e+02) (8, 1.44099655151367187500e+02) (9, 1.91027679443359375000e+01) (10, -6.48128795623779296875e+00) (11, 6.73616123199462890625e+00) (12, 1.09017610549926757812e+00) (0, -1.11129821777343750000e+02) (1, -7.43287658691406250000e+01) (2, 2.31868820190429687500e+02) (3, 4.74141168594360351562e+00) (4, -6.03140563964843750000e+02) (5, -2.89599273681640625000e+02) (6, -7.41020660400390625000e+01) (7, 3.37605552673339843750e+01) (8, -4.14992380142211914062e+00) (9, -7.40218429565429687500e+01) (10, 2.83296871185302734375e+00) (11, -3.71004905700683593750e+01) (12, -2.13368520140647888184e-01) (0, 1.26252662658691406250e+02) (1, 2.91593813896179199219e+00) (2, 1.11254894733428955078e+00) (3, -1.16536798477172851562e+01) (4, -7.65538101196289062500e+01) (5, 1.24006080627441406250e+01) (6, 1.60075721740722656250e+01) (7, -2.25842490792274475098e-01) (8, -2.07116127014160156250e+01) (9, 1.60310382843017578125e+01) (10, 1.18242940902709960938e+01) (11, 1.88437461853027343750e+00) (12, 1.79330512881278991699e-01) (0, 1.49676525878906250000e+03) (1, 4.75611267089843750000e+02) (2, 1.53400850296020507812e+00) (3, -1.50000000000000000000e+03) (4, 1.43814504146575927734e-01) (5, 1.50000000000000000000e+03) (6, 1.56872055053710937500e+02) (7, 2.37721115112304687500e+02) (8, -8.41929779052734375000e+01) (9, 1.56901596069335937500e+02) (10, 3.18731999397277832031e+00) (11, -3.65447311401367187500e+01) (12, -5.47672450542449951172e-01) (0, 9.52698051929473876953e-01) (1, 1.14720821380615234375e-01) (2, 9.25212860107421875000e+00) (3, 3.74788343906402587891e-01) (4, 3.00179595947265625000e+02) (5, -1.00079667568206787109e+00) (6, 1.74619686603546142578e+00) (7, 1.54057991504669189453e+00) (8, -3.54233598709106445312e+00) (9, 1.74607837200164794922e+00) (10, -8.56015396118164062500e+00) (11, 7.69696176052093505859e-01) (12, -3.46548438072204589844e-01) (13, 4.29606103897094726562e+00) (14, 2.08349838256835937500e+01) (15, -2.07186004638671875000e+02) (16, 1.71789741516113281250e+00) (17, -2.55362453460693359375e+01) (18, 2.51388287544250488281e+00) (19, 2.09733176231384277344e+00) (20, -5.41103219985961914062e+00) (21, -1.69841662049293518066e-01) (22, -5.52248835563659667969e-01) (13, 1.18511795997619628906e+00) (14, 1.87654411792755126953e+00) (15, 2.95524616241455078125e+01) (16, 4.46388840675354003906e-01) (17, -1.30613830566406250000e+02) (18, -4.35305267572402954102e-01) (19, 2.64271676540374755859e-01) (20, -1.61895217895507812500e+01) (21, -1.37339711189270019531e+00) (22, -2.81887221336364746094e+00) (13, -1.48749237060546875000e+01) (14, -6.62100753784179687500e+01) (15, -1.38979935646057128906e+00) (16, -4.27582025527954101562e+00) (17, -2.20827636718750000000e+01) (18, -2.39126148223876953125e+01) (19, -9.85803842544555664062e-01) (20, 1.16600131988525390625e+00) (21, 1.11009998321533203125e+01) (22, -3.64817237854003906250e+00) (13, -2.91836681365966796875e+01) (14, -1.24265651702880859375e+01) (15, 6.02996158599853515625e+00) (16, 1.51564371585845947266e+00) (17, 1.96918354034423828125e+01) (18, 8.55074844360351562500e+01) (19, -1.54916608333587646484e+00) (20, -2.76438217163085937500e+01) (21, 3.86430048942565917969e+00) (22, 1.02849130630493164062e+01) (13, 4.81371790170669555664e-01) (14, 4.86445963382720947266e-01) (15, 2.67906589508056640625e+01) (16, 2.68607425689697265625e+01) (17, -2.90661692619323730469e+00) (18, 8.70006561279296875000e+00) (19, -4.43190246820449829102e-01) (20, 2.14985923767089843750e+01) (21, 1.73304915428161621094e+00) (22, 3.23000490665435791016e-01) 
