FANN_FLO_2.1
num_layers=3
learning_rate=0.700000
connection_rate=1.000000
network_type=0
learning_momentum=0.000000
training_algorithm=2
train_error_function=1
train_stop_function=0
cascade_output_change_fraction=0.010000
quickprop_decay=-0.000100
quickprop_mu=1.750000
rprop_increase_factor=1.200000
rprop_decrease_factor=0.500000
rprop_delta_min=0.000000
rprop_delta_max=50.000000
rprop_delta_zero=0.100000
cascade_output_stagnation_epochs=12
cascade_candidate_change_fraction=0.010000
cascade_candidate_stagnation_epochs=12
cascade_max_out_epochs=150
cascade_min_out_epochs=50
cascade_max_cand_epochs=150
cascade_min_cand_epochs=50
cascade_num_candidate_groups=2
bit_fail_limit=3.49999994039535522461e-01
cascade_candidate_limit=1.00000000000000000000e+03
cascade_weight_multiplier=4.00000005960464477539e-01
cascade_activation_functions_count=10
cascade_activation_functions=3 5 7 8 10 11 14 15 16 17 
cascade_activation_steepnesses_count=4
cascade_activation_steepnesses=2.50000000000000000000e-01 5.00000000000000000000e-01 7.50000000000000000000e-01 1.00000000000000000000e+00 
layer_sizes=3 10 3 
scale_included=0
neurons (num_inputs, activation_function, activation_steepness)=(0, 0, 0.00000000000000000000e+00) (0, 0, 0.00000000000000000000e+00) (0, 0, 0.00000000000000000000e+00) (3, 5, 5.00000000000000000000e-01) (3, 5, 5.00000000000000000000e-01) (3, 5, 5.00000000000000000000e-01) (3, 5, 5.00000000000000000000e-01) (3, 5, 5.00000000000000000000e-01) (3, 5, 5.00000000000000000000e-01) (3, 5, 5.00000000000000000000e-01) (3, 5, 5.00000000000000000000e-01) (3, 5, 5.00000000000000000000e-01) (0, 5, 0.00000000000000000000e+00) (10, 5, 5.00000000000000000000e-01) (10, 5, 5.00000000000000000000e-01) (0, 5, 0.00000000000000000000e+00) 
connections (connected_to_neuron, weight)=(0, 3.18181819915771484375e+01) (1, -4.24410629272460937500e+00) (2, 3.96817207336425781250e-01) (0, 7.58241424560546875000e+01) (1, -1.08969659805297851562e+01) (2, 9.14299845695495605469e-01) (0, -4.56529331207275390625e+00) (1, 1.06249213218688964844e+00) (2, -7.04468250274658203125e-01) (0, 7.59913864135742187500e+01) (1, -1.07707805633544921875e+01) (2, 9.21225905418395996094e-01) (0, 3.19393634796142578125e+01) (1, -4.30822610855102539062e+00) (2, 3.68434071540832519531e-01) (0, 3.18008403778076171875e+01) (1, -1.77444338798522949219e+00) (2, 1.76651731133460998535e-01) (0, 7.62606506347656250000e+01) (1, -1.81669878959655761719e+00) (2, 3.12228024005889892578e-01) (0, -5.10654373168945312500e+01) (1, 1.07125825881958007812e+01) (2, -4.23922717571258544922e-01) (0, 7.58438034057617187500e+01) (1, -2.40245199203491210938e+00) (2, 9.94005441665649414062e-01) (3, -9.53454685211181640625e+00) (4, -2.30393447875976562500e+01) (5, 4.86253440380096435547e-01) (6, -2.30498409271240234375e+01) (7, -1.70166053771972656250e+01) (8, -4.75384473800659179688e+00) (9, -6.69381952285766601562e+00) (10, 8.64721374511718750000e+01) (11, -4.09354438781738281250e+01) (12, -7.08194553852081298828e-01) (3, 1.10032100677490234375e+01) (4, 2.63325290679931640625e+01) (5, 2.67188876867294311523e-01) (6, 2.62886276245117187500e+01) (7, 2.58604698181152343750e+01) (8, 4.34192228317260742188e+00) (9, 1.98990595340728759766e+00) (10, -2.04916702270507812500e+02) (11, 4.30199737548828125000e+01) (12, 9.02946293354034423828e-01) 
