FANN_FLO_2.1
num_layers=3
learning_rate=0.700000
connection_rate=1.000000
network_type=0
learning_momentum=0.000000
training_algorithm=2
train_error_function=1
train_stop_function=0
cascade_output_change_fraction=0.010000
quickprop_decay=-0.000100
quickprop_mu=1.750000
rprop_increase_factor=1.200000
rprop_decrease_factor=0.500000
rprop_delta_min=0.000000
rprop_delta_max=50.000000
rprop_delta_zero=0.100000
cascade_output_stagnation_epochs=12
cascade_candidate_change_fraction=0.010000
cascade_candidate_stagnation_epochs=12
cascade_max_out_epochs=150
cascade_min_out_epochs=50
cascade_max_cand_epochs=150
cascade_min_cand_epochs=50
cascade_num_candidate_groups=2
bit_fail_limit=3.49999994039535522461e-01
cascade_candidate_limit=1.00000000000000000000e+03
cascade_weight_multiplier=4.00000005960464477539e-01
cascade_activation_functions_count=10
cascade_activation_functions=3 5 7 8 10 11 14 15 16 17 
cascade_activation_steepnesses_count=4
cascade_activation_steepnesses=2.50000000000000000000e-01 5.00000000000000000000e-01 7.50000000000000000000e-01 1.00000000000000000000e+00 
layer_sizes=5 10 3 
scale_included=0
neurons (num_inputs, activation_function, activation_steepness)=(0, 0, 0.00000000000000000000e+00) (0, 0, 0.00000000000000000000e+00) (0, 0, 0.00000000000000000000e+00) (0, 0, 0.00000000000000000000e+00) (0, 0, 0.00000000000000000000e+00) (5, 5, 5.00000000000000000000e-01) (5, 5, 5.00000000000000000000e-01) (5, 5, 5.00000000000000000000e-01) (5, 5, 5.00000000000000000000e-01) (5, 5, 5.00000000000000000000e-01) (5, 5, 5.00000000000000000000e-01) (5, 5, 5.00000000000000000000e-01) (5, 5, 5.00000000000000000000e-01) (5, 5, 5.00000000000000000000e-01) (0, 5, 0.00000000000000000000e+00) (10, 5, 5.00000000000000000000e-01) (10, 5, 5.00000000000000000000e-01) (0, 5, 0.00000000000000000000e+00) 
connections (connected_to_neuron, weight)=(0, 2.34231307983398437500e+02) (1, -6.64175720214843750000e+02) (2, 1.22249832153320312500e+02) (3, 1.13494453430175781250e+02) (4, -1.49110782146453857422e+00) (0, 3.92319631576538085938e+00) (1, -1.68650150299072265625e+00) (2, 1.31469621658325195312e+01) (3, -7.63038158416748046875e+00) (4, -6.79311826825141906738e-02) (0, -3.07398103177547454834e-02) (1, 5.87168169021606445312e+00) (2, -1.90272388458251953125e+01) (3, 1.41054372787475585938e+01) (4, 1.39557152986526489258e-01) (0, 2.64855346679687500000e+01) (1, -1.77548355102539062500e+02) (2, 2.47108802795410156250e+01) (3, -1.29368713378906250000e+02) (4, 1.10842478275299072266e+00) (0, 2.41991829872131347656e+00) (1, 1.45036001205444335938e+01) (2, 9.09729480743408203125e+00) (3, -4.59719276428222656250e+00) (4, 1.69099509716033935547e-01) (0, 3.28400802612304687500e+01) (1, 3.48557434082031250000e+01) (2, 2.01079006195068359375e+01) (3, -1.98423385620117187500e+01) (4, 9.43371832370758056641e-01) (0, -9.52057838439941406250e+00) (1, 3.16903066635131835938e+00) (2, -1.90572681427001953125e+01) (3, 1.53861007690429687500e+01) (4, 5.50706237554550170898e-02) (0, 5.44486427307128906250e+00) (1, -1.93415176868438720703e+00) (2, -6.73893499374389648438e+00) (3, 3.00590582191944122314e-02) (4, -2.51563519239425659180e-01) (0, 2.43257427215576171875e+00) (1, 3.13258695602416992188e+00) (2, 6.56911802291870117188e+00) (3, -3.60494375228881835938e-01) (4, 2.89485782384872436523e-01) (5, -4.90843544006347656250e+01) (6, -5.59559669494628906250e+01) (7, 5.85746345520019531250e+01) (8, -4.57886276245117187500e+01) (9, -7.65958845615386962891e-01) (10, -1.53451309204101562500e+01) (11, 3.98665046691894531250e+01) (12, 7.29175209999084472656e-01) (13, -7.56031572818756103516e-01) (14, -1.26253247261047363281e+00) (5, 5.29579887390136718750e+01) (6, 9.12119293212890625000e+01) (7, -5.70939559936523437500e+01) (8, 5.07023773193359375000e+01) (9, 5.74976158142089843750e+00) (10, 1.70078563690185546875e+01) (11, -2.50756645202636718750e+01) (12, -2.90185153484344482422e-01) (13, 5.61584830284118652344e-01) (14, 6.97416007518768310547e-01) 
