FANN_FLO_2.1
num_layers=3
learning_rate=0.700000
connection_rate=1.000000
network_type=0
learning_momentum=0.000000
training_algorithm=2
train_error_function=1
train_stop_function=0
cascade_output_change_fraction=0.010000
quickprop_decay=-0.000100
quickprop_mu=1.750000
rprop_increase_factor=1.200000
rprop_decrease_factor=0.500000
rprop_delta_min=0.000000
rprop_delta_max=50.000000
rprop_delta_zero=0.100000
cascade_output_stagnation_epochs=12
cascade_candidate_change_fraction=0.010000
cascade_candidate_stagnation_epochs=12
cascade_max_out_epochs=150
cascade_min_out_epochs=50
cascade_max_cand_epochs=150
cascade_min_cand_epochs=50
cascade_num_candidate_groups=2
bit_fail_limit=3.49999994039535522461e-01
cascade_candidate_limit=1.00000000000000000000e+03
cascade_weight_multiplier=4.00000005960464477539e-01
cascade_activation_functions_count=10
cascade_activation_functions=3 5 7 8 10 11 14 15 16 17 
cascade_activation_steepnesses_count=4
cascade_activation_steepnesses=2.50000000000000000000e-01 5.00000000000000000000e-01 7.50000000000000000000e-01 1.00000000000000000000e+00 
layer_sizes=3 10 3 
scale_included=0
neurons (num_inputs, activation_function, activation_steepness)=(0, 0, 0.00000000000000000000e+00) (0, 0, 0.00000000000000000000e+00) (0, 0, 0.00000000000000000000e+00) (3, 5, 5.00000000000000000000e-01) (3, 5, 5.00000000000000000000e-01) (3, 5, 5.00000000000000000000e-01) (3, 5, 5.00000000000000000000e-01) (3, 5, 5.00000000000000000000e-01) (3, 5, 5.00000000000000000000e-01) (3, 5, 5.00000000000000000000e-01) (3, 5, 5.00000000000000000000e-01) (3, 5, 5.00000000000000000000e-01) (0, 5, 0.00000000000000000000e+00) (10, 5, 5.00000000000000000000e-01) (10, 5, 5.00000000000000000000e-01) (0, 5, 0.00000000000000000000e+00) 
connections (connected_to_neuron, weight)=(0, -2.44496326446533203125e+01) (1, 1.81059036254882812500e+01) (2, 1.59154385328292846680e-01) (0, -4.48868789672851562500e+01) (1, 8.67097377777099609375e+00) (2, 3.49187880754470825195e-01) (0, -2.44694328308105468750e+01) (1, 1.80021228790283203125e+01) (2, 1.43345028162002563477e-01) (0, 1.27953994750976562500e+02) (1, -1.66653861999511718750e+01) (2, -1.93161725997924804688e-01) (0, 1.28036453247070312500e+02) (1, -1.66134662628173828125e+01) (2, -2.19925522804260253906e-01) (0, -7.31704330444335937500e+00) (1, 6.02632093429565429688e+00) (2, 6.44357442855834960938e-01) (0, 1.28048355102539062500e+02) (1, -1.66621532440185546875e+01) (2, -2.43464484810829162598e-01) (0, -1.08123504638671875000e+02) (1, 3.32825431823730468750e+01) (2, 1.01963329315185546875e+00) (0, -1.08160888671875000000e+02) (1, 3.32576484680175781250e+01) (2, 9.81888592243194580078e-01) (3, -5.28128910064697265625e+00) (4, -1.83556258678436279297e+00) (5, -5.31340456008911132812e+00) (6, 5.28318405151367187500e+00) (7, 5.24259471893310546875e+00) (8, -6.58274814486503601074e-02) (9, 5.31949853897094726562e+00) (10, -2.31513118743896484375e+00) (11, -2.37674546241760253906e+00) (12, -3.32206964492797851562e-01) (3, 7.20224332809448242188e+00) (4, 2.09870505332946777344e+00) (5, 5.42970275878906250000e+00) (6, -4.45119190216064453125e+00) (7, -4.42935228347778320312e+00) (8, 4.78981375694274902344e-01) (9, -4.49369049072265625000e+00) (10, 1.69405472278594970703e+00) (11, 1.64586400985717773438e+00) (12, 1.51907014846801757812e+00) 
