FANN_FLO_2.1
num_layers=3
learning_rate=0.700000
connection_rate=1.000000
network_type=0
learning_momentum=0.000000
training_algorithm=2
train_error_function=1
train_stop_function=0
cascade_output_change_fraction=0.010000
quickprop_decay=-0.000100
quickprop_mu=1.750000
rprop_increase_factor=1.200000
rprop_decrease_factor=0.500000
rprop_delta_min=0.000000
rprop_delta_max=50.000000
rprop_delta_zero=0.100000
cascade_output_stagnation_epochs=12
cascade_candidate_change_fraction=0.010000
cascade_candidate_stagnation_epochs=12
cascade_max_out_epochs=150
cascade_min_out_epochs=50
cascade_max_cand_epochs=150
cascade_min_cand_epochs=50
cascade_num_candidate_groups=2
bit_fail_limit=3.49999994039535522461e-01
cascade_candidate_limit=1.00000000000000000000e+03
cascade_weight_multiplier=4.00000005960464477539e-01
cascade_activation_functions_count=10
cascade_activation_functions=3 5 7 8 10 11 14 15 16 17 
cascade_activation_steepnesses_count=4
cascade_activation_steepnesses=2.50000000000000000000e-01 5.00000000000000000000e-01 7.50000000000000000000e-01 1.00000000000000000000e+00 
layer_sizes=2 10 4 
scale_included=0
neurons (num_inputs, activation_function, activation_steepness)=(0, 0, 0.00000000000000000000e+00) (0, 0, 0.00000000000000000000e+00) (2, 5, 5.00000000000000000000e-01) (2, 5, 5.00000000000000000000e-01) (2, 5, 5.00000000000000000000e-01) (2, 5, 5.00000000000000000000e-01) (2, 5, 5.00000000000000000000e-01) (2, 5, 5.00000000000000000000e-01) (2, 5, 5.00000000000000000000e-01) (2, 5, 5.00000000000000000000e-01) (2, 5, 5.00000000000000000000e-01) (0, 5, 0.00000000000000000000e+00) (10, 5, 5.00000000000000000000e-01) (10, 5, 5.00000000000000000000e-01) (10, 5, 5.00000000000000000000e-01) (0, 5, 0.00000000000000000000e+00) 
connections (connected_to_neuron, weight)=(0, -2.00321159362792968750e+01) (1, 1.58554494380950927734e+00) (0, 1.09519851207733154297e+00) (1, 1.65114676952362060547e+00) (0, -1.63191661834716796875e+01) (1, -4.63570404052734375000e+00) (0, -2.18756627291440963745e-02) (1, -1.29907941818237304688e+01) (0, -1.64053440093994140625e+01) (1, -4.58971977233886718750e+00) (0, -1.17169797420501708984e+00) (1, 3.61063432693481445312e+00) (0, -1.13923692703247070312e+00) (1, 3.66571831703186035156e+00) (0, -1.74021282196044921875e+01) (1, 2.75092411041259765625e+00) (0, -2.01866149902343750000e+01) (1, 2.06045126914978027344e+00) (2, -4.42094296216964721680e-01) (3, 7.13833749294281005859e-01) (4, 2.22680044174194335938e+00) (5, 1.12602829933166503906e-01) (6, 2.26604747772216796875e+00) (7, 5.87032079696655273438e-01) (8, 3.19531410932540893555e-01) (9, 5.37834584712982177734e-01) (10, 5.34293800592422485352e-02) (11, -3.55814099311828613281e-01) (2, -7.12874937057495117188e+00) (3, 6.78267061710357666016e-01) (4, 1.30952596664428710938e+00) (5, 3.05358767509460449219e-01) (6, 5.67645013332366943359e-01) (7, -7.09788858890533447266e-01) (8, -9.61261928081512451172e-01) (9, -7.24658632278442382812e+00) (10, -7.17130899429321289062e+00) (11, 1.63055539131164550781e-01) (2, 2.24429941177368164062e+00) (3, -3.74450713396072387695e-01) (4, -1.13465845584869384766e+00) (5, 5.78698992729187011719e-01) (6, -2.57192134857177734375e+00) (7, -1.08791553974151611328e+00) (8, -1.01190435886383056641e+00) (9, 1.32145273685455322266e+00) (10, 1.30252790451049804688e+00) (11, -2.00087547302246093750e+00) 
