FANN_FLO_2.1
num_layers=3
learning_rate=0.700000
connection_rate=1.000000
network_type=0
learning_momentum=0.000000
training_algorithm=2
train_error_function=1
train_stop_function=0
cascade_output_change_fraction=0.010000
quickprop_decay=-0.000100
quickprop_mu=1.750000
rprop_increase_factor=1.200000
rprop_decrease_factor=0.500000
rprop_delta_min=0.000000
rprop_delta_max=50.000000
rprop_delta_zero=0.100000
cascade_output_stagnation_epochs=12
cascade_candidate_change_fraction=0.010000
cascade_candidate_stagnation_epochs=12
cascade_max_out_epochs=150
cascade_min_out_epochs=50
cascade_max_cand_epochs=150
cascade_min_cand_epochs=50
cascade_num_candidate_groups=2
bit_fail_limit=3.49999994039535522461e-01
cascade_candidate_limit=1.00000000000000000000e+03
cascade_weight_multiplier=4.00000005960464477539e-01
cascade_activation_functions_count=10
cascade_activation_functions=3 5 7 8 10 11 14 15 16 17 
cascade_activation_steepnesses_count=4
cascade_activation_steepnesses=2.50000000000000000000e-01 5.00000000000000000000e-01 7.50000000000000000000e-01 1.00000000000000000000e+00 
layer_sizes=4 10 3 
scale_included=0
neurons (num_inputs, activation_function, activation_steepness)=(0, 0, 0.00000000000000000000e+00) (0, 0, 0.00000000000000000000e+00) (0, 0, 0.00000000000000000000e+00) (0, 0, 0.00000000000000000000e+00) (4, 5, 5.00000000000000000000e-01) (4, 5, 5.00000000000000000000e-01) (4, 5, 5.00000000000000000000e-01) (4, 5, 5.00000000000000000000e-01) (4, 5, 5.00000000000000000000e-01) (4, 5, 5.00000000000000000000e-01) (4, 5, 5.00000000000000000000e-01) (4, 5, 5.00000000000000000000e-01) (4, 5, 5.00000000000000000000e-01) (0, 5, 0.00000000000000000000e+00) (10, 5, 5.00000000000000000000e-01) (10, 5, 5.00000000000000000000e-01) (0, 5, 0.00000000000000000000e+00) 
connections (connected_to_neuron, weight)=(0, -2.30916461944580078125e+01) (1, 2.90533332824707031250e+01) (2, -5.65751228332519531250e+01) (3, 1.37349087744951248169e-02) (0, 1.21287918090820312500e+01) (1, -1.29591798782348632812e+01) (2, 2.34611492156982421875e+01) (3, 1.88183024525642395020e-01) (0, 2.94823875427246093750e+01) (1, -3.18360404968261718750e+01) (2, 5.65970268249511718750e+01) (3, 5.05311548709869384766e-01) (0, -2.77338385581970214844e+00) (1, 6.73813104629516601562e+00) (2, -9.65505790710449218750e+00) (3, 4.15959537029266357422e-01) (0, 2.96315994262695312500e+01) (1, -3.18245544433593750000e+01) (2, 5.66028251647949218750e+01) (3, 4.83087450265884399414e-01) (0, -2.31261405944824218750e+01) (1, 2.90483665466308593750e+01) (2, -5.66650047302246093750e+01) (3, -7.17701613903045654297e-02) (0, -2.30628452301025390625e+01) (1, 2.90816383361816406250e+01) (2, -5.67028884887695312500e+01) (3, -3.71459163725376129150e-02) (0, 1.94716668128967285156e+00) (1, -1.76894176006317138672e+00) (2, 3.92045569419860839844e+00) (3, -3.70848596096038818359e-01) (0, -2.31559047698974609375e+01) (1, 2.90430984497070312500e+01) (2, -5.67055778503417968750e+01) (3, 1.80765707045793533325e-02) (4, 1.03149366378784179688e+01) (5, -1.48081213235855102539e-01) (6, -5.77568709850311279297e-01) (7, 5.28629183769226074219e-01) (8, -5.55086553096771240234e-01) (9, 1.02757349014282226562e+01) (10, 1.02482442855834960938e+01) (11, -7.05105364322662353516e-02) (12, 1.02001066207885742188e+01) (13, -2.73561924695968627930e-02) (4, -4.27163267135620117188e+00) (5, 7.30716347694396972656e-01) (6, 1.87240564823150634766e+00) (7, -1.22271621227264404297e+00) (8, 1.82982897758483886719e+00) (9, -4.40559673309326171875e+00) (10, -4.36220502853393554688e+00) (11, 8.14839899539947509766e-01) (12, -4.40253734588623046875e+00) (13, -5.42974770069122314453e-01) 
