FANN_FLO_2.1
num_layers=3
learning_rate=0.700000
connection_rate=1.000000
network_type=0
learning_momentum=0.000000
training_algorithm=2
train_error_function=1
train_stop_function=0
cascade_output_change_fraction=0.010000
quickprop_decay=-0.000100
quickprop_mu=1.750000
rprop_increase_factor=1.200000
rprop_decrease_factor=0.500000
rprop_delta_min=0.000000
rprop_delta_max=50.000000
rprop_delta_zero=0.100000
cascade_output_stagnation_epochs=12
cascade_candidate_change_fraction=0.010000
cascade_candidate_stagnation_epochs=12
cascade_max_out_epochs=150
cascade_min_out_epochs=50
cascade_max_cand_epochs=150
cascade_min_cand_epochs=50
cascade_num_candidate_groups=2
bit_fail_limit=3.49999994039535522461e-01
cascade_candidate_limit=1.00000000000000000000e+03
cascade_weight_multiplier=4.00000005960464477539e-01
cascade_activation_functions_count=10
cascade_activation_functions=3 5 7 8 10 11 14 15 16 17 
cascade_activation_steepnesses_count=4
cascade_activation_steepnesses=2.50000000000000000000e-01 5.00000000000000000000e-01 7.50000000000000000000e-01 1.00000000000000000000e+00 
layer_sizes=3 10 3 
scale_included=0
neurons (num_inputs, activation_function, activation_steepness)=(0, 0, 0.00000000000000000000e+00) (0, 0, 0.00000000000000000000e+00) (0, 0, 0.00000000000000000000e+00) (3, 5, 5.00000000000000000000e-01) (3, 5, 5.00000000000000000000e-01) (3, 5, 5.00000000000000000000e-01) (3, 5, 5.00000000000000000000e-01) (3, 5, 5.00000000000000000000e-01) (3, 5, 5.00000000000000000000e-01) (3, 5, 5.00000000000000000000e-01) (3, 5, 5.00000000000000000000e-01) (3, 5, 5.00000000000000000000e-01) (0, 5, 0.00000000000000000000e+00) (10, 5, 5.00000000000000000000e-01) (10, 5, 5.00000000000000000000e-01) (0, 5, 0.00000000000000000000e+00) 
connections (connected_to_neuron, weight)=(0, -2.15803176164627075195e-01) (1, 4.61496973037719726562e+00) (2, 2.57304638624191284180e-01) (0, -4.40355122089385986328e-01) (1, 1.33877122402191162109e+00) (2, 1.10664296150207519531e+00) (0, 6.20109438896179199219e-01) (1, -3.71337294578552246094e+00) (2, -7.17363655567169189453e-01) (0, 3.69945794343948364258e-01) (1, -2.96812248229980468750e+00) (2, -4.39621269702911376953e-01) (0, -8.53254318237304687500e-01) (1, 1.13739955425262451172e+00) (2, 1.03574061393737792969e+00) (0, 9.97161686420440673828e-01) (1, -3.64867782592773437500e+01) (2, -6.91184163093566894531e-01) (0, -4.98783707618713378906e-01) (1, 5.19233942031860351562e-01) (2, 1.20172381401062011719e-01) (0, 9.76506590843200683594e-01) (1, -4.76684532165527343750e+01) (2, -5.81305205821990966797e-01) (0, -1.06975126266479492188e+00) (1, 1.39297628402709960938e+00) (2, 1.08930265903472900391e+00) (3, 3.08243198394775390625e+01) (4, 9.73296284675598144531e-01) (5, -1.50000000000000000000e+03) (6, -8.31295585632324218750e+00) (7, 4.49671295166015625000e+02) (8, -4.28168821334838867188e+00) (9, 1.92624413967132568359e+00) (10, -6.07116889953613281250e+01) (11, 3.51935434341430664062e+00) (12, 6.12618505954742431641e-01) (3, -4.45635147094726562500e+01) (4, -4.28805917501449584961e-01) (5, 1.50000000000000000000e+03) (6, 1.87720909118652343750e+01) (7, -5.38876403808593750000e+02) (8, 1.66160717010498046875e+01) (9, 1.50981009006500244141e-01) (10, 6.26315994262695312500e+01) (11, -2.78391146659851074219e+00) (12, -4.05668199062347412109e-01) 
