FANN_FLO_2.1
num_layers=3
learning_rate=0.700000
connection_rate=1.000000
network_type=0
learning_momentum=0.000000
training_algorithm=2
train_error_function=1
train_stop_function=0
cascade_output_change_fraction=0.010000
quickprop_decay=-0.000100
quickprop_mu=1.750000
rprop_increase_factor=1.200000
rprop_decrease_factor=0.500000
rprop_delta_min=0.000000
rprop_delta_max=50.000000
rprop_delta_zero=0.100000
cascade_output_stagnation_epochs=12
cascade_candidate_change_fraction=0.010000
cascade_candidate_stagnation_epochs=12
cascade_max_out_epochs=150
cascade_min_out_epochs=50
cascade_max_cand_epochs=150
cascade_min_cand_epochs=50
cascade_num_candidate_groups=2
bit_fail_limit=3.49999994039535522461e-01
cascade_candidate_limit=1.00000000000000000000e+03
cascade_weight_multiplier=4.00000005960464477539e-01
cascade_activation_functions_count=10
cascade_activation_functions=3 5 7 8 10 11 14 15 16 17 
cascade_activation_steepnesses_count=4
cascade_activation_steepnesses=2.50000000000000000000e-01 5.00000000000000000000e-01 7.50000000000000000000e-01 1.00000000000000000000e+00 
layer_sizes=13 10 6 
scale_included=0
neurons (num_inputs, activation_function, activation_steepness)=(0, 0, 0.00000000000000000000e+00) (0, 0, 0.00000000000000000000e+00) (0, 0, 0.00000000000000000000e+00) (0, 0, 0.00000000000000000000e+00) (0, 0, 0.00000000000000000000e+00) (0, 0, 0.00000000000000000000e+00) (0, 0, 0.00000000000000000000e+00) (0, 0, 0.00000000000000000000e+00) (0, 0, 0.00000000000000000000e+00) (0, 0, 0.00000000000000000000e+00) (0, 0, 0.00000000000000000000e+00) (0, 0, 0.00000000000000000000e+00) (0, 0, 0.00000000000000000000e+00) (13, 5, 5.00000000000000000000e-01) (13, 5, 5.00000000000000000000e-01) (13, 5, 5.00000000000000000000e-01) (13, 5, 5.00000000000000000000e-01) (13, 5, 5.00000000000000000000e-01) (13, 5, 5.00000000000000000000e-01) (13, 5, 5.00000000000000000000e-01) (13, 5, 5.00000000000000000000e-01) (13, 5, 5.00000000000000000000e-01) (0, 5, 0.00000000000000000000e+00) (10, 5, 5.00000000000000000000e-01) (10, 5, 5.00000000000000000000e-01) (10, 5, 5.00000000000000000000e-01) (10, 5, 5.00000000000000000000e-01) (10, 5, 5.00000000000000000000e-01) (0, 5, 0.00000000000000000000e+00) 
connections (connected_to_neuron, weight)=(0, 1.50000000000000000000e+03) (1, 6.17547452449798583984e-01) (2, -4.96317803859710693359e-01) (3, -4.19095458984375000000e+01) (4, 2.27224445343017578125e+00) (5, -7.66482086181640625000e+01) (6, -6.41743481159210205078e-01) (7, -7.43166625976562500000e+02) (8, 1.11154441833496093750e+02) (9, -5.56226730346679687500e-01) (10, 3.88440442085266113281e+00) (11, 9.35017272949218750000e+02) (12, 1.83676862716674804688e+00) (0, 3.02245300292968750000e+02) (1, -6.80737609863281250000e+01) (2, 8.45157318115234375000e+01) (3, -6.20509872436523437500e+01) (4, -3.08749885559082031250e+01) (5, 5.70967651367187500000e+02) (6, 2.60218441486358642578e-01) (7, 1.12791206359863281250e+02) (8, 9.93525543212890625000e+01) (9, 3.12480717897415161133e-01) (10, 2.56105732917785644531e+00) (11, -3.50848968505859375000e+02) (12, 1.41354775428771972656e+00) (0, 6.40418334960937500000e+02) (1, 4.99658346176147460938e+00) (2, 2.60107898712158203125e+00) (3, -3.56997467041015625000e+02) (4, -1.82944931030273437500e+02) (5, 4.30156616210937500000e+02) (6, 3.63744950294494628906e+00) (7, 2.39239559173583984375e+01) (8, 7.51453399658203125000e-01) (9, 3.60047721862792968750e+00) (10, -7.74361085891723632812e+00) (11, -3.06672334671020507812e+00) (12, 7.40015149116516113281e-01) (0, -2.40647369384765625000e+02) (1, -4.46159095764160156250e+01) (2, 9.04471588134765625000e+00) (3, 1.50120553970336914062e+01) (4, 1.78691024780273437500e+02) (5, 3.46922546386718750000e+02) (6, 1.08417463302612304688e+00) (7, -1.39634571075439453125e+01) (8, 5.91566610336303710938e+00) (9, 1.00349688529968261719e+00) (10, -5.74774932861328125000e+00) (11, -7.77333602905273437500e+01) (12, -8.57683718204498291016e-01) (0, 5.80067687988281250000e+02) (1, 1.95182571411132812500e+02) (2, -6.23478233814239501953e-01) (3, -1.11111976623535156250e+02) (4, 2.03718090057373046875e+01) (5, 2.71547668457031250000e+02) (6, 1.97229232788085937500e+01) (7, 2.01391983032226562500e+01) (8, -5.18564949035644531250e+01) (9, 1.96939849853515625000e+01) (10, 4.85302090644836425781e-01) (11, 1.39110136032104492188e+01) (12, -4.22097556293010711670e-03) (0, 1.36677380371093750000e+03) (1, 8.62200736999511718750e-01) (2, 1.24138748168945312500e+02) (3, -5.35693786621093750000e+02) (4, -1.34203720092773437500e+02) (5, -4.06996856689453125000e+02) (6, 1.97445861816406250000e+02) (7, 1.66384109497070312500e+02) (8, 2.89082763671875000000e+02) (9, 1.97357299804687500000e+02) (10, 3.42773646116256713867e-01) (11, 9.71844768524169921875e+00) (12, 3.04316133260726928711e-01) (0, 1.38936328125000000000e+03) (1, 1.05596992492675781250e+02) (2, -5.04512667655944824219e-01) (3, -1.07393310546875000000e+03) (4, -3.08401165008544921875e+01) (5, -8.75469116210937500000e+02) (6, -9.77627868652343750000e+01) (7, 4.03755035400390625000e+01) (8, -5.29360771179199218750e+01) (9, -9.78193511962890625000e+01) (10, 2.41721267700195312500e+01) (11, 1.86443557739257812500e+02) (12, 1.44714963436126708984e+00) (0, -1.50000000000000000000e+03) (1, -1.50000000000000000000e+03) (2, 4.34263134002685546875e+00) (3, 6.85899719238281250000e+02) (4, 2.68390566110610961914e-01) (5, 1.50000000000000000000e+03) (6, 4.41352218389511108398e-01) (7, -5.87580718994140625000e+01) (8, -2.83108890056610107422e-01) (9, 4.62518692016601562500e-01) (10, 2.57172298431396484375e+01) (11, -1.38401916503906250000e+03) (12, 1.26310452818870544434e-01) (0, 1.50000000000000000000e+03) (1, 6.66953491210937500000e+02) (2, 1.16787433624267578125e+00) (3, -1.00624938964843750000e+03) (4, -4.79563781738281250000e+02) (5, 2.11929519653320312500e+02) (6, 1.04069787597656250000e+03) (7, -5.51801824569702148438e+00) (8, -1.44500000000000000000e+03) (9, 1.04084985351562500000e+03) (10, 2.14756393432617187500e+01) (11, -3.04325008392333984375e+01) (12, -1.11448979377746582031e+00) (13, 3.30746889114379882812e+00) (14, 3.02774715423583984375e+01) (15, -3.94844779968261718750e+01) (16, 6.57122552394866943359e-01) (17, 1.79928436279296875000e+01) (18, 7.08460845947265625000e+01) (19, 3.54989171028137207031e+00) (20, 6.08450889587402343750e-01) (21, 8.20884399414062500000e+01) (22, 1.97647142410278320312e+00) (13, -3.88780379295349121094e+00) (14, 1.60329806804656982422e+00) (15, -7.43527679443359375000e+01) (16, 4.95883035659790039062e+00) (17, -4.22418785095214843750e+00) (18, -8.09388580322265625000e+01) (19, -3.81588339805603027344e+00) (20, 8.91161155700683593750e+00) (21, 8.32620143890380859375e+00) (22, -4.08466100692749023438e+00) (13, -4.08790397644042968750e+00) (14, -8.25370025634765625000e+01) (15, 5.78256759643554687500e+01) (16, 1.55299830436706542969e+00) (17, 1.09845447540283203125e+01) (18, -3.96945152282714843750e+01) (19, -2.83948034048080444336e-01) (20, 9.74427402019500732422e-01) (21, -2.49801039695739746094e+00) (22, 3.36404532194137573242e-01) (13, 1.07617354393005371094e+00) (14, -7.01048421859741210938e+00) (15, 8.96687698364257812500e+01) (16, 9.21788334846496582031e-01) (17, -2.35580612182617187500e+02) (18, 1.53642759323120117188e+01) (19, -4.53961491584777832031e-01) (20, 9.94310557842254638672e-01) (21, 2.48986415863037109375e+01) (22, -6.87728047370910644531e-01) (13, -1.37237262725830078125e+00) (14, 1.04215669631958007812e+01) (15, 1.24711065292358398438e+01) (16, 6.76805830001831054688e+00) (17, 5.10645246505737304688e+00) (18, -9.02268767356872558594e-01) (19, -7.88107919692993164062e+00) (20, 4.74019432067871093750e+00) (21, -1.58434352874755859375e+01) (22, -4.33786481618881225586e-01) 
