FANN_FLO_2.1
num_layers=3
learning_rate=0.700000
connection_rate=1.000000
network_type=0
learning_momentum=0.000000
training_algorithm=2
train_error_function=1
train_stop_function=0
cascade_output_change_fraction=0.010000
quickprop_decay=-0.000100
quickprop_mu=1.750000
rprop_increase_factor=1.200000
rprop_decrease_factor=0.500000
rprop_delta_min=0.000000
rprop_delta_max=50.000000
rprop_delta_zero=0.100000
cascade_output_stagnation_epochs=12
cascade_candidate_change_fraction=0.010000
cascade_candidate_stagnation_epochs=12
cascade_max_out_epochs=150
cascade_min_out_epochs=50
cascade_max_cand_epochs=150
cascade_min_cand_epochs=50
cascade_num_candidate_groups=2
bit_fail_limit=3.49999994039535522461e-01
cascade_candidate_limit=1.00000000000000000000e+03
cascade_weight_multiplier=4.00000005960464477539e-01
cascade_activation_functions_count=10
cascade_activation_functions=3 5 7 8 10 11 14 15 16 17 
cascade_activation_steepnesses_count=4
cascade_activation_steepnesses=2.50000000000000000000e-01 5.00000000000000000000e-01 7.50000000000000000000e-01 1.00000000000000000000e+00 
layer_sizes=3 10 3 
scale_included=0
neurons (num_inputs, activation_function, activation_steepness)=(0, 0, 0.00000000000000000000e+00) (0, 0, 0.00000000000000000000e+00) (0, 0, 0.00000000000000000000e+00) (3, 5, 5.00000000000000000000e-01) (3, 5, 5.00000000000000000000e-01) (3, 5, 5.00000000000000000000e-01) (3, 5, 5.00000000000000000000e-01) (3, 5, 5.00000000000000000000e-01) (3, 5, 5.00000000000000000000e-01) (3, 5, 5.00000000000000000000e-01) (3, 5, 5.00000000000000000000e-01) (3, 5, 5.00000000000000000000e-01) (0, 5, 0.00000000000000000000e+00) (10, 5, 5.00000000000000000000e-01) (10, 5, 5.00000000000000000000e-01) (0, 5, 0.00000000000000000000e+00) 
connections (connected_to_neuron, weight)=(0, 2.59454040527343750000e+01) (1, 2.07185115814208984375e+01) (2, 5.28175055980682373047e-01) (0, 5.77834320068359375000e+01) (1, 1.39707708358764648438e+01) (2, 6.16144537925720214844e-01) (0, 5.29035491943359375000e+01) (1, 1.32948923110961914062e+01) (2, 6.16664290428161621094e-01) (0, 1.24886085510253906250e+02) (1, 3.29891853332519531250e+01) (2, 1.78645539283752441406e+00) (0, 6.18039855957031250000e+01) (1, 9.22435474395751953125e+00) (2, 3.55037182569503784180e-01) (0, 1.05787410736083984375e+01) (1, 8.25980186462402343750e+00) (2, -2.85253860056400299072e-02) (0, 2.59047431945800781250e+01) (1, 1.40637254714965820312e+01) (2, 5.15698671340942382812e-01) (0, -8.26714477539062500000e+01) (1, 1.74900798797607421875e+01) (2, -8.87295782566070556641e-01) (0, 2.68922443389892578125e+01) (1, 1.02616243362426757812e+01) (2, 1.99968889355659484863e-01) (3, -3.67308259010314941406e+00) (4, -3.18405246734619140625e+01) (5, -3.23324279785156250000e+01) (6, -5.91945362091064453125e+00) (7, -4.46824455261230468750e+00) (8, 2.45731860399246215820e-01) (9, -3.71274161338806152344e+00) (10, 4.16516532897949218750e+01) (11, -9.91623878479003906250e+00) (12, -5.42302906513214111328e-01) (3, 5.27748250961303710938e+00) (4, 7.92320785522460937500e+01) (5, 4.27055644989013671875e+00) (6, 3.87066364288330078125e+00) (7, 4.88407993316650390625e+00) (8, 9.42095637321472167969e-01) (9, 5.19960594177246093750e+00) (10, -3.34449005126953125000e+01) (11, 5.65030956268310546875e+00) (12, 9.94212150573730468750e-01) 
