FANN_FLO_2.1
num_layers=3
learning_rate=0.700000
connection_rate=1.000000
network_type=0
learning_momentum=0.000000
training_algorithm=2
train_error_function=1
train_stop_function=0
cascade_output_change_fraction=0.010000
quickprop_decay=-0.000100
quickprop_mu=1.750000
rprop_increase_factor=1.200000
rprop_decrease_factor=0.500000
rprop_delta_min=0.000000
rprop_delta_max=50.000000
rprop_delta_zero=0.100000
cascade_output_stagnation_epochs=12
cascade_candidate_change_fraction=0.010000
cascade_candidate_stagnation_epochs=12
cascade_max_out_epochs=150
cascade_min_out_epochs=50
cascade_max_cand_epochs=150
cascade_min_cand_epochs=50
cascade_num_candidate_groups=2
bit_fail_limit=3.49999994039535522461e-01
cascade_candidate_limit=1.00000000000000000000e+03
cascade_weight_multiplier=4.00000005960464477539e-01
cascade_activation_functions_count=10
cascade_activation_functions=3 5 7 8 10 11 14 15 16 17 
cascade_activation_steepnesses_count=4
cascade_activation_steepnesses=2.50000000000000000000e-01 5.00000000000000000000e-01 7.50000000000000000000e-01 1.00000000000000000000e+00 
layer_sizes=5 10 3 
scale_included=0
neurons (num_inputs, activation_function, activation_steepness)=(0, 0, 0.00000000000000000000e+00) (0, 0, 0.00000000000000000000e+00) (0, 0, 0.00000000000000000000e+00) (0, 0, 0.00000000000000000000e+00) (0, 0, 0.00000000000000000000e+00) (5, 5, 5.00000000000000000000e-01) (5, 5, 5.00000000000000000000e-01) (5, 5, 5.00000000000000000000e-01) (5, 5, 5.00000000000000000000e-01) (5, 5, 5.00000000000000000000e-01) (5, 5, 5.00000000000000000000e-01) (5, 5, 5.00000000000000000000e-01) (5, 5, 5.00000000000000000000e-01) (5, 5, 5.00000000000000000000e-01) (0, 5, 0.00000000000000000000e+00) (10, 5, 5.00000000000000000000e-01) (10, 5, 5.00000000000000000000e-01) (0, 5, 0.00000000000000000000e+00) 
connections (connected_to_neuron, weight)=(0, 3.10668921470642089844e+00) (1, -1.11681470870971679688e+01) (2, -1.00387306213378906250e+01) (3, -1.69294509887695312500e+01) (4, 2.29474276304244995117e-01) (0, 2.99679368734359741211e-01) (1, -4.95950758457183837891e-01) (2, -1.25031805038452148438e+00) (3, -2.70582103729248046875e+00) (4, 5.99430441856384277344e-01) (0, 4.97000598907470703125e+00) (1, 1.59730577468872070312e+01) (2, 2.46930541992187500000e+01) (3, 3.53923492431640625000e+01) (4, -3.18231470882892608643e-02) (0, 8.39295101165771484375e+00) (1, 1.68045120239257812500e+01) (2, 1.77392559051513671875e+01) (3, 3.53054618835449218750e+01) (4, -5.44520199298858642578e-01) (0, 5.13827466964721679688e+00) (1, 1.59016351699829101562e+01) (2, 2.65848293304443359375e+01) (3, 3.52440414428710937500e+01) (4, -9.53980907797813415527e-02) (0, 8.33219051361083984375e+00) (1, 1.64206142425537109375e+01) (2, 1.78159160614013671875e+01) (3, 3.52918014526367187500e+01) (4, -5.09904086589813232422e-01) (0, 3.61832737922668457031e+00) (1, -1.11448478698730468750e+01) (2, -1.02627439498901367188e+01) (3, -1.82054176330566406250e+01) (4, 1.04558683931827545166e-01) (0, 5.11363554000854492188e+00) (1, 1.59794263839721679688e+01) (2, 2.67018146514892578125e+01) (3, 3.24526557922363281250e+01) (4, -9.53561291098594665527e-02) (0, 2.06653952598571777344e+00) (1, 3.61434864997863769531e+00) (2, 3.04806327819824218750e+00) (3, 7.03897237777709960938e+00) (4, -1.64515122771263122559e-01) (5, 9.58591125488281250000e+02) (6, 3.93956601619720458984e-01) (7, -3.33900451660156250000e-01) (8, -4.62613791227340698242e-01) (9, -3.92708390951156616211e-01) (10, -4.20047610998153686523e-01) (11, 4.86606025695800781250e+00) (12, -3.21327447891235351562e-01) (13, -4.42773246765136718750e+00) (14, 2.04021304845809936523e-01) (5, -1.17119335937500000000e+03) (6, -1.49132460355758666992e-01) (7, 8.83957862854003906250e-01) (8, 1.14855015277862548828e+00) (9, 1.18052160739898681641e+00) (10, 1.13335514068603515625e+00) (11, -3.64201617240905761719e+00) (12, 1.08535039424896240234e+00) (13, 7.81253767013549804688e+00) (14, -2.63341099023818969727e-01) 
