FANN_FLO_2.1
num_layers=3
learning_rate=0.700000
connection_rate=1.000000
network_type=0
learning_momentum=0.000000
training_algorithm=2
train_error_function=1
train_stop_function=0
cascade_output_change_fraction=0.010000
quickprop_decay=-0.000100
quickprop_mu=1.750000
rprop_increase_factor=1.200000
rprop_decrease_factor=0.500000
rprop_delta_min=0.000000
rprop_delta_max=50.000000
rprop_delta_zero=0.100000
cascade_output_stagnation_epochs=12
cascade_candidate_change_fraction=0.010000
cascade_candidate_stagnation_epochs=12
cascade_max_out_epochs=150
cascade_min_out_epochs=50
cascade_max_cand_epochs=150
cascade_min_cand_epochs=50
cascade_num_candidate_groups=2
bit_fail_limit=3.49999994039535522461e-01
cascade_candidate_limit=1.00000000000000000000e+03
cascade_weight_multiplier=4.00000005960464477539e-01
cascade_activation_functions_count=10
cascade_activation_functions=3 5 7 8 10 11 14 15 16 17 
cascade_activation_steepnesses_count=4
cascade_activation_steepnesses=2.50000000000000000000e-01 5.00000000000000000000e-01 7.50000000000000000000e-01 1.00000000000000000000e+00 
layer_sizes=18 10 6 
scale_included=0
neurons (num_inputs, activation_function, activation_steepness)=(0, 0, 0.00000000000000000000e+00) (0, 0, 0.00000000000000000000e+00) (0, 0, 0.00000000000000000000e+00) (0, 0, 0.00000000000000000000e+00) (0, 0, 0.00000000000000000000e+00) (0, 0, 0.00000000000000000000e+00) (0, 0, 0.00000000000000000000e+00) (0, 0, 0.00000000000000000000e+00) (0, 0, 0.00000000000000000000e+00) (0, 0, 0.00000000000000000000e+00) (0, 0, 0.00000000000000000000e+00) (0, 0, 0.00000000000000000000e+00) (0, 0, 0.00000000000000000000e+00) (0, 0, 0.00000000000000000000e+00) (0, 0, 0.00000000000000000000e+00) (0, 0, 0.00000000000000000000e+00) (0, 0, 0.00000000000000000000e+00) (0, 0, 0.00000000000000000000e+00) (18, 5, 5.00000000000000000000e-01) (18, 5, 5.00000000000000000000e-01) (18, 5, 5.00000000000000000000e-01) (18, 5, 5.00000000000000000000e-01) (18, 5, 5.00000000000000000000e-01) (18, 5, 5.00000000000000000000e-01) (18, 5, 5.00000000000000000000e-01) (18, 5, 5.00000000000000000000e-01) (18, 5, 5.00000000000000000000e-01) (0, 5, 0.00000000000000000000e+00) (10, 5, 5.00000000000000000000e-01) (10, 5, 5.00000000000000000000e-01) (10, 5, 5.00000000000000000000e-01) (10, 5, 5.00000000000000000000e-01) (10, 5, 5.00000000000000000000e-01) (0, 5, 0.00000000000000000000e+00) 
connections (connected_to_neuron, weight)=(0, -3.76020698547363281250e+01) (1, -2.69464206695556640625e+01) (2, 1.70475736260414123535e-01) (3, 3.25429229736328125000e+01) (4, 2.30608105659484863281e-01) (5, -1.63376045227050781250e+01) (6, 9.83065068721771240234e-01) (7, -1.32576870918273925781e+00) (8, 4.86879825592041015625e+00) (9, 1.09260540008544921875e+01) (10, -4.47224617004394531250e-01) (11, -5.15503501892089843750e+00) (12, 1.42735767364501953125e+00) (13, 1.19438581466674804688e+01) (14, -5.17526340484619140625e+00) (15, -1.09956300258636474609e+00) (16, 2.66695952415466308594e+00) (17, 9.20588195323944091797e-01) (0, -3.45402956008911132812e-01) (1, -1.17779331207275390625e+01) (2, 1.20305185317993164062e+01) (3, 6.41877710819244384766e-01) (4, -2.65301342010498046875e+01) (5, 7.46011114120483398438e+00) (6, 8.51529181003570556641e-01) (7, 1.19402618408203125000e+01) (8, -2.68639373779296875000e+01) (9, -1.17368078613281250000e+03) (10, 1.46422281861305236816e-01) (11, 8.22953730821609497070e-02) (12, -2.91888885498046875000e+01) (13, -3.64293098449707031250e+01) (14, 9.65403988957405090332e-02) (15, -1.46363064646720886230e-01) (16, -2.75169250488281250000e+02) (17, -4.96250301599502563477e-01) (0, 5.91831445693969726562e-01) (1, -6.17930870056152343750e+01) (2, 1.57117872238159179688e+01) (3, 1.08561742305755615234e+00) (4, -2.28976440429687500000e+01) (5, 2.34989142417907714844e+00) (6, 8.85366737842559814453e-01) (7, 5.90807495117187500000e+01) (8, -2.78808174133300781250e+01) (9, -9.19135070800781250000e+02) (10, -4.88748669624328613281e-01) (11, 1.69741407036781311035e-01) (12, -5.72087669372558593750e+01) (13, -5.10952663421630859375e+00) (14, 2.08231762051582336426e-01) (15, -2.54633307456970214844e-01) (16, -9.13928833007812500000e+01) (17, -4.63140368461608886719e-01) (0, -3.17338049411773681641e-01) (1, 2.33113121986389160156e+00) (2, -3.71159100532531738281e+00) (3, 3.23483734130859375000e+01) (4, 6.35778713226318359375e+00) (5, 5.89082002639770507812e+00) (6, 6.62369632720947265625e+00) (7, 1.34046804904937744141e+00) (8, 1.04521812438964843750e+02) (9, 1.92432479858398437500e+02) (10, -1.00645303726196289062e+00) (11, 8.34776580333709716797e-01) (12, -7.61909365653991699219e-01) (13, 2.02443733811378479004e-01) (14, 8.81363928318023681641e-01) (15, 1.12628601491451263428e-01) (16, 7.82828044891357421875e+00) (17, -1.74235367774963378906e+00) (0, -8.13068866729736328125e+00) (1, -2.20820484161376953125e+01) (2, 7.73924636840820312500e+00) (3, 2.39848995208740234375e+01) (4, -2.47160377502441406250e+01) (5, -1.10599732398986816406e+00) (6, 8.80403593182563781738e-02) (7, 5.45116758346557617188e+00) (8, 7.90853071212768554688e+00) (9, -6.73609085083007812500e+01) (10, -2.74374461174011230469e+00) (11, -1.42001104354858398438e+01) (12, 3.25138759613037109375e+00) (13, -2.61060285568237304688e+00) (14, -1.42264423370361328125e+01) (15, -2.01596170663833618164e-01) (16, -9.80744838714599609375e+00) (17, 1.54114529490470886230e-01) (0, 1.04801225662231445312e+00) (1, -5.90211219787597656250e+01) (2, 3.91122932434082031250e+01) (3, 1.72557878494262695312e+00) (4, -1.83555829524993896484e+00) (5, 1.53492987155914306641e+00) (6, 8.63039672374725341797e-01) (7, 1.24095199584960937500e+02) (8, -5.01895427703857421875e+00) (9, -4.02159423828125000000e+02) (10, -4.02510046958923339844e-01) (11, 2.47066572308540344238e-01) (12, -5.71957740783691406250e+01) (13, -1.32833070755004882812e+01) (14, 2.90599077939987182617e-01) (15, -2.94732034206390380859e-01) (16, -1.99460479736328125000e+02) (17, -2.90255188941955566406e+00) (0, 1.70327320694923400879e-01) (1, 2.78589129447937011719e-01) (2, 1.11870564520359039307e-01) (3, -3.23206114768981933594e+00) (4, 6.76646754145622253418e-02) (5, 2.09327411651611328125e+00) (6, 1.15941679477691650391e+00) (7, -9.39465105533599853516e-01) (8, 5.28278827667236328125e+00) (9, 2.00508651733398437500e+01) (10, 7.12803421020507812500e+01) (11, 2.50142723321914672852e-01) (12, 1.23518204689025878906e+00) (13, 2.93733906745910644531e+00) (14, 2.86403477191925048828e-01) (15, -1.12076544761657714844e+00) (16, 1.87553942203521728516e+00) (17, 3.44262123107910156250e-01) (0, 1.40262529253959655762e-01) (1, 4.80412864685058593750e+01) (2, -3.01236248016357421875e+01) (3, -1.47776234149932861328e+00) (4, 2.04410839080810546875e+01) (5, 6.57528457641601562500e+01) (6, -2.62162655591964721680e-01) (7, -1.77322978973388671875e+01) (8, 5.14192819595336914062e+00) (9, 8.74944946289062500000e+02) (10, 1.52117621898651123047e+00) (11, 4.82114523649215698242e-01) (12, 9.49554634094238281250e+00) (13, 1.92189025878906250000e+01) (14, 3.87481063604354858398e-01) (15, 6.49131715297698974609e-01) (16, 8.01094532012939453125e+00) (17, 1.69641246795654296875e+01) (0, -3.54406394958496093750e+01) (1, 3.60825434327125549316e-02) (2, -3.23728489875793457031e+00) (3, 5.78159790039062500000e+02) (4, 2.74765243530273437500e+01) (5, -1.41484359741210937500e+02) (6, 1.56520515680313110352e-01) (7, -2.51461291313171386719e+00) (8, 6.12309312820434570312e+00) (9, -7.72048645019531250000e+01) (10, -1.39281494140625000000e+02) (11, -2.52218770980834960938e+00) (12, -2.85652046203613281250e+01) (13, 9.83051240444183349609e-01) (14, -2.36742854118347167969e+00) (15, 5.50383985042572021484e-01) (16, -3.34675884246826171875e+00) (17, 2.45110809803009033203e-01) (18, -7.00847320556640625000e+01) (19, 6.03908205032348632812e+00) (20, 2.84092378616333007812e+00) (21, -1.97065677642822265625e+01) (22, 1.26956882476806640625e+01) (23, 1.44614136219024658203e+00) (24, -1.49259614944458007812e+00) (25, -7.84851253032684326172e-01) (26, 5.66961336135864257812e+00) (27, -1.93501389026641845703e+00) (18, -1.86802062988281250000e+01) (19, 6.01663231849670410156e-01) (20, 6.25351846218109130859e-01) (21, 2.62950477600097656250e+01) (22, 5.56292422115802764893e-02) (23, 7.65800952911376953125e-01) (24, -2.46027112007141113281e+00) (25, -4.21377092599868774414e-01) (26, 2.61466369628906250000e+01) (27, -1.27785511016845703125e+01) (18, -2.77394042968750000000e+02) (19, 4.00864868164062500000e+01) (20, 1.71945877075195312500e+01) (21, 2.34241439819335937500e+02) (22, 2.46143890380859375000e+02) (23, 2.30062683105468750000e+02) (24, 1.50000000000000000000e+03) (25, 1.94312713623046875000e+02) (26, 6.66834640502929687500e+01) (27, 1.94418563842773437500e+02) (18, 7.93087768554687500000e+02) (19, 9.55095672607421875000e+00) (20, 9.60063171386718750000e+00) (21, 3.05352478027343750000e+02) (22, 1.50000000000000000000e+03) (23, 2.17940483093261718750e+01) (24, 1.27575302124023437500e+02) (25, 7.52910947799682617188e+00) (26, 1.92893905639648437500e+02) (27, 7.67186594009399414062e+00) (18, 1.68861818313598632812e+00) (19, 9.50357794761657714844e-01) (20, 1.13020312786102294922e+00) (21, 8.37524795532226562500e+00) (22, 3.44242095947265625000e+01) (23, 9.44452166557312011719e-01) (24, -8.03719997406005859375e+00) (25, -2.17488646507263183594e-01) (26, -1.77970600128173828125e+01) (27, 8.76729935407638549805e-02) 
