FANN_FLO_2.1
num_layers=3
learning_rate=0.700000
connection_rate=1.000000
network_type=0
learning_momentum=0.000000
training_algorithm=2
train_error_function=1
train_stop_function=0
cascade_output_change_fraction=0.010000
quickprop_decay=-0.000100
quickprop_mu=1.750000
rprop_increase_factor=1.200000
rprop_decrease_factor=0.500000
rprop_delta_min=0.000000
rprop_delta_max=50.000000
rprop_delta_zero=0.100000
cascade_output_stagnation_epochs=12
cascade_candidate_change_fraction=0.010000
cascade_candidate_stagnation_epochs=12
cascade_max_out_epochs=150
cascade_min_out_epochs=50
cascade_max_cand_epochs=150
cascade_min_cand_epochs=50
cascade_num_candidate_groups=2
bit_fail_limit=3.49999994039535522461e-01
cascade_candidate_limit=1.00000000000000000000e+03
cascade_weight_multiplier=4.00000005960464477539e-01
cascade_activation_functions_count=10
cascade_activation_functions=3 5 7 8 10 11 14 15 16 17 
cascade_activation_steepnesses_count=4
cascade_activation_steepnesses=2.50000000000000000000e-01 5.00000000000000000000e-01 7.50000000000000000000e-01 1.00000000000000000000e+00 
layer_sizes=3 10 3 
scale_included=0
neurons (num_inputs, activation_function, activation_steepness)=(0, 0, 0.00000000000000000000e+00) (0, 0, 0.00000000000000000000e+00) (0, 0, 0.00000000000000000000e+00) (3, 5, 5.00000000000000000000e-01) (3, 5, 5.00000000000000000000e-01) (3, 5, 5.00000000000000000000e-01) (3, 5, 5.00000000000000000000e-01) (3, 5, 5.00000000000000000000e-01) (3, 5, 5.00000000000000000000e-01) (3, 5, 5.00000000000000000000e-01) (3, 5, 5.00000000000000000000e-01) (3, 5, 5.00000000000000000000e-01) (0, 5, 0.00000000000000000000e+00) (10, 5, 5.00000000000000000000e-01) (10, 5, 5.00000000000000000000e-01) (0, 5, 0.00000000000000000000e+00) 
connections (connected_to_neuron, weight)=(0, -1.23126220703125000000e+00) (1, 5.13974380493164062500e+01) (2, -4.78123283386230468750e+00) (0, 1.27504547119140625000e+02) (1, 3.55322766304016113281e+00) (2, -3.29461455345153808594e-01) (0, 1.58131896972656250000e+02) (1, 6.80907106399536132812e+00) (2, -1.62143595516681671143e-02) (0, -5.76985412597656250000e+02) (1, 1.03595489501953125000e+02) (2, -1.92299041748046875000e+01) (0, 1.07293754577636718750e+02) (1, 4.01429319381713867188e+00) (2, -5.89101433753967285156e-01) (0, 1.50636091828346252441e-01) (1, 9.58332347869873046875e+00) (2, -1.40752291679382324219e+00) (0, -1.29444625854492187500e+02) (1, 2.66119003295898437500e-01) (2, -2.88029890507459640503e-02) (0, -1.03003479003906250000e+02) (1, -8.09860885143280029297e-01) (2, 3.50793957710266113281e-01) (0, 1.59844436645507812500e+02) (1, 4.43627405166625976562e+00) (2, -1.13659678027033805847e-02) (3, -4.21576499938964843750e+00) (4, -8.12562561035156250000e+00) (5, -1.10628128051757812500e+02) (6, -1.95934677124023437500e+01) (7, -2.98794746398925781250e+00) (8, 7.87712097167968750000e+01) (9, 1.43636560440063476562e+00) (10, 2.65632271766662597656e+00) (11, -4.05683946609497070312e+00) (12, 1.11328566074371337891e+00) (3, 4.93549919128417968750e+00) (4, 4.47473335266113281250e+00) (5, 1.11428855895996093750e+02) (6, 1.94310588836669921875e+01) (7, 1.38059740066528320312e+01) (8, -8.17455444335937500000e+01) (9, 1.87361225485801696777e-01) (10, -3.79548758268356323242e-01) (11, 2.86192488670349121094e+00) (12, -8.12278389930725097656e-01) 
