FANN_FLO_2.1
num_layers=3
learning_rate=0.700000
connection_rate=1.000000
network_type=0
learning_momentum=0.000000
training_algorithm=2
train_error_function=1
train_stop_function=0
cascade_output_change_fraction=0.010000
quickprop_decay=-0.000100
quickprop_mu=1.750000
rprop_increase_factor=1.200000
rprop_decrease_factor=0.500000
rprop_delta_min=0.000000
rprop_delta_max=50.000000
rprop_delta_zero=0.100000
cascade_output_stagnation_epochs=12
cascade_candidate_change_fraction=0.010000
cascade_candidate_stagnation_epochs=12
cascade_max_out_epochs=150
cascade_min_out_epochs=50
cascade_max_cand_epochs=150
cascade_min_cand_epochs=50
cascade_num_candidate_groups=2
bit_fail_limit=3.49999994039535522461e-01
cascade_candidate_limit=1.00000000000000000000e+03
cascade_weight_multiplier=4.00000005960464477539e-01
cascade_activation_functions_count=10
cascade_activation_functions=3 5 7 8 10 11 14 15 16 17 
cascade_activation_steepnesses_count=4
cascade_activation_steepnesses=2.50000000000000000000e-01 5.00000000000000000000e-01 7.50000000000000000000e-01 1.00000000000000000000e+00 
layer_sizes=3 10 3 
scale_included=0
neurons (num_inputs, activation_function, activation_steepness)=(0, 0, 0.00000000000000000000e+00) (0, 0, 0.00000000000000000000e+00) (0, 0, 0.00000000000000000000e+00) (3, 5, 5.00000000000000000000e-01) (3, 5, 5.00000000000000000000e-01) (3, 5, 5.00000000000000000000e-01) (3, 5, 5.00000000000000000000e-01) (3, 5, 5.00000000000000000000e-01) (3, 5, 5.00000000000000000000e-01) (3, 5, 5.00000000000000000000e-01) (3, 5, 5.00000000000000000000e-01) (3, 5, 5.00000000000000000000e-01) (0, 5, 0.00000000000000000000e+00) (10, 5, 5.00000000000000000000e-01) (10, 5, 5.00000000000000000000e-01) (0, 5, 0.00000000000000000000e+00) 
connections (connected_to_neuron, weight)=(0, 1.49603857421875000000e+03) (1, -5.48684387207031250000e+01) (2, 8.79127597808837890625e+00) (0, -5.50729637145996093750e+01) (1, 1.85977973937988281250e+01) (2, 3.29975970089435577393e-02) (0, 3.94527343750000000000e+02) (1, 4.77896942138671875000e+02) (2, 9.63110351562500000000e+00) (0, -4.04850234985351562500e+01) (1, 3.29413652420043945312e+00) (2, -6.66859865188598632812e-01) (0, 1.49603991699218750000e+03) (1, -5.60298728942871093750e+01) (2, 8.76739978790283203125e+00) (0, -5.15524902343750000000e+01) (1, 1.09642391204833984375e+01) (2, -4.25371438264846801758e-01) (0, 1.25833923339843750000e+03) (1, 8.10838745117187500000e+02) (2, 8.94814586639404296875e+00) (0, 3.02272796630859375000e+01) (1, 9.37441406250000000000e+01) (2, 1.22003614902496337891e+00) (0, -4.14852180480957031250e+01) (1, -4.34176731109619140625e+00) (2, -1.27949088811874389648e-01) (3, 4.96011495590209960938e+00) (4, 5.43593645095825195312e-01) (5, -5.06047859191894531250e+01) (6, -4.03425598144531250000e+00) (7, 4.97537517547607421875e+00) (8, -1.05580520629882812500e+02) (9, 8.10547232627868652344e-01) (10, 1.03906005859375000000e+02) (11, 5.08724808692932128906e-01) (12, 2.59515285491943359375e-01) (3, -5.11094665527343750000e+00) (4, 5.84189534187316894531e-01) (5, 5.13587074279785156250e+01) (6, 8.37967205047607421875e+00) (7, -5.08490610122680664062e+00) (8, 1.01905479431152343750e+02) (9, -8.19894894957542419434e-02) (10, -1.05080291748046875000e+02) (11, 4.10887151956558227539e-01) (12, 5.94505310058593750000e-01) 
