FANN_FLO_2.1
num_layers=3
learning_rate=0.700000
connection_rate=1.000000
network_type=0
learning_momentum=0.000000
training_algorithm=2
train_error_function=1
train_stop_function=0
cascade_output_change_fraction=0.010000
quickprop_decay=-0.000100
quickprop_mu=1.750000
rprop_increase_factor=1.200000
rprop_decrease_factor=0.500000
rprop_delta_min=0.000000
rprop_delta_max=50.000000
rprop_delta_zero=0.100000
cascade_output_stagnation_epochs=12
cascade_candidate_change_fraction=0.010000
cascade_candidate_stagnation_epochs=12
cascade_max_out_epochs=150
cascade_min_out_epochs=50
cascade_max_cand_epochs=150
cascade_min_cand_epochs=50
cascade_num_candidate_groups=2
bit_fail_limit=3.49999994039535522461e-01
cascade_candidate_limit=1.00000000000000000000e+03
cascade_weight_multiplier=4.00000005960464477539e-01
cascade_activation_functions_count=10
cascade_activation_functions=3 5 7 8 10 11 14 15 16 17 
cascade_activation_steepnesses_count=4
cascade_activation_steepnesses=2.50000000000000000000e-01 5.00000000000000000000e-01 7.50000000000000000000e-01 1.00000000000000000000e+00 
layer_sizes=3 10 3 
scale_included=0
neurons (num_inputs, activation_function, activation_steepness)=(0, 0, 0.00000000000000000000e+00) (0, 0, 0.00000000000000000000e+00) (0, 0, 0.00000000000000000000e+00) (3, 5, 5.00000000000000000000e-01) (3, 5, 5.00000000000000000000e-01) (3, 5, 5.00000000000000000000e-01) (3, 5, 5.00000000000000000000e-01) (3, 5, 5.00000000000000000000e-01) (3, 5, 5.00000000000000000000e-01) (3, 5, 5.00000000000000000000e-01) (3, 5, 5.00000000000000000000e-01) (3, 5, 5.00000000000000000000e-01) (0, 5, 0.00000000000000000000e+00) (10, 5, 5.00000000000000000000e-01) (10, 5, 5.00000000000000000000e-01) (0, 5, 0.00000000000000000000e+00) 
connections (connected_to_neuron, weight)=(0, -9.34577026367187500000e+01) (1, 1.87473220825195312500e+01) (2, 5.03167212009429931641e-01) (0, -6.72065019607543945312e+00) (1, 1.13439331054687500000e+01) (2, 3.87276485562324523926e-02) (0, -1.63911247253417968750e+01) (1, 1.14913949966430664062e+01) (2, -1.80382996797561645508e-01) (0, -9.61334381103515625000e+01) (1, 1.87773056030273437500e+01) (2, 5.11102557182312011719e-01) (0, -8.88316574096679687500e+01) (1, 1.50151319503784179688e+01) (2, 7.31837987899780273438e-01) (0, -1.65360336303710937500e+01) (1, 8.15612983703613281250e+00) (2, 4.96988669037818908691e-02) (0, -1.64029006958007812500e+01) (1, 1.15098466873168945312e+01) (2, -1.68847203254699707031e-01) (0, -3.97954025268554687500e+01) (1, 4.72068214416503906250e+00) (2, 1.61187484860420227051e-01) (0, -9.60247497558593750000e+01) (1, 1.87282867431640625000e+01) (2, 5.10736763477325439453e-01) (3, -1.45415410995483398438e+01) (4, -2.32214808464050292969e+00) (5, -4.07639932632446289062e+00) (6, -8.76261138916015625000e+00) (7, -7.38670051097869873047e-01) (8, -3.89993190765380859375e+00) (9, -1.53424429893493652344e+00) (10, -3.07097029685974121094e+00) (11, -8.79616546630859375000e+00) (12, -4.67673003673553466797e-01) (3, 1.04348955154418945312e+01) (4, 2.18517565727233886719e+00) (5, 6.50946426391601562500e+00) (6, 1.04504079818725585938e+01) (7, 1.22598624229431152344e+00) (8, 4.30852365493774414062e+00) (9, 2.86026406288146972656e+00) (10, 7.62697744369506835938e+00) (11, 1.04310483932495117188e+01) (12, 7.25235044956207275391e-01) 
