FANN_FLO_2.1
num_layers=3
learning_rate=0.700000
connection_rate=1.000000
network_type=0
learning_momentum=0.000000
training_algorithm=2
train_error_function=1
train_stop_function=0
cascade_output_change_fraction=0.010000
quickprop_decay=-0.000100
quickprop_mu=1.750000
rprop_increase_factor=1.200000
rprop_decrease_factor=0.500000
rprop_delta_min=0.000000
rprop_delta_max=50.000000
rprop_delta_zero=0.100000
cascade_output_stagnation_epochs=12
cascade_candidate_change_fraction=0.010000
cascade_candidate_stagnation_epochs=12
cascade_max_out_epochs=150
cascade_min_out_epochs=50
cascade_max_cand_epochs=150
cascade_min_cand_epochs=50
cascade_num_candidate_groups=2
bit_fail_limit=3.49999994039535522461e-01
cascade_candidate_limit=1.00000000000000000000e+03
cascade_weight_multiplier=4.00000005960464477539e-01
cascade_activation_functions_count=10
cascade_activation_functions=3 5 7 8 10 11 14 15 16 17 
cascade_activation_steepnesses_count=4
cascade_activation_steepnesses=2.50000000000000000000e-01 5.00000000000000000000e-01 7.50000000000000000000e-01 1.00000000000000000000e+00 
layer_sizes=3 10 3 
scale_included=0
neurons (num_inputs, activation_function, activation_steepness)=(0, 0, 0.00000000000000000000e+00) (0, 0, 0.00000000000000000000e+00) (0, 0, 0.00000000000000000000e+00) (3, 5, 5.00000000000000000000e-01) (3, 5, 5.00000000000000000000e-01) (3, 5, 5.00000000000000000000e-01) (3, 5, 5.00000000000000000000e-01) (3, 5, 5.00000000000000000000e-01) (3, 5, 5.00000000000000000000e-01) (3, 5, 5.00000000000000000000e-01) (3, 5, 5.00000000000000000000e-01) (3, 5, 5.00000000000000000000e-01) (0, 5, 0.00000000000000000000e+00) (10, 5, 5.00000000000000000000e-01) (10, 5, 5.00000000000000000000e-01) (0, 5, 0.00000000000000000000e+00) 
connections (connected_to_neuron, weight)=(0, 4.07676100730895996094e-01) (1, -3.64882564544677734375e+00) (2, 3.10053117573261260986e-02) (0, -4.98023147583007812500e+01) (1, 2.42729797363281250000e+01) (2, 1.42625391483306884766e-01) (0, -3.46234893798828125000e+01) (1, 1.03942823410034179688e+01) (2, 3.38571250438690185547e-01) (0, -8.40190124511718750000e+01) (1, 2.42129135131835937500e+01) (2, 6.21203660964965820312e-01) (0, -1.42532625198364257812e+01) (1, 1.05111865997314453125e+01) (2, -4.06613163650035858154e-02) (0, -8.44950771331787109375e+00) (1, 4.40209865570068359375e+00) (2, -1.29740983247756958008e-01) (0, 1.06072143554687500000e+02) (1, -1.85374279022216796875e+01) (2, -3.23572218418121337891e-01) (0, 1.06089660644531250000e+02) (1, -1.87071685791015625000e+01) (2, -4.56642001867294311523e-01) (0, -3.46661033630371093750e+01) (1, 1.03309412002563476562e+01) (2, 3.37583392858505249023e-01) (3, 3.64962428808212280273e-01) (4, -5.80016434192657470703e-01) (5, -2.31280136108398437500e+00) (6, -5.60379219055175781250e+00) (7, -1.56143355369567871094e+00) (8, -2.61973679065704345703e-01) (9, 6.12937068939208984375e+00) (10, 6.19627952575683593750e+00) (11, -2.30141425132751464844e+00) (12, -4.34776604175567626953e-01) (3, 1.04682020843029022217e-01) (4, 5.54909884929656982422e-01) (5, 2.52973699569702148438e+00) (6, 6.01375150680541992188e+00) (7, 2.07963013648986816406e+00) (8, 1.92203295230865478516e+00) (9, -5.58864450454711914062e+00) (10, -5.43712234497070312500e+00) (11, 2.53399348258972167969e+00) (12, 7.71855711936950683594e-01) 
