FANN_FLO_2.1
num_layers=3
learning_rate=0.700000
connection_rate=1.000000
network_type=0
learning_momentum=0.000000
training_algorithm=2
train_error_function=1
train_stop_function=0
cascade_output_change_fraction=0.010000
quickprop_decay=-0.000100
quickprop_mu=1.750000
rprop_increase_factor=1.200000
rprop_decrease_factor=0.500000
rprop_delta_min=0.000000
rprop_delta_max=50.000000
rprop_delta_zero=0.100000
cascade_output_stagnation_epochs=12
cascade_candidate_change_fraction=0.010000
cascade_candidate_stagnation_epochs=12
cascade_max_out_epochs=150
cascade_min_out_epochs=50
cascade_max_cand_epochs=150
cascade_min_cand_epochs=50
cascade_num_candidate_groups=2
bit_fail_limit=3.49999994039535522461e-01
cascade_candidate_limit=1.00000000000000000000e+03
cascade_weight_multiplier=4.00000005960464477539e-01
cascade_activation_functions_count=10
cascade_activation_functions=3 5 7 8 10 11 14 15 16 17 
cascade_activation_steepnesses_count=4
cascade_activation_steepnesses=2.50000000000000000000e-01 5.00000000000000000000e-01 7.50000000000000000000e-01 1.00000000000000000000e+00 
layer_sizes=3 10 3 
scale_included=0
neurons (num_inputs, activation_function, activation_steepness)=(0, 0, 0.00000000000000000000e+00) (0, 0, 0.00000000000000000000e+00) (0, 0, 0.00000000000000000000e+00) (3, 5, 5.00000000000000000000e-01) (3, 5, 5.00000000000000000000e-01) (3, 5, 5.00000000000000000000e-01) (3, 5, 5.00000000000000000000e-01) (3, 5, 5.00000000000000000000e-01) (3, 5, 5.00000000000000000000e-01) (3, 5, 5.00000000000000000000e-01) (3, 5, 5.00000000000000000000e-01) (3, 5, 5.00000000000000000000e-01) (0, 5, 0.00000000000000000000e+00) (10, 5, 5.00000000000000000000e-01) (10, 5, 5.00000000000000000000e-01) (0, 5, 0.00000000000000000000e+00) 
connections (connected_to_neuron, weight)=(0, 3.93544696271419525146e-02) (1, -1.03391427993774414062e+01) (2, 1.45799899101257324219e+00) (0, -3.21350663900375366211e-01) (1, -1.02857456207275390625e+01) (2, 6.12072169780731201172e-01) (0, 8.53043198585510253906e-01) (1, 1.24901933670043945312e+01) (2, -9.35885548591613769531e-01) (0, 8.61383378505706787109e-01) (1, 1.24487094879150390625e+01) (2, -9.32460308074951171875e-01) (0, -3.15835684537887573242e-01) (1, -1.03573560714721679688e+01) (2, 6.23904407024383544922e-01) (0, 8.69204550981521606445e-02) (1, 1.98100364208221435547e+00) (2, -1.85413241386413574219e-01) (0, 2.52191066741943359375e-01) (1, -8.99657189846038818359e-01) (2, 4.11667168140411376953e-01) (0, 1.84096768498420715332e-01) (1, 2.04231572151184082031e+00) (2, -1.24031528830528259277e-01) (0, 1.27725914120674133301e-01) (1, 1.84415435791015625000e+00) (2, -1.96858465671539306641e-01) (3, 2.84917259216308593750e+00) (4, 1.86378593444824218750e+01) (5, -8.01231765747070312500e+00) (6, -8.01676750183105468750e+00) (7, 1.86511039733886718750e+01) (8, -3.53082418441772460938e-01) (9, 2.82956212759017944336e-01) (10, -7.64338314533233642578e-01) (11, -1.28072082996368408203e+00) (12, 7.06429839134216308594e-01) (3, -6.84802889823913574219e-01) (4, -1.85541515350341796875e+01) (5, 8.30182647705078125000e+00) (6, 4.22109031677246093750e+00) (7, -1.84952545166015625000e+01) (8, 5.31286239624023437500e-01) (9, 7.31805562973022460938e-02) (10, 7.97483921051025390625e-01) (11, 7.61705780029296875000e+00) (12, -1.24626874923706054688e+00) 
