FANN_FLO_2.1
num_layers=3
learning_rate=0.700000
connection_rate=1.000000
network_type=0
learning_momentum=0.000000
training_algorithm=2
train_error_function=1
train_stop_function=0
cascade_output_change_fraction=0.010000
quickprop_decay=-0.000100
quickprop_mu=1.750000
rprop_increase_factor=1.200000
rprop_decrease_factor=0.500000
rprop_delta_min=0.000000
rprop_delta_max=50.000000
rprop_delta_zero=0.100000
cascade_output_stagnation_epochs=12
cascade_candidate_change_fraction=0.010000
cascade_candidate_stagnation_epochs=12
cascade_max_out_epochs=150
cascade_min_out_epochs=50
cascade_max_cand_epochs=150
cascade_min_cand_epochs=50
cascade_num_candidate_groups=2
bit_fail_limit=3.49999994039535522461e-01
cascade_candidate_limit=1.00000000000000000000e+03
cascade_weight_multiplier=4.00000005960464477539e-01
cascade_activation_functions_count=10
cascade_activation_functions=3 5 7 8 10 11 14 15 16 17 
cascade_activation_steepnesses_count=4
cascade_activation_steepnesses=2.50000000000000000000e-01 5.00000000000000000000e-01 7.50000000000000000000e-01 1.00000000000000000000e+00 
layer_sizes=3 10 3 
scale_included=0
neurons (num_inputs, activation_function, activation_steepness)=(0, 0, 0.00000000000000000000e+00) (0, 0, 0.00000000000000000000e+00) (0, 0, 0.00000000000000000000e+00) (3, 5, 5.00000000000000000000e-01) (3, 5, 5.00000000000000000000e-01) (3, 5, 5.00000000000000000000e-01) (3, 5, 5.00000000000000000000e-01) (3, 5, 5.00000000000000000000e-01) (3, 5, 5.00000000000000000000e-01) (3, 5, 5.00000000000000000000e-01) (3, 5, 5.00000000000000000000e-01) (3, 5, 5.00000000000000000000e-01) (0, 5, 0.00000000000000000000e+00) (10, 5, 5.00000000000000000000e-01) (10, 5, 5.00000000000000000000e-01) (0, 5, 0.00000000000000000000e+00) 
connections (connected_to_neuron, weight)=(0, 6.54391646385192871094e-01) (1, -5.63248968124389648438e+00) (2, -1.89698576927185058594e-01) (0, 1.08446693420410156250e+00) (1, -8.28847825527191162109e-01) (2, -1.10584735870361328125e+00) (0, -1.38774752616882324219e-01) (1, 1.37113654613494873047e+00) (2, 6.70964717864990234375e-01) (0, 6.64732873439788818359e-01) (1, -5.52178144454956054688e+00) (2, -8.62558245658874511719e-01) (0, -5.43549954891204833984e-01) (1, 1.08827280998229980469e+00) (2, 7.47229218482971191406e-01) (0, -4.08059448003768920898e-01) (1, 1.73251819610595703125e+00) (2, 3.14022570848464965820e-01) (0, 2.13571324944496154785e-01) (1, -7.35680401325225830078e-01) (2, -1.21401965618133544922e+00) (0, -9.37000334262847900391e-01) (1, 3.67080998420715332031e+00) (2, 1.43097484111785888672e+00) (0, -3.25460642576217651367e-01) (1, 4.83520698547363281250e+00) (2, 4.18793320655822753906e-01) (3, -1.51351058483123779297e+00) (4, -1.70623052120208740234e+00) (5, 1.25853255391120910645e-01) (6, -2.04587371826171875000e+02) (7, 2.22959208488464355469e+00) (8, 4.88369750976562500000e+00) (9, -8.36533606052398681641e-02) (10, 1.75179882049560546875e+01) (11, 2.04464630126953125000e+02) (12, 9.36812281608581542969e-01) (3, 5.67751288414001464844e-01) (4, 3.35456967353820800781e+00) (5, -4.56381022930145263672e-01) (6, 2.04536834716796875000e+02) (7, -4.23999905586242675781e-01) (8, -1.37143850326538085938e-01) (9, 2.00809383392333984375e+00) (10, -3.17376556396484375000e+01) (11, -3.54937477111816406250e+01) (12, -2.99817085266113281250e-01) 
