FANN_FLO_2.1
num_layers=3
learning_rate=0.700000
connection_rate=1.000000
network_type=0
learning_momentum=0.000000
training_algorithm=2
train_error_function=1
train_stop_function=0
cascade_output_change_fraction=0.010000
quickprop_decay=-0.000100
quickprop_mu=1.750000
rprop_increase_factor=1.200000
rprop_decrease_factor=0.500000
rprop_delta_min=0.000000
rprop_delta_max=50.000000
rprop_delta_zero=0.100000
cascade_output_stagnation_epochs=12
cascade_candidate_change_fraction=0.010000
cascade_candidate_stagnation_epochs=12
cascade_max_out_epochs=150
cascade_min_out_epochs=50
cascade_max_cand_epochs=150
cascade_min_cand_epochs=50
cascade_num_candidate_groups=2
bit_fail_limit=3.49999994039535522461e-01
cascade_candidate_limit=1.00000000000000000000e+03
cascade_weight_multiplier=4.00000005960464477539e-01
cascade_activation_functions_count=10
cascade_activation_functions=3 5 7 8 10 11 14 15 16 17 
cascade_activation_steepnesses_count=4
cascade_activation_steepnesses=2.50000000000000000000e-01 5.00000000000000000000e-01 7.50000000000000000000e-01 1.00000000000000000000e+00 
layer_sizes=3 10 3 
scale_included=0
neurons (num_inputs, activation_function, activation_steepness)=(0, 0, 0.00000000000000000000e+00) (0, 0, 0.00000000000000000000e+00) (0, 0, 0.00000000000000000000e+00) (3, 5, 5.00000000000000000000e-01) (3, 5, 5.00000000000000000000e-01) (3, 5, 5.00000000000000000000e-01) (3, 5, 5.00000000000000000000e-01) (3, 5, 5.00000000000000000000e-01) (3, 5, 5.00000000000000000000e-01) (3, 5, 5.00000000000000000000e-01) (3, 5, 5.00000000000000000000e-01) (3, 5, 5.00000000000000000000e-01) (0, 5, 0.00000000000000000000e+00) (10, 5, 5.00000000000000000000e-01) (10, 5, 5.00000000000000000000e-01) (0, 5, 0.00000000000000000000e+00) 
connections (connected_to_neuron, weight)=(0, 1.12553787231445312500e+00) (1, -3.58527451753616333008e-01) (2, -5.79858422279357910156e-01) (0, -8.69956374168395996094e-01) (1, 3.56706202030181884766e-01) (2, 1.26868414878845214844e+00) (0, 8.68481159210205078125e-01) (1, 5.41526436805725097656e-01) (2, -2.20280528068542480469e-01) (0, -9.50726807117462158203e-01) (1, 2.52649813890457153320e-01) (2, 1.35409402847290039062e+00) (0, -4.94689702987670898438e-01) (1, 2.88374722003936767578e-01) (2, 7.72757470607757568359e-01) (0, 6.52844667434692382812e-01) (1, 2.94978857040405273438e-01) (2, -8.30295801162719726562e-01) (0, -4.33267235755920410156e-01) (1, 3.83208364248275756836e-01) (2, 1.37398409843444824219e+00) (0, -7.22885549068450927734e-01) (1, -2.01525211334228515625e-01) (2, 5.99481821060180664062e-01) (0, 1.22346186637878417969e+00) (1, -1.94877699017524719238e-01) (2, -7.30648815631866455078e-01) (3, 1.03991544246673583984e+00) (4, -7.11399536132812500000e+01) (5, 1.85841000080108642578e+00) (6, -3.84769248962402343750e+01) (7, -1.38447296619415283203e+00) (8, 1.30725231170654296875e+01) (9, -7.73301005363464355469e-01) (10, -1.24283576011657714844e+00) (11, 2.27718234062194824219e+00) (12, -6.21688902378082275391e-01) (3, -1.92817926406860351562e+00) (4, 3.23824310302734375000e+01) (5, -1.61635446548461914062e+00) (6, 4.23352890014648437500e+01) (7, 1.79843509197235107422e+00) (8, -2.27604955434799194336e-01) (9, 6.27613961696624755859e-01) (10, 2.58579349517822265625e+00) (11, -1.98858356475830078125e+00) (12, 1.03217923641204833984e+00) 
