FANN_FLO_2.1
num_layers=3
learning_rate=0.700000
connection_rate=1.000000
network_type=0
learning_momentum=0.000000
training_algorithm=2
train_error_function=1
train_stop_function=0
cascade_output_change_fraction=0.010000
quickprop_decay=-0.000100
quickprop_mu=1.750000
rprop_increase_factor=1.200000
rprop_decrease_factor=0.500000
rprop_delta_min=0.000000
rprop_delta_max=50.000000
rprop_delta_zero=0.100000
cascade_output_stagnation_epochs=12
cascade_candidate_change_fraction=0.010000
cascade_candidate_stagnation_epochs=12
cascade_max_out_epochs=150
cascade_min_out_epochs=50
cascade_max_cand_epochs=150
cascade_min_cand_epochs=50
cascade_num_candidate_groups=2
bit_fail_limit=3.49999994039535522461e-01
cascade_candidate_limit=1.00000000000000000000e+03
cascade_weight_multiplier=4.00000005960464477539e-01
cascade_activation_functions_count=10
cascade_activation_functions=3 5 7 8 10 11 14 15 16 17 
cascade_activation_steepnesses_count=4
cascade_activation_steepnesses=2.50000000000000000000e-01 5.00000000000000000000e-01 7.50000000000000000000e-01 1.00000000000000000000e+00 
layer_sizes=3 10 3 
scale_included=0
neurons (num_inputs, activation_function, activation_steepness)=(0, 0, 0.00000000000000000000e+00) (0, 0, 0.00000000000000000000e+00) (0, 0, 0.00000000000000000000e+00) (3, 5, 5.00000000000000000000e-01) (3, 5, 5.00000000000000000000e-01) (3, 5, 5.00000000000000000000e-01) (3, 5, 5.00000000000000000000e-01) (3, 5, 5.00000000000000000000e-01) (3, 5, 5.00000000000000000000e-01) (3, 5, 5.00000000000000000000e-01) (3, 5, 5.00000000000000000000e-01) (3, 5, 5.00000000000000000000e-01) (0, 5, 0.00000000000000000000e+00) (10, 5, 5.00000000000000000000e-01) (10, 5, 5.00000000000000000000e-01) (0, 5, 0.00000000000000000000e+00) 
connections (connected_to_neuron, weight)=(0, -1.13466491699218750000e+03) (1, 7.83736694335937500000e+02) (2, 1.48205699920654296875e+01) (0, -1.50000000000000000000e+03) (1, -1.96376083374023437500e+02) (2, -2.41264700889587402344e+00) (0, -8.85440856933593750000e+02) (1, 1.21081726074218750000e+03) (2, 2.13967342376708984375e+01) (0, 1.01630944824218750000e+03) (1, 1.44415039062500000000e+02) (2, 2.77735567092895507812e+00) (0, -2.91252075195312500000e+02) (1, 1.50000000000000000000e+03) (2, 7.68116617202758789062e+00) (0, -1.09919519042968750000e+03) (1, 8.46207092285156250000e+02) (2, 1.57778806686401367188e+01) (0, -8.93473815917968750000e+02) (1, 1.22977233886718750000e+03) (2, 2.16862087249755859375e+01) (0, -1.23562658691406250000e+03) (1, 7.20318664550781250000e+02) (2, 1.38287601470947265625e+01) (0, -9.26003799438476562500e+01) (1, 1.01699752807617187500e+01) (2, -4.26677316427230834961e-01) (3, -3.12532949447631835938e+00) (4, 1.88876609802246093750e+01) (5, -1.53270435333251953125e+00) (6, 1.69017505645751953125e+01) (7, -4.68951606750488281250e+00) (8, -2.33670496940612792969e+00) (9, -1.87197411060333251953e+00) (10, -3.07620048522949218750e+00) (11, 2.54127063751220703125e+01) (12, 4.93397533893585205078e-01) (3, 2.60366201400756835938e+00) (4, -1.87329502105712890625e+01) (5, 1.86413753032684326172e+00) (6, -1.68132877349853515625e+01) (7, 4.83729457855224609375e+00) (8, 2.20906877517700195312e+00) (9, 1.65514409542083740234e+00) (10, 3.47350335121154785156e+00) (11, -2.53235130310058593750e+01) (12, -2.90610313415527343750e-01) 
