FANN_FLO_2.1
num_layers=3
learning_rate=0.700000
connection_rate=1.000000
network_type=0
learning_momentum=0.000000
training_algorithm=2
train_error_function=1
train_stop_function=0
cascade_output_change_fraction=0.010000
quickprop_decay=-0.000100
quickprop_mu=1.750000
rprop_increase_factor=1.200000
rprop_decrease_factor=0.500000
rprop_delta_min=0.000000
rprop_delta_max=50.000000
rprop_delta_zero=0.100000
cascade_output_stagnation_epochs=12
cascade_candidate_change_fraction=0.010000
cascade_candidate_stagnation_epochs=12
cascade_max_out_epochs=150
cascade_min_out_epochs=50
cascade_max_cand_epochs=150
cascade_min_cand_epochs=50
cascade_num_candidate_groups=2
bit_fail_limit=3.49999994039535522461e-01
cascade_candidate_limit=1.00000000000000000000e+03
cascade_weight_multiplier=4.00000005960464477539e-01
cascade_activation_functions_count=10
cascade_activation_functions=3 5 7 8 10 11 14 15 16 17 
cascade_activation_steepnesses_count=4
cascade_activation_steepnesses=2.50000000000000000000e-01 5.00000000000000000000e-01 7.50000000000000000000e-01 1.00000000000000000000e+00 
layer_sizes=3 10 3 
scale_included=0
neurons (num_inputs, activation_function, activation_steepness)=(0, 0, 0.00000000000000000000e+00) (0, 0, 0.00000000000000000000e+00) (0, 0, 0.00000000000000000000e+00) (3, 5, 5.00000000000000000000e-01) (3, 5, 5.00000000000000000000e-01) (3, 5, 5.00000000000000000000e-01) (3, 5, 5.00000000000000000000e-01) (3, 5, 5.00000000000000000000e-01) (3, 5, 5.00000000000000000000e-01) (3, 5, 5.00000000000000000000e-01) (3, 5, 5.00000000000000000000e-01) (3, 5, 5.00000000000000000000e-01) (0, 5, 0.00000000000000000000e+00) (10, 5, 5.00000000000000000000e-01) (10, 5, 5.00000000000000000000e-01) (0, 5, 0.00000000000000000000e+00) 
connections (connected_to_neuron, weight)=(0, 2.08642730712890625000e+02) (1, 1.54375877380371093750e+01) (2, 1.05827188491821289062e+00) (0, -5.70716743469238281250e+01) (1, 2.41451525688171386719e+00) (2, -4.70056086778640747070e-01) (0, 1.23039245605468750000e+02) (1, 9.24574851989746093750e+00) (2, 8.83496105670928955078e-01) (0, -5.77183341979980468750e+01) (1, 2.61619353294372558594e+00) (2, -4.45470362901687622070e-01) (0, -1.31167869567871093750e+01) (1, 1.26621704101562500000e+01) (2, -2.59730219841003417969e-01) (0, -5.76108970642089843750e+01) (1, 2.62239003181457519531e+00) (2, -4.53076601028442382812e-01) (0, -3.98687314987182617188e+00) (1, 2.29524898529052734375e+00) (2, -3.26724827289581298828e-01) (0, 1.46553848266601562500e+02) (1, 2.07899627685546875000e+01) (2, 1.03968369960784912109e+00) (0, 2.08480712890625000000e+02) (1, 1.53690986633300781250e+01) (2, 1.06229138374328613281e+00) (3, -2.95028185844421386719e+00) (4, 2.08684204101562500000e+02) (5, -6.98513183593750000000e+01) (6, 4.70154052734375000000e+02) (7, 1.01102304458618164062e+00) (8, 2.69172912597656250000e+02) (9, 1.16251897811889648438e+00) (10, -2.72605228424072265625e+00) (11, -2.94856858253479003906e+00) (12, -4.49428707361221313477e-01) (3, 4.48117733001708984375e+00) (4, -4.15630645751953125000e+01) (5, 6.16823692321777343750e+01) (6, -1.19240698242187500000e+03) (7, -6.91981241106986999512e-02) (8, -2.13612136840820312500e+02) (9, -3.54022607207298278809e-02) (10, 5.52645921707153320312e+00) (11, 4.47157096862792968750e+00) (12, 8.09720516204833984375e-01) 
