FANN_FLO_2.1
num_layers=3
learning_rate=0.700000
connection_rate=1.000000
network_type=0
learning_momentum=0.000000
training_algorithm=2
train_error_function=1
train_stop_function=0
cascade_output_change_fraction=0.010000
quickprop_decay=-0.000100
quickprop_mu=1.750000
rprop_increase_factor=1.200000
rprop_decrease_factor=0.500000
rprop_delta_min=0.000000
rprop_delta_max=50.000000
rprop_delta_zero=0.100000
cascade_output_stagnation_epochs=12
cascade_candidate_change_fraction=0.010000
cascade_candidate_stagnation_epochs=12
cascade_max_out_epochs=150
cascade_min_out_epochs=50
cascade_max_cand_epochs=150
cascade_min_cand_epochs=50
cascade_num_candidate_groups=2
bit_fail_limit=3.49999994039535522461e-01
cascade_candidate_limit=1.00000000000000000000e+03
cascade_weight_multiplier=4.00000005960464477539e-01
cascade_activation_functions_count=10
cascade_activation_functions=3 5 7 8 10 11 14 15 16 17 
cascade_activation_steepnesses_count=4
cascade_activation_steepnesses=2.50000000000000000000e-01 5.00000000000000000000e-01 7.50000000000000000000e-01 1.00000000000000000000e+00 
layer_sizes=3 10 3 
scale_included=0
neurons (num_inputs, activation_function, activation_steepness)=(0, 0, 0.00000000000000000000e+00) (0, 0, 0.00000000000000000000e+00) (0, 0, 0.00000000000000000000e+00) (3, 5, 5.00000000000000000000e-01) (3, 5, 5.00000000000000000000e-01) (3, 5, 5.00000000000000000000e-01) (3, 5, 5.00000000000000000000e-01) (3, 5, 5.00000000000000000000e-01) (3, 5, 5.00000000000000000000e-01) (3, 5, 5.00000000000000000000e-01) (3, 5, 5.00000000000000000000e-01) (3, 5, 5.00000000000000000000e-01) (0, 5, 0.00000000000000000000e+00) (10, 5, 5.00000000000000000000e-01) (10, 5, 5.00000000000000000000e-01) (0, 5, 0.00000000000000000000e+00) 
connections (connected_to_neuron, weight)=(0, 4.19185852050781250000e+02) (1, 1.50000000000000000000e+03) (2, 8.55323970317840576172e-01) (0, -7.37321350097656250000e+02) (1, 1.50000000000000000000e+03) (2, 2.76038378477096557617e-01) (0, 1.50000000000000000000e+03) (1, 7.64400024414062500000e+02) (2, 1.50000000000000000000e+03) (0, 3.38964599609375000000e+02) (1, 1.49968225097656250000e+03) (2, 5.47747373580932617188e-01) (0, 1.50000000000000000000e+03) (1, -1.50000000000000000000e+03) (2, 5.37709414958953857422e-01) (0, -1.50000000000000000000e+03) (1, 1.50000000000000000000e+03) (2, 1.57497751712799072266e+00) (0, 1.50000000000000000000e+03) (1, -1.49417785644531250000e+03) (2, 1.90965518951416015625e+01) (0, -1.50000000000000000000e+03) (1, 1.49943859863281250000e+03) (2, -1.72448806762695312500e+01) (0, -2.93490112304687500000e+02) (1, -2.70581150054931640625e+01) (2, -1.37059736251831054688e+00) (3, -2.12620143890380859375e+01) (4, -1.48203792572021484375e+01) (5, -5.02510213851928710938e+00) (6, -1.37366211414337158203e+00) (7, 8.93125839233398437500e+01) (8, 9.79925613403320312500e+01) (9, -1.03058452606201171875e+01) (10, 4.68238868713378906250e+01) (11, 1.95826492309570312500e+01) (12, -1.42917037010192871094e+00) (3, 7.42687845230102539062e+00) (4, 9.20626068115234375000e+00) (5, 8.65239906311035156250e+00) (6, 1.13399991989135742188e+01) (7, -8.67372131347656250000e+01) (8, -8.88691558837890625000e+01) (9, 1.16485900878906250000e+01) (10, -2.46643924713134765625e+01) (11, -4.11517410278320312500e+01) (12, 3.01791715621948242188e+00) 
