FANN_FLO_2.1
num_layers=3
learning_rate=0.700000
connection_rate=1.000000
network_type=0
learning_momentum=0.000000
training_algorithm=2
train_error_function=1
train_stop_function=0
cascade_output_change_fraction=0.010000
quickprop_decay=-0.000100
quickprop_mu=1.750000
rprop_increase_factor=1.200000
rprop_decrease_factor=0.500000
rprop_delta_min=0.000000
rprop_delta_max=50.000000
rprop_delta_zero=0.100000
cascade_output_stagnation_epochs=12
cascade_candidate_change_fraction=0.010000
cascade_candidate_stagnation_epochs=12
cascade_max_out_epochs=150
cascade_min_out_epochs=50
cascade_max_cand_epochs=150
cascade_min_cand_epochs=50
cascade_num_candidate_groups=2
bit_fail_limit=3.49999994039535522461e-01
cascade_candidate_limit=1.00000000000000000000e+03
cascade_weight_multiplier=4.00000005960464477539e-01
cascade_activation_functions_count=10
cascade_activation_functions=3 5 7 8 10 11 14 15 16 17 
cascade_activation_steepnesses_count=4
cascade_activation_steepnesses=2.50000000000000000000e-01 5.00000000000000000000e-01 7.50000000000000000000e-01 1.00000000000000000000e+00 
layer_sizes=3 10 3 
scale_included=0
neurons (num_inputs, activation_function, activation_steepness)=(0, 0, 0.00000000000000000000e+00) (0, 0, 0.00000000000000000000e+00) (0, 0, 0.00000000000000000000e+00) (3, 5, 5.00000000000000000000e-01) (3, 5, 5.00000000000000000000e-01) (3, 5, 5.00000000000000000000e-01) (3, 5, 5.00000000000000000000e-01) (3, 5, 5.00000000000000000000e-01) (3, 5, 5.00000000000000000000e-01) (3, 5, 5.00000000000000000000e-01) (3, 5, 5.00000000000000000000e-01) (3, 5, 5.00000000000000000000e-01) (0, 5, 0.00000000000000000000e+00) (10, 5, 5.00000000000000000000e-01) (10, 5, 5.00000000000000000000e-01) (0, 5, 0.00000000000000000000e+00) 
connections (connected_to_neuron, weight)=(0, 1.47421270608901977539e-01) (1, 7.65915811061859130859e-02) (2, 1.69204592704772949219e-01) (0, 5.80726303160190582275e-02) (1, 3.35860699415206909180e-02) (2, 1.37609466910362243652e-01) (0, 8.03865492343902587891e-02) (1, 1.66367411613464355469e-01) (2, 3.70852351188659667969e-02) (0, 7.11735486984252929688e-02) (1, 1.18101879954338073730e-01) (2, 8.75217989087104797363e-02) (0, 3.41462269425392150879e-02) (1, 3.27454805374145507812e-02) (2, 1.96346640586853027344e-01) (0, 5.54591417312622070312e-02) (1, 1.60821154713630676270e-01) (2, 1.58161848783493041992e-01) (0, 6.92843943834304809570e-02) (1, 1.72282323241233825684e-01) (2, 8.07846635580062866211e-02) (0, 1.47758901119232177734e-01) (1, 1.61662250757217407227e-01) (2, 1.83288112282752990723e-01) (0, 9.61809009313583374023e-02) (1, 6.93466067314147949219e-02) (2, 9.27179977297782897949e-02) (3, 2.19558641314506530762e-01) (4, 2.11935117840766906738e-01) (5, 1.37605711817741394043e-01) (6, 6.17234781384468078613e-02) (7, 1.39356374740600585938e-01) (8, 1.94197297096252441406e-01) (9, 2.10928067564964294434e-01) (10, 1.77429005503654479980e-01) (11, 2.07783356308937072754e-01) (12, 1.28537520766258239746e-01) (3, 3.78155410289764404297e-02) (4, 1.54150754213333129883e-01) (5, 1.45622745156288146973e-01) (6, 8.89890789985656738281e-02) (7, 5.22526353597640991211e-02) (8, 2.13144555687904357910e-01) (9, 1.03135302662849426270e-01) (10, 6.49981126189231872559e-02) (11, 1.89491182565689086914e-01) (12, 1.38594448566436767578e-01) 
