FANN_FLO_2.1
num_layers=3
learning_rate=0.700000
connection_rate=1.000000
network_type=0
learning_momentum=0.000000
training_algorithm=2
train_error_function=1
train_stop_function=0
cascade_output_change_fraction=0.010000
quickprop_decay=-0.000100
quickprop_mu=1.750000
rprop_increase_factor=1.200000
rprop_decrease_factor=0.500000
rprop_delta_min=0.000000
rprop_delta_max=50.000000
rprop_delta_zero=0.100000
cascade_output_stagnation_epochs=12
cascade_candidate_change_fraction=0.010000
cascade_candidate_stagnation_epochs=12
cascade_max_out_epochs=150
cascade_min_out_epochs=50
cascade_max_cand_epochs=150
cascade_min_cand_epochs=50
cascade_num_candidate_groups=2
bit_fail_limit=3.49999994039535522461e-01
cascade_candidate_limit=1.00000000000000000000e+03
cascade_weight_multiplier=4.00000005960464477539e-01
cascade_activation_functions_count=10
cascade_activation_functions=3 5 7 8 10 11 14 15 16 17 
cascade_activation_steepnesses_count=4
cascade_activation_steepnesses=2.50000000000000000000e-01 5.00000000000000000000e-01 7.50000000000000000000e-01 1.00000000000000000000e+00 
layer_sizes=3 10 3 
scale_included=0
neurons (num_inputs, activation_function, activation_steepness)=(0, 0, 0.00000000000000000000e+00) (0, 0, 0.00000000000000000000e+00) (0, 0, 0.00000000000000000000e+00) (3, 5, 5.00000000000000000000e-01) (3, 5, 5.00000000000000000000e-01) (3, 5, 5.00000000000000000000e-01) (3, 5, 5.00000000000000000000e-01) (3, 5, 5.00000000000000000000e-01) (3, 5, 5.00000000000000000000e-01) (3, 5, 5.00000000000000000000e-01) (3, 5, 5.00000000000000000000e-01) (3, 5, 5.00000000000000000000e-01) (0, 5, 0.00000000000000000000e+00) (10, 5, 5.00000000000000000000e-01) (10, 5, 5.00000000000000000000e-01) (0, 5, 0.00000000000000000000e+00) 
connections (connected_to_neuron, weight)=(0, 1.39451608061790466309e-01) (1, 1.13864332437515258789e-01) (2, 1.59118801355361938477e-01) (0, 1.03277377784252166748e-01) (1, 2.06759020686149597168e-01) (2, 6.86351433396339416504e-02) (0, 1.20690084993839263916e-01) (1, 5.87085150182247161865e-02) (2, 1.17305539548397064209e-01) (0, 8.23331326246261596680e-02) (1, 2.16347679495811462402e-01) (2, 1.93355605006217956543e-01) (0, 1.41222953796386718750e-01) (1, 7.48505741357803344727e-02) (2, 3.42143476009368896484e-02) (0, 7.64408707618713378906e-02) (1, 1.31650343537330627441e-01) (2, 9.81182754039764404297e-02) (0, 1.66654869914054870605e-01) (1, 8.29356685280799865723e-02) (2, 1.62511467933654785156e-01) (0, 1.71738997101783752441e-01) (1, 1.72919213771820068359e-01) (2, 1.27592116594314575195e-01) (0, 1.87901541590690612793e-01) (1, 7.78210461139678955078e-02) (2, 2.10729911923408508301e-01) (3, 2.10251659154891967773e-01) (4, 6.68523088097572326660e-02) (5, 1.42159536480903625488e-01) (6, 9.29123461246490478516e-02) (7, 1.86303913593292236328e-01) (8, 3.60238626599311828613e-02) (9, 3.20311337709426879883e-02) (10, 6.95812776684761047363e-02) (11, 2.27828640490770339966e-02) (12, 8.06662812829017639160e-02) (3, 1.70271351933479309082e-01) (4, 6.14913739264011383057e-02) (5, 1.77971810102462768555e-01) (6, 3.26044782996177673340e-02) (7, 5.78390434384346008301e-02) (8, 1.51327401399612426758e-01) (9, 1.53827428817749023438e-01) (10, 1.12689614295959472656e-01) (11, 1.65541753172874450684e-01) (12, 2.10268303751945495605e-01) 
