FANN_FLO_2.1
num_layers=3
learning_rate=0.700000
connection_rate=1.000000
network_type=0
learning_momentum=0.000000
training_algorithm=2
train_error_function=1
train_stop_function=0
cascade_output_change_fraction=0.010000
quickprop_decay=-0.000100
quickprop_mu=1.750000
rprop_increase_factor=1.200000
rprop_decrease_factor=0.500000
rprop_delta_min=0.000000
rprop_delta_max=50.000000
rprop_delta_zero=0.100000
cascade_output_stagnation_epochs=12
cascade_candidate_change_fraction=0.010000
cascade_candidate_stagnation_epochs=12
cascade_max_out_epochs=150
cascade_min_out_epochs=50
cascade_max_cand_epochs=150
cascade_min_cand_epochs=50
cascade_num_candidate_groups=2
bit_fail_limit=3.49999994039535522461e-01
cascade_candidate_limit=1.00000000000000000000e+03
cascade_weight_multiplier=4.00000005960464477539e-01
cascade_activation_functions_count=10
cascade_activation_functions=3 5 7 8 10 11 14 15 16 17 
cascade_activation_steepnesses_count=4
cascade_activation_steepnesses=2.50000000000000000000e-01 5.00000000000000000000e-01 7.50000000000000000000e-01 1.00000000000000000000e+00 
layer_sizes=3 10 3 
scale_included=0
neurons (num_inputs, activation_function, activation_steepness)=(0, 0, 0.00000000000000000000e+00) (0, 0, 0.00000000000000000000e+00) (0, 0, 0.00000000000000000000e+00) (3, 5, 5.00000000000000000000e-01) (3, 5, 5.00000000000000000000e-01) (3, 5, 5.00000000000000000000e-01) (3, 5, 5.00000000000000000000e-01) (3, 5, 5.00000000000000000000e-01) (3, 5, 5.00000000000000000000e-01) (3, 5, 5.00000000000000000000e-01) (3, 5, 5.00000000000000000000e-01) (3, 5, 5.00000000000000000000e-01) (0, 5, 0.00000000000000000000e+00) (10, 5, 5.00000000000000000000e-01) (10, 5, 5.00000000000000000000e-01) (0, 5, 0.00000000000000000000e+00) 
connections (connected_to_neuron, weight)=(0, 2.82055530548095703125e+01) (1, -4.39760494232177734375e+00) (2, 7.48014986515045166016e-01) (0, -6.98023147583007812500e+01) (1, 2.57522439956665039062e+00) (2, -4.18316245079040527344e-01) (0, -7.27457332611083984375e+00) (1, -6.85850429534912109375e+00) (2, 6.90248429775238037109e-01) (0, 2.54302005767822265625e+01) (1, 8.38314628601074218750e+00) (2, -1.91432222723960876465e-01) (0, -1.31242675781250000000e+01) (1, 3.20655345916748046875e+00) (2, -4.15418148040771484375e-01) (0, 1.50000000000000000000e+03) (1, 1.34422760009765625000e+02) (2, -1.10066856723278760910e-03) (0, 1.50000000000000000000e+03) (1, 1.34579879760742187500e+02) (2, 7.30843991041183471680e-02) (0, -3.97003364562988281250e+00) (1, 2.88122868537902832031e+00) (2, -2.71662920713424682617e-01) (0, -1.59057807922363281250e+01) (1, -3.60334420204162597656e+00) (2, 2.09724947810173034668e-01) (3, -6.99523086547851562500e+01) (4, 3.83105087280273437500e+01) (5, -6.44414062500000000000e+01) (6, -2.38991491496562957764e-02) (7, 4.11886863708496093750e+01) (8, 6.76307868957519531250e+00) (9, 1.59197816848754882812e+01) (10, 5.84713317871093750000e+02) (11, 8.73127502441406250000e+02) (12, -1.39067634940147399902e-01) (3, 6.36949081420898437500e+01) (4, -6.59136505126953125000e+01) (5, 1.29994033813476562500e+02) (6, 5.99104702472686767578e-01) (7, -3.49758872985839843750e+01) (8, -2.14886283874511718750e+00) (9, -2.29592838287353515625e+01) (10, -4.85264678955078125000e+02) (11, -9.36819824218750000000e+02) (12, 4.22607570886611938477e-01) 
