FANN_FLO_2.1
num_layers=3
learning_rate=0.700000
connection_rate=1.000000
network_type=0
learning_momentum=0.000000
training_algorithm=2
train_error_function=1
train_stop_function=0
cascade_output_change_fraction=0.010000
quickprop_decay=-0.000100
quickprop_mu=1.750000
rprop_increase_factor=1.200000
rprop_decrease_factor=0.500000
rprop_delta_min=0.000000
rprop_delta_max=50.000000
rprop_delta_zero=0.100000
cascade_output_stagnation_epochs=12
cascade_candidate_change_fraction=0.010000
cascade_candidate_stagnation_epochs=12
cascade_max_out_epochs=150
cascade_min_out_epochs=50
cascade_max_cand_epochs=150
cascade_min_cand_epochs=50
cascade_num_candidate_groups=2
bit_fail_limit=3.49999994039535522461e-01
cascade_candidate_limit=1.00000000000000000000e+03
cascade_weight_multiplier=4.00000005960464477539e-01
cascade_activation_functions_count=10
cascade_activation_functions=3 5 7 8 10 11 14 15 16 17 
cascade_activation_steepnesses_count=4
cascade_activation_steepnesses=2.50000000000000000000e-01 5.00000000000000000000e-01 7.50000000000000000000e-01 1.00000000000000000000e+00 
layer_sizes=5 10 3 
scale_included=0
neurons (num_inputs, activation_function, activation_steepness)=(0, 0, 0.00000000000000000000e+00) (0, 0, 0.00000000000000000000e+00) (0, 0, 0.00000000000000000000e+00) (0, 0, 0.00000000000000000000e+00) (0, 0, 0.00000000000000000000e+00) (5, 5, 5.00000000000000000000e-01) (5, 5, 5.00000000000000000000e-01) (5, 5, 5.00000000000000000000e-01) (5, 5, 5.00000000000000000000e-01) (5, 5, 5.00000000000000000000e-01) (5, 5, 5.00000000000000000000e-01) (5, 5, 5.00000000000000000000e-01) (5, 5, 5.00000000000000000000e-01) (5, 5, 5.00000000000000000000e-01) (0, 5, 0.00000000000000000000e+00) (10, 5, 5.00000000000000000000e-01) (10, 5, 5.00000000000000000000e-01) (0, 5, 0.00000000000000000000e+00) 
connections (connected_to_neuron, weight)=(0, -1.50666463375091552734e+00) (1, 1.48621046543121337891e+00) (2, 9.30087506771087646484e-01) (3, 1.55296492576599121094e+00) (4, 1.62302887439727783203e+00) (0, -2.83825337886810302734e-01) (1, 4.73009407520294189453e-01) (2, 2.71856218576431274414e-01) (3, 3.76084208488464355469e-01) (4, 5.37833690643310546875e-01) (0, 1.47279167175292968750e+00) (1, -1.57990717887878417969e+00) (2, -6.21300756931304931641e-01) (3, -1.52304351329803466797e+00) (4, -1.58999621868133544922e+00) (0, -1.64703452587127685547e+00) (1, 1.60163581371307373047e+00) (2, 8.51056993007659912109e-01) (3, 1.62738001346588134766e+00) (4, 1.57796156406402587891e+00) (0, -3.40195238590240478516e-01) (1, 4.61937457323074340820e-01) (2, 1.87637552618980407715e-01) (3, 4.94943857192993164062e-01) (4, 5.26078820228576660156e-01) (0, 1.52362048625946044922e+00) (1, -1.55780827999114990234e+00) (2, -5.70903956890106201172e-01) (3, -1.49197852611541748047e+00) (4, -1.56487929821014404297e+00) (0, 8.85131657123565673828e-02) (1, 1.80022403597831726074e-01) (2, 6.02111518383026123047e-02) (3, 2.01787739992141723633e-01) (4, 8.30785781145095825195e-02) (0, 1.54436004161834716797e+00) (1, -1.55499911308288574219e+00) (2, -6.17832243442535400391e-01) (3, -1.49972939491271972656e+00) (4, -1.55471014976501464844e+00) (0, -3.92312169075012207031e-01) (1, 5.48857629299163818359e-01) (2, 2.56912201642990112305e-01) (3, 5.37254571914672851562e-01) (4, 4.75722938776016235352e-01) (5, -1.62479603290557861328e+00) (6, -4.49145436286926269531e-02) (7, 1.50156342983245849609e+00) (8, -1.54184806346893310547e+00) (9, -6.74433410167694091797e-02) (10, 1.62961626052856445312e+00) (11, 6.62207901477813720703e-02) (12, 1.47785568237304687500e+00) (13, -1.33615016937255859375e-01) (14, -1.50709939002990722656e+00) (5, 1.62813913822174072266e+00) (6, 3.50592702627182006836e-01) (7, -1.61499893665313720703e+00) (8, 1.57651209831237792969e+00) (9, 3.08522999286651611328e-01) (10, -1.52996945381164550781e+00) (11, 1.03244513273239135742e-01) (12, -1.64145946502685546875e+00) (13, 2.42518469691276550293e-01) (14, 1.46041297912597656250e+00) 
