FANN_FLO_2.1
num_layers=3
learning_rate=0.700000
connection_rate=1.000000
network_type=0
learning_momentum=0.000000
training_algorithm=2
train_error_function=1
train_stop_function=0
cascade_output_change_fraction=0.010000
quickprop_decay=-0.000100
quickprop_mu=1.750000
rprop_increase_factor=1.200000
rprop_decrease_factor=0.500000
rprop_delta_min=0.000000
rprop_delta_max=50.000000
rprop_delta_zero=0.100000
cascade_output_stagnation_epochs=12
cascade_candidate_change_fraction=0.010000
cascade_candidate_stagnation_epochs=12
cascade_max_out_epochs=150
cascade_min_out_epochs=50
cascade_max_cand_epochs=150
cascade_min_cand_epochs=50
cascade_num_candidate_groups=2
bit_fail_limit=3.49999994039535522461e-01
cascade_candidate_limit=1.00000000000000000000e+03
cascade_weight_multiplier=4.00000005960464477539e-01
cascade_activation_functions_count=10
cascade_activation_functions=3 5 7 8 10 11 14 15 16 17 
cascade_activation_steepnesses_count=4
cascade_activation_steepnesses=2.50000000000000000000e-01 5.00000000000000000000e-01 7.50000000000000000000e-01 1.00000000000000000000e+00 
layer_sizes=5 10 3 
scale_included=0
neurons (num_inputs, activation_function, activation_steepness)=(0, 0, 0.00000000000000000000e+00) (0, 0, 0.00000000000000000000e+00) (0, 0, 0.00000000000000000000e+00) (0, 0, 0.00000000000000000000e+00) (0, 0, 0.00000000000000000000e+00) (5, 5, 5.00000000000000000000e-01) (5, 5, 5.00000000000000000000e-01) (5, 5, 5.00000000000000000000e-01) (5, 5, 5.00000000000000000000e-01) (5, 5, 5.00000000000000000000e-01) (5, 5, 5.00000000000000000000e-01) (5, 5, 5.00000000000000000000e-01) (5, 5, 5.00000000000000000000e-01) (5, 5, 5.00000000000000000000e-01) (0, 5, 0.00000000000000000000e+00) (10, 5, 5.00000000000000000000e-01) (10, 5, 5.00000000000000000000e-01) (0, 5, 0.00000000000000000000e+00) 
connections (connected_to_neuron, weight)=(0, -8.05995273590087890625e+00) (1, 1.89108312129974365234e+00) (2, -1.72377719879150390625e+01) (3, 9.16878986358642578125e+00) (4, -4.24677401781082153320e-01) (0, -5.48582687377929687500e+01) (1, -9.38393783569335937500e+01) (2, -1.34931747436523437500e+02) (3, 2.17972839355468750000e+02) (4, 2.59420943260192871094e+00) (0, -9.47080421447753906250e+00) (1, 5.06418883800506591797e-01) (2, -1.54765911102294921875e+01) (3, 2.02143192291259765625e+01) (4, -4.13012892007827758789e-01) (0, -1.37605972290039062500e+01) (1, 7.46424078941345214844e-01) (2, -1.64255580902099609375e+01) (3, -6.20427856445312500000e+01) (4, -1.25982820987701416016e-01) (0, -1.10558404922485351562e+01) (1, -1.15179729461669921875e+01) (2, 8.85474777221679687500e+01) (3, 1.43247589111328125000e+02) (4, -8.33535373210906982422e-01) (0, -1.14194612503051757812e+01) (1, -4.39655639648437500000e+02) (2, 1.49986010742187500000e+03) (3, -1.07917129516601562500e+02) (4, 8.01059341430664062500e+00) (0, -9.60348784923553466797e-01) (1, -2.05334329605102539062e+00) (2, -1.16112356185913085938e+01) (3, 4.29645080566406250000e+01) (4, -2.57627218961715698242e-01) (0, 1.65649093627929687500e+02) (1, 5.48343324661254882812e+00) (2, -9.72456359863281250000e+01) (3, -9.52873413085937500000e+02) (4, 2.37247490882873535156e+00) (0, -5.10417670011520385742e-02) (1, -9.63934600353240966797e-01) (2, -1.46809244155883789062e+01) (3, 5.16382217407226562500e+01) (4, -2.85584360361099243164e-01) (5, 4.30016189813613891602e-01) (6, 8.33831882476806640625e+00) (7, 6.41705226898193359375e+00) (8, -3.72421302795410156250e+01) (9, 2.24144878387451171875e+01) (10, -7.17512989044189453125e+00) (11, 2.56380634307861328125e+01) (12, 3.65926818847656250000e+01) (13, 3.77860403060913085938e+00) (14, -9.84194517135620117188e-01) (5, -6.87449455261230468750e+00) (6, -8.85404682159423828125e+00) (7, -4.72904634475708007812e+00) (8, 3.77261695861816406250e+01) (9, -2.30004787445068359375e+01) (10, 7.25809955596923828125e+00) (11, -1.76338119506835937500e+01) (12, -3.64241867065429687500e+01) (13, -5.95925998687744140625e+00) (14, 9.58120465278625488281e-01) 
