FANN_FLO_2.1
num_layers=3
learning_rate=0.700000
connection_rate=1.000000
network_type=0
learning_momentum=0.000000
training_algorithm=2
train_error_function=1
train_stop_function=0
cascade_output_change_fraction=0.010000
quickprop_decay=-0.000100
quickprop_mu=1.750000
rprop_increase_factor=1.200000
rprop_decrease_factor=0.500000
rprop_delta_min=0.000000
rprop_delta_max=50.000000
rprop_delta_zero=0.100000
cascade_output_stagnation_epochs=12
cascade_candidate_change_fraction=0.010000
cascade_candidate_stagnation_epochs=12
cascade_max_out_epochs=150
cascade_min_out_epochs=50
cascade_max_cand_epochs=150
cascade_min_cand_epochs=50
cascade_num_candidate_groups=2
bit_fail_limit=3.49999994039535522461e-01
cascade_candidate_limit=1.00000000000000000000e+03
cascade_weight_multiplier=4.00000005960464477539e-01
cascade_activation_functions_count=10
cascade_activation_functions=3 5 7 8 10 11 14 15 16 17 
cascade_activation_steepnesses_count=4
cascade_activation_steepnesses=2.50000000000000000000e-01 5.00000000000000000000e-01 7.50000000000000000000e-01 1.00000000000000000000e+00 
layer_sizes=5 10 3 
scale_included=0
neurons (num_inputs, activation_function, activation_steepness)=(0, 0, 0.00000000000000000000e+00) (0, 0, 0.00000000000000000000e+00) (0, 0, 0.00000000000000000000e+00) (0, 0, 0.00000000000000000000e+00) (0, 0, 0.00000000000000000000e+00) (5, 5, 5.00000000000000000000e-01) (5, 5, 5.00000000000000000000e-01) (5, 5, 5.00000000000000000000e-01) (5, 5, 5.00000000000000000000e-01) (5, 5, 5.00000000000000000000e-01) (5, 5, 5.00000000000000000000e-01) (5, 5, 5.00000000000000000000e-01) (5, 5, 5.00000000000000000000e-01) (5, 5, 5.00000000000000000000e-01) (0, 5, 0.00000000000000000000e+00) (10, 5, 5.00000000000000000000e-01) (10, 5, 5.00000000000000000000e-01) (0, 5, 0.00000000000000000000e+00) 
connections (connected_to_neuron, weight)=(0, -8.43601322174072265625e+00) (1, -1.16776857376098632812e+01) (2, -2.01887741088867187500e+01) (3, -4.76931152343750000000e+01) (4, 9.38359871506690979004e-02) (0, -4.67681616544723510742e-01) (1, 3.55066204071044921875e+00) (2, 4.73800563812255859375e+00) (3, 6.49912953376770019531e-01) (4, -1.13633178174495697021e-01) (0, -4.96488189697265625000e+00) (1, -1.04299650192260742188e+01) (2, -1.97656459808349609375e+01) (3, -4.89526405334472656250e+01) (4, -1.12180188298225402832e-01) (0, 2.72261738777160644531e+00) (1, -9.22621488571166992188e-01) (2, 4.95185279846191406250e+00) (3, 1.09352722167968750000e+01) (4, -6.47189021110534667969e-02) (0, -1.19947118759155273438e+01) (1, -1.34395170211791992188e+01) (2, -2.14956321716308593750e+01) (3, -1.15088920593261718750e+02) (4, -5.48686198890209197998e-02) (0, -7.83522176742553710938e+00) (1, 3.39735778808593750000e+02) (2, -5.59441406250000000000e+02) (3, 3.92994171142578125000e+02) (4, -3.73719716072082519531e+00) (0, 4.27838355302810668945e-01) (1, 3.65690302848815917969e+00) (2, 4.70248985290527343750e+00) (3, 1.26101531982421875000e+01) (4, -1.29219070076942443848e-01) (0, 9.82931900024414062500e+01) (1, 1.68896312713623046875e+01) (2, 3.12471542358398437500e+01) (3, 4.25655782222747802734e-01) (4, 8.56243073940277099609e-01) (0, 9.92997932434082031250e+00) (1, 9.73602294921875000000e+00) (2, 1.12131662368774414062e+01) (3, 2.05529441833496093750e+01) (4, 3.64193767309188842773e-01) (5, 3.39968061447143554688e+00) (6, 3.68026804924011230469e+00) (7, 1.47617740631103515625e+01) (8, 8.87010498046875000000e+01) (9, 4.11530456542968750000e+01) (10, 1.57105264663696289062e+01) (11, 5.30312347412109375000e+00) (12, -2.64634361267089843750e+01) (13, -2.71188583374023437500e+01) (14, -3.41658443212509155273e-01) (5, 4.92590761184692382812e+00) (6, 1.48103499412536621094e+00) (7, -2.84999866485595703125e+01) (8, -8.16377410888671875000e+01) (9, -3.55727043151855468750e+01) (10, -1.46552238464355468750e+01) (11, 1.95117223262786865234e+00) (12, 3.22990684509277343750e+01) (13, 1.64994583129882812500e+01) (14, 4.81792628765106201172e-01) 
