FANN_FLO_2.1
num_layers=3
learning_rate=0.700000
connection_rate=1.000000
network_type=0
learning_momentum=0.000000
training_algorithm=2
train_error_function=1
train_stop_function=0
cascade_output_change_fraction=0.010000
quickprop_decay=-0.000100
quickprop_mu=1.750000
rprop_increase_factor=1.200000
rprop_decrease_factor=0.500000
rprop_delta_min=0.000000
rprop_delta_max=50.000000
rprop_delta_zero=0.100000
cascade_output_stagnation_epochs=12
cascade_candidate_change_fraction=0.010000
cascade_candidate_stagnation_epochs=12
cascade_max_out_epochs=150
cascade_min_out_epochs=50
cascade_max_cand_epochs=150
cascade_min_cand_epochs=50
cascade_num_candidate_groups=2
bit_fail_limit=3.49999994039535522461e-01
cascade_candidate_limit=1.00000000000000000000e+03
cascade_weight_multiplier=4.00000005960464477539e-01
cascade_activation_functions_count=10
cascade_activation_functions=3 5 7 8 10 11 14 15 16 17 
cascade_activation_steepnesses_count=4
cascade_activation_steepnesses=2.50000000000000000000e-01 5.00000000000000000000e-01 7.50000000000000000000e-01 1.00000000000000000000e+00 
layer_sizes=3 10 4 
scale_included=0
neurons (num_inputs, activation_function, activation_steepness)=(0, 0, 0.00000000000000000000e+00) (0, 0, 0.00000000000000000000e+00) (0, 0, 0.00000000000000000000e+00) (3, 5, 5.00000000000000000000e-01) (3, 5, 5.00000000000000000000e-01) (3, 5, 5.00000000000000000000e-01) (3, 5, 5.00000000000000000000e-01) (3, 5, 5.00000000000000000000e-01) (3, 5, 5.00000000000000000000e-01) (3, 5, 5.00000000000000000000e-01) (3, 5, 5.00000000000000000000e-01) (3, 5, 5.00000000000000000000e-01) (0, 5, 0.00000000000000000000e+00) (10, 5, 5.00000000000000000000e-01) (10, 5, 5.00000000000000000000e-01) (10, 5, 5.00000000000000000000e-01) (0, 5, 0.00000000000000000000e+00) 
connections (connected_to_neuron, weight)=(0, 6.72590583562850952148e-02) (1, 7.91521966457366943359e-02) (2, 7.54619017243385314941e-02) (0, 9.72036793828010559082e-02) (1, 1.23075745999813079834e-01) (2, 1.79173961281776428223e-01) (0, 2.14837178587913513184e-01) (1, 1.61877706646919250488e-01) (2, 2.15272858738899230957e-01) (0, 1.15814037621021270752e-01) (1, 1.85980543494224548340e-01) (2, 4.41821441054344177246e-02) (0, 5.31078726053237915039e-02) (1, 1.89543008804321289062e-01) (2, 1.11283577978610992432e-01) (0, 1.89745992422103881836e-01) (1, 1.20004579424858093262e-01) (2, 9.92606803774833679199e-02) (0, 9.11344662308692932129e-02) (1, 1.98279052972793579102e-01) (2, 1.81169107556343078613e-01) (0, 1.31012603640556335449e-01) (1, 5.53764551877975463867e-02) (2, 6.27107322216033935547e-02) (0, 1.95802673697471618652e-01) (1, 3.06654963642358779907e-02) (2, 9.37228202819824218750e-02) (3, 1.45303115248680114746e-01) (4, 1.47507652640342712402e-01) (5, 6.70760646462440490723e-02) (6, 4.48981225490570068359e-02) (7, 1.94766715168952941895e-01) (8, 1.26228258013725280762e-01) (9, 1.00360020995140075684e-01) (10, 7.19703808426856994629e-02) (11, 2.93039921671152114868e-02) (12, 5.95339797437191009521e-02) (3, 6.68075457215309143066e-02) (4, 1.71181693673133850098e-01) (5, 5.48068284988403320312e-02) (6, 1.62621587514877319336e-01) (7, 1.37162208557128906250e-01) (8, 7.89889693260192871094e-02) (9, 1.95729449391365051270e-01) (10, 1.06705211102962493896e-01) (11, 1.70272544026374816895e-01) (12, 1.65475428104400634766e-01) (3, 2.06709787249565124512e-01) (4, 4.95332181453704833984e-02) (5, 3.66098880767822265625e-02) (6, 1.84988841414451599121e-01) (7, 2.10702329874038696289e-01) (8, 1.47622480988502502441e-01) (9, 2.03652847558259963989e-02) (10, 5.34130483865737915039e-02) (11, 1.23425148427486419678e-01) (12, 3.10307759791612625122e-02) 
