FANN_FLO_2.1
num_layers=3
learning_rate=0.700000
connection_rate=1.000000
network_type=0
learning_momentum=0.000000
training_algorithm=2
train_error_function=1
train_stop_function=0
cascade_output_change_fraction=0.010000
quickprop_decay=-0.000100
quickprop_mu=1.750000
rprop_increase_factor=1.200000
rprop_decrease_factor=0.500000
rprop_delta_min=0.000000
rprop_delta_max=50.000000
rprop_delta_zero=0.100000
cascade_output_stagnation_epochs=12
cascade_candidate_change_fraction=0.010000
cascade_candidate_stagnation_epochs=12
cascade_max_out_epochs=150
cascade_min_out_epochs=50
cascade_max_cand_epochs=150
cascade_min_cand_epochs=50
cascade_num_candidate_groups=2
bit_fail_limit=3.49999994039535522461e-01
cascade_candidate_limit=1.00000000000000000000e+03
cascade_weight_multiplier=4.00000005960464477539e-01
cascade_activation_functions_count=10
cascade_activation_functions=3 5 7 8 10 11 14 15 16 17 
cascade_activation_steepnesses_count=4
cascade_activation_steepnesses=2.50000000000000000000e-01 5.00000000000000000000e-01 7.50000000000000000000e-01 1.00000000000000000000e+00 
layer_sizes=3 10 4 
scale_included=0
neurons (num_inputs, activation_function, activation_steepness)=(0, 0, 0.00000000000000000000e+00) (0, 0, 0.00000000000000000000e+00) (0, 0, 0.00000000000000000000e+00) (3, 5, 5.00000000000000000000e-01) (3, 5, 5.00000000000000000000e-01) (3, 5, 5.00000000000000000000e-01) (3, 5, 5.00000000000000000000e-01) (3, 5, 5.00000000000000000000e-01) (3, 5, 5.00000000000000000000e-01) (3, 5, 5.00000000000000000000e-01) (3, 5, 5.00000000000000000000e-01) (3, 5, 5.00000000000000000000e-01) (0, 5, 0.00000000000000000000e+00) (10, 5, 5.00000000000000000000e-01) (10, 5, 5.00000000000000000000e-01) (10, 5, 5.00000000000000000000e-01) (0, 5, 0.00000000000000000000e+00) 
connections (connected_to_neuron, weight)=(0, -7.51638126373291015625e+00) (1, -3.19017562866210937500e+01) (2, 3.36819976568222045898e-01) (0, 8.99914836883544921875e+00) (1, 8.48312854766845703125e-01) (2, 1.15192985534667968750e+00) (0, -3.46494110107421875000e+02) (1, 1.35042028808593750000e+03) (2, 6.08241558074951171875e+00) (0, 1.72384309768676757812e+00) (1, -3.80853042602539062500e+01) (2, 1.89702540636062622070e-01) (0, 9.37328643798828125000e+01) (1, -1.01979632568359375000e+03) (2, 3.02658271789550781250e+00) (0, -4.34970617294311523438e+00) (1, -4.14797878265380859375e+00) (2, 2.96963930130004882812e-01) (0, 4.38482666015625000000e+00) (1, 3.37472572326660156250e+01) (2, 5.65988197922706604004e-03) (0, 3.06312704086303710938e+00) (1, 5.16691327095031738281e-01) (2, 3.38880270719528198242e-01) (0, 7.56557617187500000000e+01) (1, 3.89164047241210937500e+01) (2, -2.86070466041564941406e+00) (3, 3.18835163116455078125e+00) (4, -6.80545568466186523438e-01) (5, -2.22464561462402343750e+00) (6, -1.80063446044921875000e+02) (7, 1.51947689056396484375e+01) (8, -3.98177413940429687500e+01) (9, 3.11038947105407714844e+00) (10, -1.44550049304962158203e+00) (11, -1.23815670013427734375e+01) (12, -5.07294058799743652344e-01) (3, -3.96001362800598144531e+00) (4, -1.63873434066772460938e-01) (5, 7.85807561874389648438e+00) (6, 3.86514434814453125000e+02) (7, -2.10574531555175781250e+01) (8, -4.52816238403320312500e+01) (9, -8.09629058837890625000e+00) (10, 1.96682894229888916016e+00) (11, 2.12264728546142578125e+01) (12, -8.89448672533035278320e-02) (3, 2.36478805541992187500e+00) (4, -9.07720506191253662109e-01) (5, -3.82448887825012207031e+00) (6, -1.14048500061035156250e+02) (7, 5.77534866333007812500e+00) (8, 3.70707678794860839844e+00) (9, 2.58975434303283691406e+00) (10, -1.40756160020828247070e-01) (11, -7.30891132354736328125e+00) (12, -4.75763231515884399414e-01) 
