FANN_FLO_2.1
num_layers=3
learning_rate=0.700000
connection_rate=1.000000
network_type=0
learning_momentum=0.000000
training_algorithm=2
train_error_function=1
train_stop_function=0
cascade_output_change_fraction=0.010000
quickprop_decay=-0.000100
quickprop_mu=1.750000
rprop_increase_factor=1.200000
rprop_decrease_factor=0.500000
rprop_delta_min=0.000000
rprop_delta_max=50.000000
rprop_delta_zero=0.100000
cascade_output_stagnation_epochs=12
cascade_candidate_change_fraction=0.010000
cascade_candidate_stagnation_epochs=12
cascade_max_out_epochs=150
cascade_min_out_epochs=50
cascade_max_cand_epochs=150
cascade_min_cand_epochs=50
cascade_num_candidate_groups=2
bit_fail_limit=3.49999994039535522461e-01
cascade_candidate_limit=1.00000000000000000000e+03
cascade_weight_multiplier=4.00000005960464477539e-01
cascade_activation_functions_count=10
cascade_activation_functions=3 5 7 8 10 11 14 15 16 17 
cascade_activation_steepnesses_count=4
cascade_activation_steepnesses=2.50000000000000000000e-01 5.00000000000000000000e-01 7.50000000000000000000e-01 1.00000000000000000000e+00 
layer_sizes=3 10 4 
scale_included=0
neurons (num_inputs, activation_function, activation_steepness)=(0, 0, 0.00000000000000000000e+00) (0, 0, 0.00000000000000000000e+00) (0, 0, 0.00000000000000000000e+00) (3, 5, 5.00000000000000000000e-01) (3, 5, 5.00000000000000000000e-01) (3, 5, 5.00000000000000000000e-01) (3, 5, 5.00000000000000000000e-01) (3, 5, 5.00000000000000000000e-01) (3, 5, 5.00000000000000000000e-01) (3, 5, 5.00000000000000000000e-01) (3, 5, 5.00000000000000000000e-01) (3, 5, 5.00000000000000000000e-01) (0, 5, 0.00000000000000000000e+00) (10, 5, 5.00000000000000000000e-01) (10, 5, 5.00000000000000000000e-01) (10, 5, 5.00000000000000000000e-01) (0, 5, 0.00000000000000000000e+00) 
connections (connected_to_neuron, weight)=(0, 1.50000000000000000000e+03) (1, -1.50000000000000000000e+03) (2, 1.26417694091796875000e+01) (0, 1.39108627319335937500e+02) (1, -1.80354476928710937500e+02) (2, 8.10989499092102050781e-01) (0, 9.22864807128906250000e+02) (1, 1.27025610351562500000e+03) (2, 2.79214954376220703125e+00) (0, 2.25893902778625488281e+00) (1, 2.62792892456054687500e+01) (2, -2.72330075502395629883e-01) (0, 5.44220275878906250000e+01) (1, -2.13924865722656250000e+02) (2, 3.02424162626266479492e-01) (0, 4.68132019042968750000e+00) (1, 3.15367012023925781250e+01) (2, -1.74742147326469421387e-01) (0, -1.20755090332031250000e+03) (1, 1.50000000000000000000e+03) (2, -4.70620012283325195312e+00) (0, -7.61526565551757812500e+01) (1, -3.85915405273437500000e+02) (2, 1.79268956184387207031e-01) (0, 7.99339752197265625000e+01) (1, -1.18475646972656250000e+01) (2, 3.25325995683670043945e-01) (3, 2.03643646240234375000e+01) (4, -1.29053039550781250000e+02) (5, 8.10517787933349609375e+00) (6, 7.46443331241607666016e-01) (7, 6.56146621704101562500e+00) (8, 6.63674533367156982422e-01) (9, -2.88531169891357421875e+01) (10, 2.80832748413085937500e+01) (11, -1.78778133392333984375e+01) (12, 1.98851138353347778320e-01) (3, -4.76034164428710937500e+01) (4, -9.53812026977539062500e+01) (5, 2.17561111450195312500e+02) (6, -4.33010816574096679688e+00) (7, 1.38175749778747558594e+00) (8, -1.14455986022949218750e+00) (9, 7.14297180175781250000e+01) (10, 2.94313781738281250000e+02) (11, -1.21851745605468750000e+02) (12, 3.08094654083251953125e+01) (3, -9.45706176757812500000e+00) (4, 1.16567733764648437500e+02) (5, -4.93215293884277343750e+01) (6, 1.49930882453918457031e+00) (7, 2.57720565795898437500e+00) (8, 1.56532144546508789062e+00) (9, 7.82435941696166992188e+00) (10, -1.09292686462402343750e+02) (11, 6.17352638244628906250e+01) (12, -2.34115257859230041504e-01) 
