FANN_FLO_2.1
num_layers=3
learning_rate=0.700000
connection_rate=1.000000
network_type=0
learning_momentum=0.000000
training_algorithm=2
train_error_function=1
train_stop_function=0
cascade_output_change_fraction=0.010000
quickprop_decay=-0.000100
quickprop_mu=1.750000
rprop_increase_factor=1.200000
rprop_decrease_factor=0.500000
rprop_delta_min=0.000000
rprop_delta_max=50.000000
rprop_delta_zero=0.100000
cascade_output_stagnation_epochs=12
cascade_candidate_change_fraction=0.010000
cascade_candidate_stagnation_epochs=12
cascade_max_out_epochs=150
cascade_min_out_epochs=50
cascade_max_cand_epochs=150
cascade_min_cand_epochs=50
cascade_num_candidate_groups=2
bit_fail_limit=3.49999994039535522461e-01
cascade_candidate_limit=1.00000000000000000000e+03
cascade_weight_multiplier=4.00000005960464477539e-01
cascade_activation_functions_count=10
cascade_activation_functions=3 5 7 8 10 11 14 15 16 17 
cascade_activation_steepnesses_count=4
cascade_activation_steepnesses=2.50000000000000000000e-01 5.00000000000000000000e-01 7.50000000000000000000e-01 1.00000000000000000000e+00 
layer_sizes=5 10 3 
scale_included=0
neurons (num_inputs, activation_function, activation_steepness)=(0, 0, 0.00000000000000000000e+00) (0, 0, 0.00000000000000000000e+00) (0, 0, 0.00000000000000000000e+00) (0, 0, 0.00000000000000000000e+00) (0, 0, 0.00000000000000000000e+00) (5, 5, 5.00000000000000000000e-01) (5, 5, 5.00000000000000000000e-01) (5, 5, 5.00000000000000000000e-01) (5, 5, 5.00000000000000000000e-01) (5, 5, 5.00000000000000000000e-01) (5, 5, 5.00000000000000000000e-01) (5, 5, 5.00000000000000000000e-01) (5, 5, 5.00000000000000000000e-01) (5, 5, 5.00000000000000000000e-01) (0, 5, 0.00000000000000000000e+00) (10, 5, 5.00000000000000000000e-01) (10, 5, 5.00000000000000000000e-01) (0, 5, 0.00000000000000000000e+00) 
connections (connected_to_neuron, weight)=(0, 3.28039765357971191406e+00) (1, -1.66507797241210937500e+01) (2, 3.62629516601562500000e+02) (3, 9.59849395751953125000e+01) (4, 9.59299683570861816406e-01) (0, 6.33353210449218750000e+02) (1, -2.81801986694335937500e+00) (2, 2.61573974609375000000e+02) (3, 2.85952667236328125000e+02) (4, -1.69506263732910156250e+00) (0, -8.15257608890533447266e-01) (1, 4.96751976013183593750e+00) (2, -1.66014633178710937500e+01) (3, -7.39480972290039062500e+01) (4, -2.24383007735013961792e-02) (0, 8.36228251457214355469e-01) (1, -1.24276220798492431641e+00) (2, 1.33994064331054687500e+01) (3, 2.25583381652832031250e+01) (4, 1.53148427605628967285e-01) (0, 3.40648603439331054688e+00) (1, -1.68522663116455078125e+01) (2, 1.34581405639648437500e+02) (3, 9.52459564208984375000e+01) (4, 9.59814429283142089844e-01) (0, 8.26215028762817382812e-01) (1, -3.16222834587097167969e+00) (2, 2.60528392791748046875e+01) (3, 2.21849822998046875000e+01) (4, -5.55355176329612731934e-02) (0, 1.15210790634155273438e+01) (1, 6.90915451049804687500e+01) (2, -5.19101684570312500000e+02) (3, -8.18048477172851562500e+01) (4, 8.89329463243484497070e-02) (0, 7.45852649211883544922e-01) (1, 6.98092222213745117188e+00) (2, -5.08947086334228515625e+00) (3, -2.24358119964599609375e+01) (4, 4.07339679077267646790e-03) (0, 2.69207397460937500000e+02) (1, -4.64367008209228515625e+00) (2, 2.64911132812500000000e+02) (3, 1.88068832397460937500e+02) (4, -1.41699659824371337891e+00) (5, -3.10317707061767578125e+00) (6, -3.43790459632873535156e+00) (7, 5.47003448009490966797e-01) (8, -6.43688812255859375000e+01) (9, -1.55124747753143310547e+00) (10, -5.31468093395233154297e-02) (11, 1.47130870819091796875e+01) (12, 1.18485307693481445312e+00) (13, -2.67677545547485351562e+00) (14, -4.94551122188568115234e-01) (5, 1.08884115219116210938e+01) (6, 3.31222963333129882812e+00) (7, -2.43539142608642578125e+00) (8, 2.40777511596679687500e+01) (9, 4.66087198257446289062e+00) (10, 3.03594088554382324219e+00) (11, -1.24595594406127929688e+01) (12, -8.14357185363769531250e+00) (13, 3.79395270347595214844e+00) (14, 9.32972550392150878906e-01) 
