FANN_FLO_2.1
num_layers=3
learning_rate=0.700000
connection_rate=1.000000
network_type=0
learning_momentum=0.000000
training_algorithm=2
train_error_function=1
train_stop_function=0
cascade_output_change_fraction=0.010000
quickprop_decay=-0.000100
quickprop_mu=1.750000
rprop_increase_factor=1.200000
rprop_decrease_factor=0.500000
rprop_delta_min=0.000000
rprop_delta_max=50.000000
rprop_delta_zero=0.100000
cascade_output_stagnation_epochs=12
cascade_candidate_change_fraction=0.010000
cascade_candidate_stagnation_epochs=12
cascade_max_out_epochs=150
cascade_min_out_epochs=50
cascade_max_cand_epochs=150
cascade_min_cand_epochs=50
cascade_num_candidate_groups=2
bit_fail_limit=3.49999994039535522461e-01
cascade_candidate_limit=1.00000000000000000000e+03
cascade_weight_multiplier=4.00000005960464477539e-01
cascade_activation_functions_count=10
cascade_activation_functions=3 5 7 8 10 11 14 15 16 17 
cascade_activation_steepnesses_count=4
cascade_activation_steepnesses=2.50000000000000000000e-01 5.00000000000000000000e-01 7.50000000000000000000e-01 1.00000000000000000000e+00 
layer_sizes=5 10 3 
scale_included=0
neurons (num_inputs, activation_function, activation_steepness)=(0, 0, 0.00000000000000000000e+00) (0, 0, 0.00000000000000000000e+00) (0, 0, 0.00000000000000000000e+00) (0, 0, 0.00000000000000000000e+00) (0, 0, 0.00000000000000000000e+00) (5, 5, 5.00000000000000000000e-01) (5, 5, 5.00000000000000000000e-01) (5, 5, 5.00000000000000000000e-01) (5, 5, 5.00000000000000000000e-01) (5, 5, 5.00000000000000000000e-01) (5, 5, 5.00000000000000000000e-01) (5, 5, 5.00000000000000000000e-01) (5, 5, 5.00000000000000000000e-01) (5, 5, 5.00000000000000000000e-01) (0, 5, 0.00000000000000000000e+00) (10, 5, 5.00000000000000000000e-01) (10, 5, 5.00000000000000000000e-01) (0, 5, 0.00000000000000000000e+00) 
connections (connected_to_neuron, weight)=(0, -5.28097820281982421875e+00) (1, -1.51569986343383789062e+01) (2, 5.49565505981445312500e+00) (3, 5.96764898300170898438e+00) (4, 1.59005105495452880859e+00) (0, 4.55617904663085937500e+00) (1, 1.75051078796386718750e+01) (2, -4.55733394622802734375e+00) (3, -4.09724235534667968750e+00) (4, -7.91403293609619140625e-01) (0, -5.24023962020874023438e+00) (1, -1.51931200027465820312e+01) (2, 5.64285612106323242188e+00) (3, 6.01543378829956054688e+00) (4, 1.59070515632629394531e+00) (0, -4.68894004821777343750e+00) (1, -1.51430616378784179688e+01) (2, 5.51357364654541015625e+00) (3, 5.83536958694458007812e+00) (4, 1.61919355392456054688e+00) (0, -1.21509432792663574219e+00) (1, -2.30310702323913574219e+00) (2, 6.69838380813598632812e+00) (3, 3.57518315315246582031e-01) (4, -3.01972895860671997070e-01) (0, -8.81097674369812011719e-01) (1, -2.68771052360534667969e+00) (2, 6.33168649673461914062e+00) (3, 1.33616340160369873047e+00) (4, 1.36648699641227722168e-01) (0, -1.05003237724304199219e+00) (1, -1.89911150932312011719e+00) (2, 2.76865386962890625000e+00) (3, 2.35691571235656738281e+00) (4, 5.06173074245452880859e-01) (0, -1.05778515338897705078e+00) (1, -1.94166684150695800781e+00) (2, 1.30852580070495605469e+00) (3, 2.37493371963500976562e+00) (4, 5.03970921039581298828e-01) (0, -5.25989198684692382812e+00) (1, -1.52934579849243164062e+01) (2, 5.53637504577636718750e+00) (3, 5.74765443801879882812e+00) (4, 1.65360069274902343750e+00) (5, -3.32313804626464843750e+01) (6, 3.18075728416442871094e+00) (7, -3.31035346984863281250e+01) (8, -6.08281183242797851562e+00) (9, 3.35972532629966735840e-02) (10, -3.68655383586883544922e-01) (11, -3.03395092487335205078e-01) (12, -2.91385114192962646484e-01) (13, -3.31310272216796875000e+01) (14, -7.68429100513458251953e-01) (5, 3.37624130249023437500e+01) (6, -2.43746089935302734375e+00) (7, 3.38080291748046875000e+01) (8, 4.53640604019165039062e+00) (9, 2.47105002403259277344e-01) (10, 3.32776844501495361328e-01) (11, 7.54232883453369140625e-01) (12, 7.08026468753814697266e-01) (13, 3.35315284729003906250e+01) (14, 8.03851902484893798828e-01) 
