FANN_FLO_2.1
num_layers=3
learning_rate=0.700000
connection_rate=1.000000
network_type=0
learning_momentum=0.000000
training_algorithm=2
train_error_function=1
train_stop_function=0
cascade_output_change_fraction=0.010000
quickprop_decay=-0.000100
quickprop_mu=1.750000
rprop_increase_factor=1.200000
rprop_decrease_factor=0.500000
rprop_delta_min=0.000000
rprop_delta_max=50.000000
rprop_delta_zero=0.100000
cascade_output_stagnation_epochs=12
cascade_candidate_change_fraction=0.010000
cascade_candidate_stagnation_epochs=12
cascade_max_out_epochs=150
cascade_min_out_epochs=50
cascade_max_cand_epochs=150
cascade_min_cand_epochs=50
cascade_num_candidate_groups=2
bit_fail_limit=3.49999994039535522461e-01
cascade_candidate_limit=1.00000000000000000000e+03
cascade_weight_multiplier=4.00000005960464477539e-01
cascade_activation_functions_count=10
cascade_activation_functions=3 5 7 8 10 11 14 15 16 17 
cascade_activation_steepnesses_count=4
cascade_activation_steepnesses=2.50000000000000000000e-01 5.00000000000000000000e-01 7.50000000000000000000e-01 1.00000000000000000000e+00 
layer_sizes=3 10 4 
scale_included=0
neurons (num_inputs, activation_function, activation_steepness)=(0, 0, 0.00000000000000000000e+00) (0, 0, 0.00000000000000000000e+00) (0, 0, 0.00000000000000000000e+00) (3, 5, 5.00000000000000000000e-01) (3, 5, 5.00000000000000000000e-01) (3, 5, 5.00000000000000000000e-01) (3, 5, 5.00000000000000000000e-01) (3, 5, 5.00000000000000000000e-01) (3, 5, 5.00000000000000000000e-01) (3, 5, 5.00000000000000000000e-01) (3, 5, 5.00000000000000000000e-01) (3, 5, 5.00000000000000000000e-01) (0, 5, 0.00000000000000000000e+00) (10, 5, 5.00000000000000000000e-01) (10, 5, 5.00000000000000000000e-01) (10, 5, 5.00000000000000000000e-01) (0, 5, 0.00000000000000000000e+00) 
connections (connected_to_neuron, weight)=(0, 1.34541961669921875000e+02) (1, 1.19470495605468750000e+03) (2, 5.31225740909576416016e-01) (0, -3.78862037658691406250e+01) (1, -1.50000000000000000000e+03) (2, 6.42558693885803222656e-01) (0, 2.81836242675781250000e+01) (1, 4.42393280029296875000e+02) (2, 2.72707730531692504883e-01) (0, 2.13352035522460937500e+02) (1, -1.50000000000000000000e+03) (2, 1.97586834430694580078e+00) (0, 7.66677246093750000000e+02) (1, 1.50000000000000000000e+03) (2, 3.73015016317367553711e-01) (0, 7.93825195312500000000e+02) (1, 1.50000000000000000000e+03) (2, 3.77164602279663085938e+00) (0, -4.59600769042968750000e+02) (1, 1.50000000000000000000e+03) (2, 8.03165286779403686523e-02) (0, -3.18678450584411621094e+00) (1, -1.50000000000000000000e+03) (2, -2.09891676902770996094e-01) (0, -7.66544418334960937500e+01) (1, -1.49382409667968750000e+03) (2, -1.83242067694664001465e-01) (3, 1.42511339187622070312e+01) (4, 7.11181335449218750000e+01) (5, 1.35939926147460937500e+02) (6, 2.53658905029296875000e+01) (7, 1.26913391113281250000e+02) (8, -5.04659576416015625000e+01) (9, 7.16303710937500000000e+01) (10, -4.33899164199829101562e+00) (11, -3.64475326538085937500e+01) (12, -8.30823719501495361328e-01) (3, -1.50000000000000000000e+03) (4, 3.92029663085937500000e+02) (5, -1.46660412597656250000e+03) (6, 2.92004516601562500000e+02) (7, 1.44581750488281250000e+03) (8, -3.88328781127929687500e+01) (9, 5.10641723632812500000e+02) (10, 1.49997668457031250000e+03) (11, 1.50000000000000000000e+03) (12, 7.61902526855468750000e+02) (3, -7.66339480876922607422e-01) (4, -2.15316543579101562500e+01) (5, -2.84188098907470703125e+01) (6, -3.47999191284179687500e+01) (7, -1.06007286071777343750e+02) (8, 3.74658279418945312500e+01) (9, -9.66090545654296875000e+01) (10, 3.50804589688777923584e-02) (11, -3.23759498596191406250e+01) (12, 4.95412610471248626709e-02) 
