FANN_FLO_2.1
num_layers=3
learning_rate=0.700000
connection_rate=1.000000
network_type=0
learning_momentum=0.000000
training_algorithm=2
train_error_function=1
train_stop_function=0
cascade_output_change_fraction=0.010000
quickprop_decay=-0.000100
quickprop_mu=1.750000
rprop_increase_factor=1.200000
rprop_decrease_factor=0.500000
rprop_delta_min=0.000000
rprop_delta_max=50.000000
rprop_delta_zero=0.100000
cascade_output_stagnation_epochs=12
cascade_candidate_change_fraction=0.010000
cascade_candidate_stagnation_epochs=12
cascade_max_out_epochs=150
cascade_min_out_epochs=50
cascade_max_cand_epochs=150
cascade_min_cand_epochs=50
cascade_num_candidate_groups=2
bit_fail_limit=3.49999994039535522461e-01
cascade_candidate_limit=1.00000000000000000000e+03
cascade_weight_multiplier=4.00000005960464477539e-01
cascade_activation_functions_count=10
cascade_activation_functions=3 5 7 8 10 11 14 15 16 17 
cascade_activation_steepnesses_count=4
cascade_activation_steepnesses=2.50000000000000000000e-01 5.00000000000000000000e-01 7.50000000000000000000e-01 1.00000000000000000000e+00 
layer_sizes=3 10 4 
scale_included=0
neurons (num_inputs, activation_function, activation_steepness)=(0, 0, 0.00000000000000000000e+00) (0, 0, 0.00000000000000000000e+00) (0, 0, 0.00000000000000000000e+00) (3, 5, 5.00000000000000000000e-01) (3, 5, 5.00000000000000000000e-01) (3, 5, 5.00000000000000000000e-01) (3, 5, 5.00000000000000000000e-01) (3, 5, 5.00000000000000000000e-01) (3, 5, 5.00000000000000000000e-01) (3, 5, 5.00000000000000000000e-01) (3, 5, 5.00000000000000000000e-01) (3, 5, 5.00000000000000000000e-01) (0, 5, 0.00000000000000000000e+00) (10, 5, 5.00000000000000000000e-01) (10, 5, 5.00000000000000000000e-01) (10, 5, 5.00000000000000000000e-01) (0, 5, 0.00000000000000000000e+00) 
connections (connected_to_neuron, weight)=(0, 3.22888612747192382812e+00) (1, -6.13814086914062500000e+01) (2, 3.05874735116958618164e-01) (0, -5.33072590827941894531e-01) (1, 4.15894622802734375000e+01) (2, -4.84424591064453125000e-01) (0, -2.41565971374511718750e+01) (1, -2.63108581542968750000e+02) (2, 2.09152173995971679688e+00) (0, 3.75623626708984375000e+02) (1, 1.50000000000000000000e+03) (2, -1.77879905700683593750e+01) (0, -7.12618947029113769531e-01) (1, -2.97524547576904296875e+01) (2, 2.72368192672729492188e-01) (0, -2.78881144523620605469e+00) (1, -3.16634445190429687500e+01) (2, 2.52199649810791015625e-01) (0, -1.89268249511718750000e+02) (1, 8.66213378906250000000e+01) (2, 5.99923515319824218750e+00) (0, 9.41325473785400390625e+00) (1, 2.00837850570678710938e+00) (2, 9.26934540271759033203e-01) (0, 3.47821384668350219727e-01) (1, 1.15808544158935546875e+01) (2, -4.56307142972946166992e-01) (3, 3.23232994079589843750e+01) (4, 6.06027126312255859375e-01) (5, -1.68421955108642578125e+01) (6, 5.74796009063720703125e+00) (7, 1.77125320434570312500e+01) (8, 2.90226593017578125000e+01) (9, 1.50499601364135742188e+01) (10, -1.41437873244285583496e-02) (11, 9.06033873558044433594e-01) (12, 2.10840199142694473267e-02) (3, 2.71995849609375000000e+01) (4, 1.71536111831665039062e+00) (5, 2.46195793151855468750e+01) (6, 5.21656334400177001953e-01) (7, -1.68059860229492187500e+02) (8, -8.05207252502441406250e+00) (9, -1.36582336425781250000e+01) (10, -3.96350890398025512695e-01) (11, 1.39588344097137451172e+00) (12, -3.35269987583160400391e-01) (3, -4.15452690124511718750e+01) (4, 1.19325184822082519531e+00) (5, -8.57977485656738281250e+00) (6, -7.18427610397338867188e+00) (7, 3.57411270141601562500e+01) (8, 6.04245567321777343750e+01) (9, -8.79529762268066406250e+00) (10, -4.27131175994873046875e-01) (11, 1.18998014926910400391e+00) (12, -3.40267747640609741211e-01) 
