FANN_FLO_2.1
num_layers=3
learning_rate=0.700000
connection_rate=1.000000
network_type=0
learning_momentum=0.000000
training_algorithm=2
train_error_function=1
train_stop_function=0
cascade_output_change_fraction=0.010000
quickprop_decay=-0.000100
quickprop_mu=1.750000
rprop_increase_factor=1.200000
rprop_decrease_factor=0.500000
rprop_delta_min=0.000000
rprop_delta_max=50.000000
rprop_delta_zero=0.100000
cascade_output_stagnation_epochs=12
cascade_candidate_change_fraction=0.010000
cascade_candidate_stagnation_epochs=12
cascade_max_out_epochs=150
cascade_min_out_epochs=50
cascade_max_cand_epochs=150
cascade_min_cand_epochs=50
cascade_num_candidate_groups=2
bit_fail_limit=3.49999994039535522461e-01
cascade_candidate_limit=1.00000000000000000000e+03
cascade_weight_multiplier=4.00000005960464477539e-01
cascade_activation_functions_count=10
cascade_activation_functions=3 5 7 8 10 11 14 15 16 17 
cascade_activation_steepnesses_count=4
cascade_activation_steepnesses=2.50000000000000000000e-01 5.00000000000000000000e-01 7.50000000000000000000e-01 1.00000000000000000000e+00 
layer_sizes=2 10 4 
scale_included=0
neurons (num_inputs, activation_function, activation_steepness)=(0, 0, 0.00000000000000000000e+00) (0, 0, 0.00000000000000000000e+00) (2, 5, 5.00000000000000000000e-01) (2, 5, 5.00000000000000000000e-01) (2, 5, 5.00000000000000000000e-01) (2, 5, 5.00000000000000000000e-01) (2, 5, 5.00000000000000000000e-01) (2, 5, 5.00000000000000000000e-01) (2, 5, 5.00000000000000000000e-01) (2, 5, 5.00000000000000000000e-01) (2, 5, 5.00000000000000000000e-01) (0, 5, 0.00000000000000000000e+00) (10, 5, 5.00000000000000000000e-01) (10, 5, 5.00000000000000000000e-01) (10, 5, 5.00000000000000000000e-01) (0, 5, 0.00000000000000000000e+00) 
connections (connected_to_neuron, weight)=(0, 1.45281898975372314453e+00) (1, -6.79189860820770263672e-02) (0, 1.78476943969726562500e+01) (1, 7.45736360549926757812e+00) (0, -1.43284186720848083496e-01) (1, -1.49842236328125000000e+03) (0, 3.29846096038818359375e+00) (1, -5.70741951465606689453e-01) (0, -1.90844464302062988281e+00) (1, -5.46197533607482910156e-01) (0, 1.09660701751708984375e+01) (1, 2.59088444709777832031e+00) (0, 3.36056442260742187500e+01) (1, -1.85056648254394531250e+01) (0, 4.05497703552246093750e+01) (1, 7.37681818008422851562e+00) (0, -1.95559370517730712891e+00) (1, -6.04806482791900634766e-01) (2, 4.19664621353149414062e-01) (3, -8.59560680389404296875e+00) (4, 3.68101882934570312500e+00) (5, -5.29892817139625549316e-02) (6, -2.72873954772949218750e+01) (7, 1.38451614379882812500e+01) (8, -2.59131431579589843750e+00) (9, -1.65968914031982421875e+01) (10, 7.65936565399169921875e+00) (11, -3.33154082298278808594e+00) (2, -1.81447982788085937500e+00) (3, 9.64980065822601318359e-01) (4, 8.35150241851806640625e+00) (5, 1.71059684753417968750e+01) (6, 5.70299148559570312500e+00) (7, 1.14847583770751953125e+01) (8, -8.78740024566650390625e+00) (9, -2.07924914360046386719e+00) (10, -4.79766488075256347656e-01) (11, -8.94646930694580078125e+00) (2, -1.16500787734985351562e+01) (3, 9.69909381866455078125e+00) (4, -3.88747453689575195312e-01) (5, 3.10464906692504882812e+00) (6, 2.65178413391113281250e+01) (7, -1.41997871398925781250e+01) (8, 9.35600662231445312500e+00) (9, 1.39098911285400390625e+01) (10, -6.35356092453002929688e+00) (11, 9.04230403900146484375e+00) 
