FANN_FLO_2.1
num_layers=3
learning_rate=0.700000
connection_rate=1.000000
network_type=0
learning_momentum=0.000000
training_algorithm=2
train_error_function=1
train_stop_function=0
cascade_output_change_fraction=0.010000
quickprop_decay=-0.000100
quickprop_mu=1.750000
rprop_increase_factor=1.200000
rprop_decrease_factor=0.500000
rprop_delta_min=0.000000
rprop_delta_max=50.000000
rprop_delta_zero=0.100000
cascade_output_stagnation_epochs=12
cascade_candidate_change_fraction=0.010000
cascade_candidate_stagnation_epochs=12
cascade_max_out_epochs=150
cascade_min_out_epochs=50
cascade_max_cand_epochs=150
cascade_min_cand_epochs=50
cascade_num_candidate_groups=2
bit_fail_limit=3.49999994039535522461e-01
cascade_candidate_limit=1.00000000000000000000e+03
cascade_weight_multiplier=4.00000005960464477539e-01
cascade_activation_functions_count=10
cascade_activation_functions=3 5 7 8 10 11 14 15 16 17 
cascade_activation_steepnesses_count=4
cascade_activation_steepnesses=2.50000000000000000000e-01 5.00000000000000000000e-01 7.50000000000000000000e-01 1.00000000000000000000e+00 
layer_sizes=2 10 4 
scale_included=0
neurons (num_inputs, activation_function, activation_steepness)=(0, 0, 0.00000000000000000000e+00) (0, 0, 0.00000000000000000000e+00) (2, 5, 5.00000000000000000000e-01) (2, 5, 5.00000000000000000000e-01) (2, 5, 5.00000000000000000000e-01) (2, 5, 5.00000000000000000000e-01) (2, 5, 5.00000000000000000000e-01) (2, 5, 5.00000000000000000000e-01) (2, 5, 5.00000000000000000000e-01) (2, 5, 5.00000000000000000000e-01) (2, 5, 5.00000000000000000000e-01) (0, 5, 0.00000000000000000000e+00) (10, 5, 5.00000000000000000000e-01) (10, 5, 5.00000000000000000000e-01) (10, 5, 5.00000000000000000000e-01) (0, 5, 0.00000000000000000000e+00) 
connections (connected_to_neuron, weight)=(0, -2.43045043945312500000e+01) (1, 1.07777023315429687500e+00) (0, 4.86973686218261718750e+01) (1, -2.35996031761169433594e+00) (0, 5.21864738464355468750e+01) (1, -2.46506571769714355469e+00) (0, 3.12934875488281250000e+00) (1, 2.46161147952079772949e-02) (0, 8.36457633972167968750e+00) (1, 5.23345530033111572266e-01) (0, 3.12802076339721679688e+00) (1, 2.18224748969078063965e-02) (0, -2.14412746429443359375e+01) (1, 7.95503735542297363281e-01) (0, 2.16922312974929809570e-01) (1, -1.79388844966888427734e+00) (0, -2.44315357208251953125e+01) (1, 1.05696010589599609375e+00) (2, -2.01927018165588378906e+00) (3, 4.51214456558227539062e+00) (4, 4.58380365371704101562e+00) (5, -1.16009588241577148438e+01) (6, -3.61255455017089843750e+01) (7, -1.15723123550415039062e+01) (8, -2.05841803550720214844e+00) (9, 1.29522724151611328125e+01) (10, -2.04555916786193847656e+00) (11, -9.60578823089599609375e+00) (2, 1.40875808715820312500e+02) (3, 6.05539794921875000000e+02) (4, 3.65768096923828125000e+02) (5, 1.43237716674804687500e+02) (6, 1.43519180297851562500e+02) (7, 1.43244018554687500000e+02) (8, 3.22604064941406250000e+02) (9, 6.66770629882812500000e+01) (10, 1.40866622924804687500e+02) (11, 5.91485252380371093750e+01) (2, 3.88165640830993652344e+00) (3, -2.40136957168579101562e+00) (4, -2.44723892211914062500e+00) (5, 3.85057854652404785156e+00) (6, 9.33058261871337890625e+00) (7, 5.93238067626953125000e+00) (8, 3.72590208053588867188e+00) (9, 1.55862545967102050781e+00) (10, 3.84985685348510742188e+00) (11, -3.09066987037658691406e+00) 
