FANN_FLO_2.1
num_layers=3
learning_rate=0.700000
connection_rate=1.000000
network_type=0
learning_momentum=0.000000
training_algorithm=2
train_error_function=1
train_stop_function=0
cascade_output_change_fraction=0.010000
quickprop_decay=-0.000100
quickprop_mu=1.750000
rprop_increase_factor=1.200000
rprop_decrease_factor=0.500000
rprop_delta_min=0.000000
rprop_delta_max=50.000000
rprop_delta_zero=0.100000
cascade_output_stagnation_epochs=12
cascade_candidate_change_fraction=0.010000
cascade_candidate_stagnation_epochs=12
cascade_max_out_epochs=150
cascade_min_out_epochs=50
cascade_max_cand_epochs=150
cascade_min_cand_epochs=50
cascade_num_candidate_groups=2
bit_fail_limit=3.49999994039535522461e-01
cascade_candidate_limit=1.00000000000000000000e+03
cascade_weight_multiplier=4.00000005960464477539e-01
cascade_activation_functions_count=10
cascade_activation_functions=3 5 7 8 10 11 14 15 16 17 
cascade_activation_steepnesses_count=4
cascade_activation_steepnesses=2.50000000000000000000e-01 5.00000000000000000000e-01 7.50000000000000000000e-01 1.00000000000000000000e+00 
layer_sizes=2 10 4 
scale_included=0
neurons (num_inputs, activation_function, activation_steepness)=(0, 0, 0.00000000000000000000e+00) (0, 0, 0.00000000000000000000e+00) (2, 5, 5.00000000000000000000e-01) (2, 5, 5.00000000000000000000e-01) (2, 5, 5.00000000000000000000e-01) (2, 5, 5.00000000000000000000e-01) (2, 5, 5.00000000000000000000e-01) (2, 5, 5.00000000000000000000e-01) (2, 5, 5.00000000000000000000e-01) (2, 5, 5.00000000000000000000e-01) (2, 5, 5.00000000000000000000e-01) (0, 5, 0.00000000000000000000e+00) (10, 5, 5.00000000000000000000e-01) (10, 5, 5.00000000000000000000e-01) (10, 5, 5.00000000000000000000e-01) (0, 5, 0.00000000000000000000e+00) 
connections (connected_to_neuron, weight)=(0, 2.32231464385986328125e+01) (1, -3.72993922233581542969e+00) (0, 3.12076359987258911133e-01) (1, -5.30754327774047851562e+00) (0, 4.95958536863327026367e-01) (1, -2.38486185669898986816e-01) (0, 1.82484416961669921875e+01) (1, -2.81107544898986816406e+00) (0, 1.08137679100036621094e+00) (1, 2.33345612883567810059e-01) (0, 8.27898788452148437500e+00) (1, 3.58593440055847167969e+00) (0, 7.69772291183471679688e-01) (1, -4.87369567155838012695e-01) (0, -3.78142952919006347656e-01) (1, -2.50494694709777832031e+00) (0, 5.25136280059814453125e+00) (1, 2.43997931480407714844e+00) (2, -9.96459126472473144531e-02) (3, 9.10723488777875900269e-03) (4, -1.49779284000396728516e+00) (5, -8.44584107398986816406e-02) (6, -1.45878715515136718750e+01) (7, -6.71164855957031250000e+01) (8, -5.63444554805755615234e-01) (9, 6.86747550964355468750e+00) (10, -2.74934458732604980469e+00) (11, -9.85789299011230468750e-01) (2, 4.55506927490234375000e+02) (3, 3.85680046081542968750e+01) (4, 9.16239395141601562500e+01) (5, 4.55510009765625000000e+02) (6, 2.84886884689331054688e+00) (7, 1.62722377777099609375e+01) (8, 3.83347892761230468750e+01) (9, 9.36693115234375000000e+01) (10, 3.88513450622558593750e+01) (11, 8.71348953247070312500e+01) (2, -4.92895078659057617188e+00) (3, 2.87232303619384765625e+00) (4, 8.84718358516693115234e-01) (5, -4.92755556106567382812e+00) (6, 7.64705687761306762695e-02) (7, 1.08568954467773437500e+01) (8, 1.32747137546539306641e+00) (9, 2.61771297454833984375e+00) (10, 2.27574133872985839844e+00) (11, -4.35299682617187500000e+00) 
