FANN_FLO_2.1
num_layers=3
learning_rate=0.700000
connection_rate=1.000000
network_type=0
learning_momentum=0.000000
training_algorithm=2
train_error_function=1
train_stop_function=0
cascade_output_change_fraction=0.010000
quickprop_decay=-0.000100
quickprop_mu=1.750000
rprop_increase_factor=1.200000
rprop_decrease_factor=0.500000
rprop_delta_min=0.000000
rprop_delta_max=50.000000
rprop_delta_zero=0.100000
cascade_output_stagnation_epochs=12
cascade_candidate_change_fraction=0.010000
cascade_candidate_stagnation_epochs=12
cascade_max_out_epochs=150
cascade_min_out_epochs=50
cascade_max_cand_epochs=150
cascade_min_cand_epochs=50
cascade_num_candidate_groups=2
bit_fail_limit=3.49999994039535522461e-01
cascade_candidate_limit=1.00000000000000000000e+03
cascade_weight_multiplier=4.00000005960464477539e-01
cascade_activation_functions_count=10
cascade_activation_functions=3 5 7 8 10 11 14 15 16 17 
cascade_activation_steepnesses_count=4
cascade_activation_steepnesses=2.50000000000000000000e-01 5.00000000000000000000e-01 7.50000000000000000000e-01 1.00000000000000000000e+00 
layer_sizes=4 10 6 
scale_included=0
neurons (num_inputs, activation_function, activation_steepness)=(0, 0, 0.00000000000000000000e+00) (0, 0, 0.00000000000000000000e+00) (0, 0, 0.00000000000000000000e+00) (0, 0, 0.00000000000000000000e+00) (4, 5, 5.00000000000000000000e-01) (4, 5, 5.00000000000000000000e-01) (4, 5, 5.00000000000000000000e-01) (4, 5, 5.00000000000000000000e-01) (4, 5, 5.00000000000000000000e-01) (4, 5, 5.00000000000000000000e-01) (4, 5, 5.00000000000000000000e-01) (4, 5, 5.00000000000000000000e-01) (4, 5, 5.00000000000000000000e-01) (0, 5, 0.00000000000000000000e+00) (10, 5, 5.00000000000000000000e-01) (10, 5, 5.00000000000000000000e-01) (10, 5, 5.00000000000000000000e-01) (10, 5, 5.00000000000000000000e-01) (10, 5, 5.00000000000000000000e-01) (0, 5, 0.00000000000000000000e+00) 
connections (connected_to_neuron, weight)=(0, -8.82854309082031250000e+02) (1, -1.55389881134033203125e+01) (2, -9.98713523149490356445e-02) (3, 2.58722752332687377930e-01) (0, -5.15569458007812500000e+02) (1, 6.14089889526367187500e+01) (2, 2.15885058045387268066e-01) (3, 4.44639921188354492188e-01) (0, -1.50000000000000000000e+03) (1, -1.49880627441406250000e+03) (2, 7.23779916763305664062e+00) (3, -1.84103131294250488281e+00) (0, 5.48093490600585937500e+01) (1, -3.12175933837890625000e+02) (2, -8.56895327568054199219e-01) (3, -5.84362506866455078125e-01) (0, -2.48182876586914062500e+02) (1, 7.63663711547851562500e+01) (2, 4.23852950334548950195e-01) (3, 2.90611535310745239258e-01) (0, -1.50000000000000000000e+03) (1, 1.17157153320312500000e+03) (2, -1.67606353759765625000e+01) (3, 5.17114925384521484375e+00) (0, 7.08056793212890625000e+01) (1, 3.18440494537353515625e+01) (2, -7.88669645786285400391e-01) (3, 4.15227562189102172852e-01) (0, 4.27178924560546875000e+02) (1, -1.19336524963378906250e+02) (2, 4.62119877338409423828e-01) (3, -6.18740208446979522705e-02) (0, 1.43664978027343750000e+03) (1, -1.50000000000000000000e+03) (2, -2.66563963890075683594e+00) (3, 3.08440637588500976562e+00) (4, -1.33721038818359375000e+02) (5, -4.44122171401977539062e+00) (6, -1.02406692504882812500e+01) (7, -2.89062231779098510742e-01) (8, 4.00807189941406250000e+01) (9, -7.99509277343750000000e+01) (10, 1.23306350708007812500e+02) (11, -1.10782318115234375000e+02) (12, 6.58807601928710937500e+01) (13, 1.76784485578536987305e-01) (4, 5.84702644348144531250e+01) (5, 1.20442409515380859375e+01) (6, -4.68646087646484375000e+01) (7, 5.61571540832519531250e+01) (8, -2.05825543403625488281e+00) (9, 2.98178997039794921875e+01) (10, -3.71073516845703125000e+02) (11, -7.14787673950195312500e+01) (12, 5.36233367919921875000e+01) (13, -2.05014362335205078125e+01) (4, 7.94892425537109375000e+01) (5, 1.50935455322265625000e+02) (6, 1.49980322265625000000e+03) (7, 7.32176635742187500000e+02) (8, 3.63123130798339843750e+01) (9, 1.28432922363281250000e+03) (10, 1.13947583007812500000e+03) (11, 1.14147148132324218750e+01) (12, -5.81260131835937500000e+02) (13, -7.13205642700195312500e+01) (4, -1.20215202331542968750e+02) (5, -6.13791942596435546875e-01) (6, 3.41419601440429687500e+01) (7, 9.95861434936523437500e+01) (8, -5.54260673522949218750e+01) (9, 1.84657649993896484375e+01) (10, -1.17671411132812500000e+03) (11, 1.20603057861328125000e+02) (12, 3.55728912353515625000e+01) (13, -2.54916954040527343750e+00) (4, 1.84716629981994628906e+00) (5, -6.38962686061859130859e-01) (6, 1.11346645355224609375e+01) (7, 2.22388195991516113281e+00) (8, -3.67109603881835937500e+01) (9, -1.45530605316162109375e+01) (10, 1.56264053344726562500e+02) (11, 7.86629438400268554688e+00) (12, -1.88472003936767578125e+01) (13, -5.93198835849761962891e-01) 
