FANN_FLO_2.1
num_layers=3
learning_rate=0.700000
connection_rate=1.000000
network_type=0
learning_momentum=0.000000
training_algorithm=2
train_error_function=1
train_stop_function=0
cascade_output_change_fraction=0.010000
quickprop_decay=-0.000100
quickprop_mu=1.750000
rprop_increase_factor=1.200000
rprop_decrease_factor=0.500000
rprop_delta_min=0.000000
rprop_delta_max=50.000000
rprop_delta_zero=0.100000
cascade_output_stagnation_epochs=12
cascade_candidate_change_fraction=0.010000
cascade_candidate_stagnation_epochs=12
cascade_max_out_epochs=150
cascade_min_out_epochs=50
cascade_max_cand_epochs=150
cascade_min_cand_epochs=50
cascade_num_candidate_groups=2
bit_fail_limit=3.49999994039535522461e-01
cascade_candidate_limit=1.00000000000000000000e+03
cascade_weight_multiplier=4.00000005960464477539e-01
cascade_activation_functions_count=10
cascade_activation_functions=3 5 7 8 10 11 14 15 16 17 
cascade_activation_steepnesses_count=4
cascade_activation_steepnesses=2.50000000000000000000e-01 5.00000000000000000000e-01 7.50000000000000000000e-01 1.00000000000000000000e+00 
layer_sizes=3 10 3 
scale_included=0
neurons (num_inputs, activation_function, activation_steepness)=(0, 0, 0.00000000000000000000e+00) (0, 0, 0.00000000000000000000e+00) (0, 0, 0.00000000000000000000e+00) (3, 5, 5.00000000000000000000e-01) (3, 5, 5.00000000000000000000e-01) (3, 5, 5.00000000000000000000e-01) (3, 5, 5.00000000000000000000e-01) (3, 5, 5.00000000000000000000e-01) (3, 5, 5.00000000000000000000e-01) (3, 5, 5.00000000000000000000e-01) (3, 5, 5.00000000000000000000e-01) (3, 5, 5.00000000000000000000e-01) (0, 5, 0.00000000000000000000e+00) (10, 5, 5.00000000000000000000e-01) (10, 5, 5.00000000000000000000e-01) (0, 5, 0.00000000000000000000e+00) 
connections (connected_to_neuron, weight)=(0, 1.06032806396484375000e+02) (1, -2.52144289016723632812e+00) (2, 3.39687973260879516602e-01) (0, -7.04934234619140625000e+01) (1, 3.88268947601318359375e+00) (2, -8.80806148052215576172e-02) (0, -1.50000000000000000000e+03) (1, 2.84003936767578125000e+02) (2, -6.27097082138061523438e+00) (0, 2.60914123535156250000e+02) (1, 2.91232299804687500000e+01) (2, -9.38940793275833129883e-02) (0, -1.50000000000000000000e+03) (1, -2.44995193481445312500e+01) (2, 2.22794270515441894531e+00) (0, 2.39478042602539062500e+02) (1, 2.62538661956787109375e+01) (2, -1.01069130003452301025e-01) (0, -1.53857482910156250000e+02) (1, -1.66391315460205078125e+01) (2, 2.69942015409469604492e-01) (0, -2.09697433471679687500e+02) (1, -2.37273998260498046875e+01) (2, 5.38362324237823486328e-01) (0, -4.77385406494140625000e+01) (1, -2.52644705772399902344e+00) (2, 3.47717821598052978516e-01) (3, -4.77224540710449218750e+01) (4, 1.62495788574218750000e+02) (5, -1.91058464050292968750e+01) (6, 3.75013885498046875000e+01) (7, -6.73270702362060546875e+00) (8, 6.00732803344726562500e+00) (9, -5.35858392715454101562e-01) (10, -4.47744989395141601562e+00) (11, -3.63448381423950195312e-01) (12, -3.33836048841476440430e-01) (3, 2.50994987487792968750e+01) (4, -1.90913986206054687500e+02) (5, 1.89685058593750000000e+01) (6, -2.94700698852539062500e+01) (7, 7.28316068649291992188e+00) (8, -5.21106433868408203125e+00) (9, 7.02648639678955078125e+00) (10, 8.27371978759765625000e+00) (11, 1.21174228191375732422e+00) (12, 7.30102181434631347656e-01) 
