FANN_FLO_2.1
num_layers=3
learning_rate=0.700000
connection_rate=1.000000
network_type=0
learning_momentum=0.000000
training_algorithm=2
train_error_function=1
train_stop_function=0
cascade_output_change_fraction=0.010000
quickprop_decay=-0.000100
quickprop_mu=1.750000
rprop_increase_factor=1.200000
rprop_decrease_factor=0.500000
rprop_delta_min=0.000000
rprop_delta_max=50.000000
rprop_delta_zero=0.100000
cascade_output_stagnation_epochs=12
cascade_candidate_change_fraction=0.010000
cascade_candidate_stagnation_epochs=12
cascade_max_out_epochs=150
cascade_min_out_epochs=50
cascade_max_cand_epochs=150
cascade_min_cand_epochs=50
cascade_num_candidate_groups=2
bit_fail_limit=3.49999994039535522461e-01
cascade_candidate_limit=1.00000000000000000000e+03
cascade_weight_multiplier=4.00000005960464477539e-01
cascade_activation_functions_count=10
cascade_activation_functions=3 5 7 8 10 11 14 15 16 17 
cascade_activation_steepnesses_count=4
cascade_activation_steepnesses=2.50000000000000000000e-01 5.00000000000000000000e-01 7.50000000000000000000e-01 1.00000000000000000000e+00 
layer_sizes=5 10 3 
scale_included=0
neurons (num_inputs, activation_function, activation_steepness)=(0, 0, 0.00000000000000000000e+00) (0, 0, 0.00000000000000000000e+00) (0, 0, 0.00000000000000000000e+00) (0, 0, 0.00000000000000000000e+00) (0, 0, 0.00000000000000000000e+00) (5, 5, 5.00000000000000000000e-01) (5, 5, 5.00000000000000000000e-01) (5, 5, 5.00000000000000000000e-01) (5, 5, 5.00000000000000000000e-01) (5, 5, 5.00000000000000000000e-01) (5, 5, 5.00000000000000000000e-01) (5, 5, 5.00000000000000000000e-01) (5, 5, 5.00000000000000000000e-01) (5, 5, 5.00000000000000000000e-01) (0, 5, 0.00000000000000000000e+00) (10, 5, 5.00000000000000000000e-01) (10, 5, 5.00000000000000000000e-01) (0, 5, 0.00000000000000000000e+00) 
connections (connected_to_neuron, weight)=(0, 1.50000000000000000000e+03) (1, -1.22076261043548583984e+00) (2, 1.50000000000000000000e+03) (3, -1.49999853515625000000e+03) (4, 4.53291177749633789062e+00) (0, -1.50000000000000000000e+03) (1, -4.24527072906494140625e+00) (2, -5.04989868164062500000e+02) (3, 1.49999926757812500000e+03) (4, 1.42042274475097656250e+01) (0, -1.50000000000000000000e+03) (1, 1.50000000000000000000e+03) (2, -1.50000000000000000000e+03) (3, 1.50000000000000000000e+03) (4, 1.50000000000000000000e+03) (0, 1.50000000000000000000e+03) (1, -1.48167810058593750000e+03) (2, 1.50000000000000000000e+03) (3, -1.50000000000000000000e+03) (4, -1.50000000000000000000e+03) (0, 1.50000000000000000000e+03) (1, -1.25477397441864013672e+00) (2, 1.50000000000000000000e+03) (3, -1.49824963378906250000e+03) (4, 4.83555650711059570312e+00) (0, -1.50000000000000000000e+03) (1, 1.50000000000000000000e+03) (2, -1.50000000000000000000e+03) (3, 1.50000000000000000000e+03) (4, 1.50000000000000000000e+03) (0, 1.50000000000000000000e+03) (1, 2.23442440032958984375e+01) (2, 1.50000000000000000000e+03) (3, -1.49866064453125000000e+03) (4, -6.31225524902343750000e+02) (0, -2.24738998413085937500e+02) (1, -5.19245602190494537354e-02) (2, 7.60155761718750000000e+02) (3, -6.62270965576171875000e+01) (4, -2.64028620719909667969e+00) (0, -2.09591552734375000000e+02) (1, 3.53836566209793090820e-02) (2, 7.04027648925781250000e+02) (3, -1.50000000000000000000e+03) (4, -3.70059609413146972656e-01) (5, 1.91325318813323974609e+00) (6, -2.71639800071716308594e+00) (7, -3.63281679153442382812e+00) (8, 1.97495722770690917969e+00) (9, 1.52386820316314697266e+00) (10, -8.52975845336914062500e+00) (11, 9.46633148193359375000e+00) (12, -2.89278488159179687500e+01) (13, 3.13981914520263671875e+01) (14, -3.37043619155883789062e+00) (5, -2.05126166343688964844e+00) (6, 2.78546190261840820312e+00) (7, 5.13134622573852539062e+00) (8, -9.02280509471893310547e-01) (9, -1.46527016162872314453e+00) (10, 9.31571578979492187500e+00) (11, -9.73253822326660156250e+00) (12, 2.98859405517578125000e+01) (13, -3.24602317810058593750e+01) (14, 2.80345225334167480469e+00) 
