FANN_FLO_2.1
num_layers=3
learning_rate=0.700000
connection_rate=1.000000
network_type=0
learning_momentum=0.000000
training_algorithm=2
train_error_function=1
train_stop_function=0
cascade_output_change_fraction=0.010000
quickprop_decay=-0.000100
quickprop_mu=1.750000
rprop_increase_factor=1.200000
rprop_decrease_factor=0.500000
rprop_delta_min=0.000000
rprop_delta_max=50.000000
rprop_delta_zero=0.100000
cascade_output_stagnation_epochs=12
cascade_candidate_change_fraction=0.010000
cascade_candidate_stagnation_epochs=12
cascade_max_out_epochs=150
cascade_min_out_epochs=50
cascade_max_cand_epochs=150
cascade_min_cand_epochs=50
cascade_num_candidate_groups=2
bit_fail_limit=3.49999994039535522461e-01
cascade_candidate_limit=1.00000000000000000000e+03
cascade_weight_multiplier=4.00000005960464477539e-01
cascade_activation_functions_count=10
cascade_activation_functions=3 5 7 8 10 11 14 15 16 17 
cascade_activation_steepnesses_count=4
cascade_activation_steepnesses=2.50000000000000000000e-01 5.00000000000000000000e-01 7.50000000000000000000e-01 1.00000000000000000000e+00 
layer_sizes=3 10 4 
scale_included=0
neurons (num_inputs, activation_function, activation_steepness)=(0, 0, 0.00000000000000000000e+00) (0, 0, 0.00000000000000000000e+00) (0, 0, 0.00000000000000000000e+00) (3, 5, 5.00000000000000000000e-01) (3, 5, 5.00000000000000000000e-01) (3, 5, 5.00000000000000000000e-01) (3, 5, 5.00000000000000000000e-01) (3, 5, 5.00000000000000000000e-01) (3, 5, 5.00000000000000000000e-01) (3, 5, 5.00000000000000000000e-01) (3, 5, 5.00000000000000000000e-01) (3, 5, 5.00000000000000000000e-01) (0, 5, 0.00000000000000000000e+00) (10, 5, 5.00000000000000000000e-01) (10, 5, 5.00000000000000000000e-01) (10, 5, 5.00000000000000000000e-01) (0, 5, 0.00000000000000000000e+00) 
connections (connected_to_neuron, weight)=(0, 1.50000000000000000000e+03) (1, 3.99213134765625000000e+02) (2, 3.71992063522338867188e+00) (0, 2.34566974639892578125e+01) (1, 2.13645038604736328125e+01) (2, -9.30064737796783447266e-01) (0, 6.68048706054687500000e+01) (1, 1.50545257568359375000e+02) (2, -3.08680915832519531250e+00) (0, 2.19073605537414550781e+00) (1, -5.67855873107910156250e+01) (2, 6.07751071453094482422e-01) (0, -3.06762676239013671875e+01) (1, -4.52119560241699218750e+01) (2, -2.86203831434249877930e-01) (0, -1.72717056274414062500e+02) (1, -3.87799224853515625000e+01) (2, -3.77853006124496459961e-01) (0, -1.49999975585937500000e+03) (1, -4.18476867675781250000e+02) (2, -3.58283209800720214844e+00) (0, -7.90735292434692382812e+00) (1, 1.66046051025390625000e+02) (2, 7.56182610988616943359e-01) (0, 6.23226356506347656250e+00) (1, -1.69500976562500000000e+02) (2, -6.79534494876861572266e-01) (3, 2.15255985260009765625e+01) (4, 2.10310888290405273438e+00) (5, 2.40465116500854492188e+00) (6, -6.03098297119140625000e+01) (7, -2.85627746582031250000e+02) (8, -1.49570654296875000000e+03) (9, 2.55219244956970214844e+00) (10, 1.84887985229492187500e+02) (11, 2.00884127616882324219e+00) (12, 5.67903785705566406250e+01) (3, -2.18487148284912109375e+01) (4, 5.74196290969848632812e+00) (5, 3.12216687202453613281e+00) (6, -1.68657054901123046875e+01) (7, 1.37672147750854492188e+01) (8, -3.05242553710937500000e+02) (9, 5.53566055297851562500e+01) (10, -1.39946079254150390625e+00) (11, 9.32594776153564453125e-01) (12, -5.58631658554077148438e-01) (3, 4.95944366455078125000e+02) (4, 4.69930969238281250000e+02) (5, 1.99174789428710937500e+02) (6, 2.15797470092773437500e+02) (7, 1.49999743652343750000e+03) (8, 1.50000000000000000000e+03) (9, 1.77298873901367187500e+02) (10, 1.10977893066406250000e+03) (11, 6.17804626464843750000e+02) (12, 2.64117126464843750000e+02) 
