FANN_FLO_2.1
num_layers=3
learning_rate=0.700000
connection_rate=1.000000
network_type=0
learning_momentum=0.000000
training_algorithm=2
train_error_function=1
train_stop_function=0
cascade_output_change_fraction=0.010000
quickprop_decay=-0.000100
quickprop_mu=1.750000
rprop_increase_factor=1.200000
rprop_decrease_factor=0.500000
rprop_delta_min=0.000000
rprop_delta_max=50.000000
rprop_delta_zero=0.100000
cascade_output_stagnation_epochs=12
cascade_candidate_change_fraction=0.010000
cascade_candidate_stagnation_epochs=12
cascade_max_out_epochs=150
cascade_min_out_epochs=50
cascade_max_cand_epochs=150
cascade_min_cand_epochs=50
cascade_num_candidate_groups=2
bit_fail_limit=3.49999994039535522461e-01
cascade_candidate_limit=1.00000000000000000000e+03
cascade_weight_multiplier=4.00000005960464477539e-01
cascade_activation_functions_count=10
cascade_activation_functions=3 5 7 8 10 11 14 15 16 17 
cascade_activation_steepnesses_count=4
cascade_activation_steepnesses=2.50000000000000000000e-01 5.00000000000000000000e-01 7.50000000000000000000e-01 1.00000000000000000000e+00 
layer_sizes=3 10 4 
scale_included=0
neurons (num_inputs, activation_function, activation_steepness)=(0, 0, 0.00000000000000000000e+00) (0, 0, 0.00000000000000000000e+00) (0, 0, 0.00000000000000000000e+00) (3, 5, 5.00000000000000000000e-01) (3, 5, 5.00000000000000000000e-01) (3, 5, 5.00000000000000000000e-01) (3, 5, 5.00000000000000000000e-01) (3, 5, 5.00000000000000000000e-01) (3, 5, 5.00000000000000000000e-01) (3, 5, 5.00000000000000000000e-01) (3, 5, 5.00000000000000000000e-01) (3, 5, 5.00000000000000000000e-01) (0, 5, 0.00000000000000000000e+00) (10, 5, 5.00000000000000000000e-01) (10, 5, 5.00000000000000000000e-01) (10, 5, 5.00000000000000000000e-01) (0, 5, 0.00000000000000000000e+00) 
connections (connected_to_neuron, weight)=(0, 1.21986877441406250000e+03) (1, 1.13699779510498046875e+01) (2, -3.83866167068481445312e+00) (0, 9.76455783843994140625e+00) (1, -3.60730379819869995117e-01) (2, -7.23718404769897460938e-01) (0, -2.56839294433593750000e+02) (1, -2.14856457710266113281e+00) (2, -2.80021756887435913086e-01) (0, -1.50000000000000000000e+03) (1, 1.69830107688903808594e+00) (2, -4.76519966125488281250e+00) (0, 1.04299308776855468750e+02) (1, 4.59516983032226562500e+01) (2, -2.59293270111083984375e+01) (0, 3.82889366149902343750e+01) (1, -3.01397085189819335938e-01) (2, -8.99438142776489257812e-01) (0, 2.13408065795898437500e+02) (1, -5.18691420555114746094e-01) (2, 7.27573931217193603516e-01) (0, 1.38427551269531250000e+02) (1, -2.78161334991455078125e+01) (2, 2.08201885223388671875e+01) (0, 4.53024215698242187500e+01) (1, -5.87391197681427001953e-01) (2, -3.80842953920364379883e-01) (3, 3.68432831764221191406e+00) (4, 4.47915363311767578125e+00) (5, -1.22899179458618164062e+01) (6, 2.98972339630126953125e+01) (7, -8.19945240020751953125e+00) (8, 7.60286712646484375000e+00) (9, 2.88547096252441406250e+01) (10, 1.49592712521553039551e-01) (11, 3.86067581176757812500e+00) (12, -3.17763328552246093750e+00) (3, -1.92441344261169433594e+00) (4, 1.13300371170043945312e+00) (5, -2.94435524940490722656e+00) (6, -4.93875789642333984375e+00) (7, -2.66633629798889160156e+00) (8, 7.56872415542602539062e-01) (9, -1.00863904953002929688e+01) (10, -1.84759604930877685547e+00) (11, 5.79718303680419921875e+00) (12, 2.10324525833129882812e+00) (3, 2.38615512847900390625e+00) (4, 2.14811444282531738281e-01) (5, 5.89167976379394531250e+00) (6, -1.13559770584106445312e+01) (7, 1.17590894699096679688e+01) (8, 3.12763780355453491211e-01) (9, -1.08772468566894531250e+01) (10, 6.06509017944335937500e+00) (11, -1.67313009500503540039e-01) (12, 5.98238967359066009521e-02) 
