FANN_FLO_2.1
num_layers=3
learning_rate=0.700000
connection_rate=1.000000
network_type=0
learning_momentum=0.000000
training_algorithm=2
train_error_function=1
train_stop_function=0
cascade_output_change_fraction=0.010000
quickprop_decay=-0.000100
quickprop_mu=1.750000
rprop_increase_factor=1.200000
rprop_decrease_factor=0.500000
rprop_delta_min=0.000000
rprop_delta_max=50.000000
rprop_delta_zero=0.100000
cascade_output_stagnation_epochs=12
cascade_candidate_change_fraction=0.010000
cascade_candidate_stagnation_epochs=12
cascade_max_out_epochs=150
cascade_min_out_epochs=50
cascade_max_cand_epochs=150
cascade_min_cand_epochs=50
cascade_num_candidate_groups=2
bit_fail_limit=3.49999994039535522461e-01
cascade_candidate_limit=1.00000000000000000000e+03
cascade_weight_multiplier=4.00000005960464477539e-01
cascade_activation_functions_count=10
cascade_activation_functions=3 5 7 8 10 11 14 15 16 17 
cascade_activation_steepnesses_count=4
cascade_activation_steepnesses=2.50000000000000000000e-01 5.00000000000000000000e-01 7.50000000000000000000e-01 1.00000000000000000000e+00 
layer_sizes=3 10 4 
scale_included=0
neurons (num_inputs, activation_function, activation_steepness)=(0, 0, 0.00000000000000000000e+00) (0, 0, 0.00000000000000000000e+00) (0, 0, 0.00000000000000000000e+00) (3, 5, 5.00000000000000000000e-01) (3, 5, 5.00000000000000000000e-01) (3, 5, 5.00000000000000000000e-01) (3, 5, 5.00000000000000000000e-01) (3, 5, 5.00000000000000000000e-01) (3, 5, 5.00000000000000000000e-01) (3, 5, 5.00000000000000000000e-01) (3, 5, 5.00000000000000000000e-01) (3, 5, 5.00000000000000000000e-01) (0, 5, 0.00000000000000000000e+00) (10, 5, 5.00000000000000000000e-01) (10, 5, 5.00000000000000000000e-01) (10, 5, 5.00000000000000000000e-01) (0, 5, 0.00000000000000000000e+00) 
connections (connected_to_neuron, weight)=(0, -1.34747810363769531250e+01) (1, -5.48219978809356689453e-01) (2, 1.17069542407989501953e-01) (0, -7.65840625762939453125e+00) (1, 7.51446771621704101562e+00) (2, -3.82368713617324829102e-02) (0, -4.34617614746093750000e+01) (1, -1.67095947265625000000e+02) (2, 1.74775309860706329346e-02) (0, 5.61649627685546875000e+01) (1, 9.78851199150085449219e-01) (2, 2.68655806779861450195e-01) (0, -7.27153747558593750000e+02) (1, -4.42536468505859375000e+02) (2, -2.65591907501220703125e+00) (0, 1.15783758163452148438e+01) (1, 1.50000000000000000000e+03) (2, -6.43929660320281982422e-01) (0, -1.42388887405395507812e+01) (1, -2.70950174331665039062e+00) (2, 1.01267266273498535156e+00) (0, -1.50000000000000000000e+03) (1, 1.50000000000000000000e+03) (2, 1.50000000000000000000e+03) (0, -1.32370910644531250000e+01) (1, 1.07360064983367919922e+00) (2, -4.60380502045154571533e-03) (3, -1.45405957031250000000e+03) (4, -1.49757470703125000000e+03) (5, -4.34653076171875000000e+02) (6, 1.85405700683593750000e+02) (7, -3.05940628051757812500e+01) (8, 3.79888248443603515625e+00) (9, 1.04101762771606445312e+01) (10, 1.01178901672363281250e+02) (11, -1.49959020996093750000e+03) (12, 1.01155769348144531250e+02) (3, 1.25640785217285156250e+02) (4, -2.19501327514648437500e+02) (5, -1.41820800781250000000e+02) (6, 9.71893463134765625000e+01) (7, 3.66657447814941406250e+01) (8, -1.60321350097656250000e+01) (9, 3.36521357297897338867e-01) (10, -1.96804630756378173828e+00) (11, -2.65845397949218750000e+02) (12, -7.58973360061645507812e-01) (3, -1.97999221801757812500e+02) (4, 1.82567398071289062500e+02) (5, 1.85558135986328125000e+02) (6, 9.79750537872314453125e+00) (7, -1.92586364746093750000e+01) (8, 2.95963459014892578125e+01) (9, -1.42843627929687500000e+00) (10, -1.55538737773895263672e+00) (11, 2.40373489379882812500e+02) (12, -1.43737590312957763672e+00) 
